<?xml version="1.0" encoding="ISO-8859-1" standalone="no"?>
<smile discsamples="10000" id="DAG" numsamples="10000" version="1.0">
  <nodes>
    <cpt id="ClustVar">
      <state id="0"/>
      <state id="1"/>
      <probabilities>0.9970441298043777 0.0029558701956222564 </probabilities>
    </cpt>
    <equation id="R">
      <parents>ClustVar</parents>
      <definition lower="0.0" upper="74.0">R=Choose(ClustVar,Normal(9.670375642580359,70.03910580299745),Normal(9.510462685892056,65.42433642631978))</definition>
      <discretization>
        <interval upper="7.4"/>
        <interval upper="14.8"/>
        <interval upper="22.200000000000003"/>
        <interval upper="29.6"/>
        <interval upper="37.0"/>
        <interval upper="44.4"/>
        <interval upper="51.8"/>
        <interval upper="59.199999999999996"/>
        <interval upper="66.6"/>
        <interval upper="74.0"/>
      </discretization>
    </equation>
    <equation id="F">
      <parents>ClustVar</parents>
      <definition lower="1.0" upper="50.0">F=Choose(ClustVar,Normal(5.602250446273534,36.15640227584953),Normal(5.5107339168332246,33.98430220845655))</definition>
      <discretization>
        <interval upper="5.9"/>
        <interval upper="10.8"/>
        <interval upper="15.700000000000001"/>
        <interval upper="20.6"/>
        <interval upper="25.5"/>
        <interval upper="30.4"/>
        <interval upper="35.3"/>
        <interval upper="40.199999999999996"/>
        <interval upper="45.099999999999994"/>
        <interval upper="49.99999999999999"/>
      </discretization>
    </equation>
    <equation id="M">
      <parents>ClustVar</parents>
      <definition lower="250.0" upper="12500.0">M=Choose(ClustVar,Normal(1400.562611568382,2259775.142240606),Normal(1377.6834792083062,2124018.888028521))</definition>
      <discretization>
        <interval upper="1475.0"/>
        <interval upper="2700.0"/>
        <interval upper="3925.0"/>
        <interval upper="5150.0"/>
        <interval upper="6375.0"/>
        <interval upper="7600.0"/>
        <interval upper="8825.0"/>
        <interval upper="10050.0"/>
        <interval upper="11275.0"/>
        <interval upper="12500.0"/>
      </discretization>
    </equation>
    <equation id="T">
      <parents>ClustVar</parents>
      <definition lower="2.0" upper="98.0">T=Choose(ClustVar,Normal(34.444867654655916,587.724455379637),Normal(34.27918023368181,593.3236581182666))</definition>
      <discretization>
        <interval upper="11.6"/>
        <interval upper="21.2"/>
        <interval upper="30.799999999999997"/>
        <interval upper="40.4"/>
        <interval upper="50.0"/>
        <interval upper="59.6"/>
        <interval upper="69.2"/>
        <interval upper="78.8"/>
        <interval upper="88.39999999999999"/>
        <interval upper="97.99999999999999"/>
      </discretization>
    </equation>
    <cpt id="class">
      <state id="0"/>
      <state id="1"/>
      <parents>ClustVar</parents>
      <probabilities>0.7485383141284573 0.2514616858715427 0.5876281712994055 0.4123718287005946 </probabilities>
    </cpt>
  </nodes>
  <extensions>
    <genie app="GeNIe 2.3.3705.0 ACADEMIC" faultnameformat="nodestate" name="DAG" version="1.0">
      <node id="R">
        <name>R</name>
        <interior color="e5f6f7"/>
        <outline color="000080"/>
        <font bold="true" color="000080" name="Arial" size="10"/>
        <position>100 100 100 100</position>
        <barchart active="true" height="110" width="160"/>
      </node>
      <node id="F">
        <name>F</name>
        <interior color="e5f6f7"/>
        <outline color="000080"/>
        <font bold="true" color="000080" name="Arial" size="10"/>
        <position>100 100 100 100</position>
        <barchart active="true" height="110" width="160"/>
      </node>
      <node id="M">
        <name>M</name>
        <interior color="e5f6f7"/>
        <outline color="000080"/>
        <font bold="true" color="000080" name="Arial" size="10"/>
        <position>100 100 100 100</position>
        <barchart active="true" height="110" width="160"/>
      </node>
      <node id="T">
        <name>T</name>
        <interior color="e5f6f7"/>
        <outline color="000080"/>
        <font bold="true" color="000080" name="Arial" size="10"/>
        <position>100 100 100 100</position>
        <barchart active="true" height="110" width="160"/>
      </node>
      <node id="class">
        <name>class</name>
        <interior color="e5f6f7"/>
        <outline color="000080"/>
        <font bold="true" color="000080" name="Arial" size="10"/>
        <position>100 100 100 100</position>
        <barchart active="true" height="110" width="160"/>
      </node>
      <node id="ClustVar">
        <name>ClustVar</name>
        <interior color="e5f6f7"/>
        <outline color="000080"/>
        <font bold="true" color="000080" name="Arial" size="10"/>
        <position>100 100 100 100</position>
        <barchart active="true" height="110" width="160"/>
      </node>
    </genie>
  </extensions>
</smile>
