<?xml version="1.0" encoding="ISO-8859-1" standalone="no"?>
<smile discsamples="10000" id="DAG" numsamples="10000" version="1.0">
  <nodes>
    <cpt id="ClustVar">
      <state id="0"/>
      <state id="1"/>
      <probabilities>0.47788881874896566 0.5221111812510343 </probabilities>
    </cpt>
    <equation id="mdvp_fo">
      <parents>ClustVar</parents>
      <definition lower="88.333" upper="260.105">mdvp_fo=Choose(ClustVar,Normal(146.1059121075766,1039.2248700891992),Normal(167.91843793587782,2121.7224512558128))</definition>
      <discretization>
        <interval upper="105.5102"/>
        <interval upper="122.6874"/>
        <interval upper="139.8646"/>
        <interval upper="157.0418"/>
        <interval upper="174.219"/>
        <interval upper="191.3962"/>
        <interval upper="208.5734"/>
        <interval upper="225.7506"/>
        <interval upper="242.9278"/>
        <interval upper="260.105"/>
      </discretization>
    </equation>
    <equation id="mdvp_fhi">
      <parents>ClustVar</parents>
      <definition lower="102.145" upper="592.03">mdvp_fhi=Choose(ClustVar,Normal(188.57091050558932,7160.871217395486),Normal(212.31547348819868,9919.005957190035))</definition>
      <discretization>
        <interval upper="151.1335"/>
        <interval upper="200.122"/>
        <interval upper="249.1105"/>
        <interval upper="298.099"/>
        <interval upper="347.0875"/>
        <interval upper="396.07599999999996"/>
        <interval upper="445.06449999999995"/>
        <interval upper="494.05299999999994"/>
        <interval upper="543.0414999999999"/>
        <interval upper="592.03"/>
      </discretization>
    </equation>
    <equation id="mdvp_flo">
      <parents>ClustVar</parents>
      <definition lower="65.476" upper="239.17">mdvp_flo=Choose(ClustVar,Normal(102.31122425087996,975.0138353034604),Normal(133.52308648820255,2467.262692632127))</definition>
      <discretization>
        <interval upper="82.8454"/>
        <interval upper="100.2148"/>
        <interval upper="117.5842"/>
        <interval upper="134.9536"/>
        <interval upper="152.32299999999998"/>
        <interval upper="169.69239999999996"/>
        <interval upper="187.06179999999995"/>
        <interval upper="204.43119999999993"/>
        <interval upper="221.80059999999992"/>
        <interval upper="239.1699999999999"/>
      </discretization>
    </equation>
    <equation id="mdvp_jitter">
      <parents>ClustVar</parents>
      <definition lower="0.00168" upper="0.03316">mdvp_jitter=Choose(ClustVar,Normal(0.008890420235422223,3.647741207097645E-5),Normal(0.0037432508028102606,1.7941262309204175E-6))</definition>
      <discretization>
        <interval upper="0.004828000000000001"/>
        <interval upper="0.007976"/>
        <interval upper="0.011124"/>
        <interval upper="0.014272"/>
        <interval upper="0.01742"/>
        <interval upper="0.020568000000000003"/>
        <interval upper="0.023716000000000004"/>
        <interval upper="0.026864000000000006"/>
        <interval upper="0.030012000000000007"/>
        <interval upper="0.03316000000000001"/>
      </discretization>
    </equation>
    <equation id="mdvp_jitter_abs">
      <parents>ClustVar</parents>
      <definition lower="7.0E-6" upper="2.6E-4">mdvp_jitter_abs=Choose(ClustVar,Normal(6.250557896263605E-5,1.6943871473446877E-9),Normal(2.4690192543997936E-5,1.6051780125113735E-10))</definition>
      <discretization>
        <interval upper="3.23E-5"/>
        <interval upper="5.76E-5"/>
        <interval upper="8.29E-5"/>
        <interval upper="1.082E-4"/>
        <interval upper="1.335E-4"/>
        <interval upper="1.5879999999999998E-4"/>
        <interval upper="1.8409999999999998E-4"/>
        <interval upper="2.0939999999999997E-4"/>
        <interval upper="2.3469999999999996E-4"/>
        <interval upper="2.6E-4"/>
      </discretization>
    </equation>
    <equation id="mdvp_rap">
      <parents>ClustVar</parents>
      <definition lower="6.8E-4" upper="0.02144">mdvp_rap=Choose(ClustVar,Normal(0.004939012244286816,1.415962314483086E-5),Normal(0.0018639281386003946,6.043400299037001E-7))</definition>
      <discretization>
        <interval upper="0.002756"/>
        <interval upper="0.004832"/>
        <interval upper="0.006908000000000001"/>
        <interval upper="0.008984"/>
        <interval upper="0.01106"/>
        <interval upper="0.013136"/>
        <interval upper="0.015212"/>
        <interval upper="0.017288"/>
        <interval upper="0.019364000000000003"/>
        <interval upper="0.021440000000000004"/>
      </discretization>
    </equation>
    <equation id="mdvp_ppq">
      <parents>ClustVar</parents>
      <definition lower="9.2E-4" upper="0.01958">mdvp_ppq=Choose(ClustVar,Normal(0.004860234351653707,1.1375435211356508E-5),Normal(0.002005438044885509,5.157739876428769E-7))</definition>
      <discretization>
        <interval upper="0.0027860000000000003"/>
        <interval upper="0.004652"/>
        <interval upper="0.0065179999999999995"/>
        <interval upper="0.008383999999999999"/>
        <interval upper="0.010249999999999999"/>
        <interval upper="0.012115999999999998"/>
        <interval upper="0.013981999999999998"/>
        <interval upper="0.015847999999999998"/>
        <interval upper="0.017713999999999997"/>
        <interval upper="0.019579999999999997"/>
      </discretization>
    </equation>
    <equation id="jitter_ddp">
      <parents>ClustVar</parents>
      <definition lower="0.00204" upper="0.06433">jitter_ddp=Choose(ClustVar,Normal(0.014816580915002283,1.2746086573961753E-4),Normal(0.0055933997040953165,5.439231065703685E-6))</definition>
      <discretization>
        <interval upper="0.008269"/>
        <interval upper="0.014498"/>
        <interval upper="0.020727000000000002"/>
        <interval upper="0.026956"/>
        <interval upper="0.033185"/>
        <interval upper="0.039414"/>
        <interval upper="0.045642999999999996"/>
        <interval upper="0.051871999999999995"/>
        <interval upper="0.05810099999999999"/>
        <interval upper="0.06433"/>
      </discretization>
    </equation>
    <equation id="mdvp_shimmer">
      <parents>ClustVar</parents>
      <definition lower="0.00954" upper="0.11908">mdvp_shimmer=Choose(ClustVar,Normal(0.04298059001529956,3.687577669615532E-4),Normal(0.016924702325983212,2.4019666229359324E-5))</definition>
      <discretization>
        <interval upper="0.020494"/>
        <interval upper="0.031448"/>
        <interval upper="0.042401999999999995"/>
        <interval upper="0.053355999999999994"/>
        <interval upper="0.06430999999999999"/>
        <interval upper="0.075264"/>
        <interval upper="0.086218"/>
        <interval upper="0.09717200000000001"/>
        <interval upper="0.10812600000000001"/>
        <interval upper="0.11908000000000002"/>
      </discretization>
    </equation>
    <equation id="mdvp_shimmer_db">
      <parents>ClustVar</parents>
      <definition lower="0.085" upper="1.302">mdvp_shimmer_db=Choose(ClustVar,Normal(0.4145511145223692,0.04325220841087481),Normal(0.1556180907344415,0.002223337787235351))</definition>
      <discretization>
        <interval upper="0.2067"/>
        <interval upper="0.3284"/>
        <interval upper="0.45010000000000006"/>
        <interval upper="0.5718000000000001"/>
        <interval upper="0.6935000000000001"/>
        <interval upper="0.8152000000000001"/>
        <interval upper="0.9369000000000002"/>
        <interval upper="1.0586000000000002"/>
        <interval upper="1.1803000000000001"/>
        <interval upper="1.302"/>
      </discretization>
    </equation>
    <equation id="shimmer_apq3">
      <parents>ClustVar</parents>
      <definition lower="0.00455" upper="0.05647">shimmer_apq3=Choose(ClustVar,Normal(0.022936429378931193,1.0529779185483797E-4),Normal(0.008823115294458972,9.005148358612682E-6))</definition>
      <discretization>
        <interval upper="0.009742"/>
        <interval upper="0.014934000000000001"/>
        <interval upper="0.020126"/>
        <interval upper="0.025318"/>
        <interval upper="0.030510000000000002"/>
        <interval upper="0.035702000000000005"/>
        <interval upper="0.04089400000000001"/>
        <interval upper="0.04608600000000001"/>
        <interval upper="0.05127800000000001"/>
        <interval upper="0.05647000000000001"/>
      </discretization>
    </equation>
    <equation id="shimmer_apq5">
      <parents>ClustVar</parents>
      <definition lower="0.0057" upper="0.0794">shimmer_apq5=Choose(ClustVar,Normal(0.025570328817998592,1.5022437617639002E-4),Normal(0.00999125998497436,8.5648612358657E-6))</definition>
      <discretization>
        <interval upper="0.01307"/>
        <interval upper="0.02044"/>
        <interval upper="0.02781"/>
        <interval upper="0.03518"/>
        <interval upper="0.042550000000000004"/>
        <interval upper="0.049920000000000006"/>
        <interval upper="0.05729000000000001"/>
        <interval upper="0.06466000000000001"/>
        <interval upper="0.07203000000000001"/>
        <interval upper="0.07940000000000001"/>
      </discretization>
    </equation>
    <equation id="mdvp_apq">
      <parents>ClustVar</parents>
      <definition lower="0.00719" upper="0.13778">mdvp_apq=Choose(ClustVar,Normal(0.03507873167793826,3.649547721257339E-4),Normal(0.013558824250306517,1.544944769478125E-5))</definition>
      <discretization>
        <interval upper="0.020249000000000003"/>
        <interval upper="0.033308000000000004"/>
        <interval upper="0.046367000000000005"/>
        <interval upper="0.05942600000000001"/>
        <interval upper="0.07248500000000001"/>
        <interval upper="0.08554400000000001"/>
        <interval upper="0.09860300000000001"/>
        <interval upper="0.11166200000000001"/>
        <interval upper="0.12472100000000001"/>
        <interval upper="0.13778"/>
      </discretization>
    </equation>
    <equation id="shimmer_dda">
      <parents>ClustVar</parents>
      <definition lower="0.01364" upper="0.16942">shimmer_dda=Choose(ClustVar,Normal(0.06880928885101811,9.476506747329418E-4),Normal(0.026469886289508592,8.105130775341583E-5))</definition>
      <discretization>
        <interval upper="0.029217999999999997"/>
        <interval upper="0.044795999999999996"/>
        <interval upper="0.060374"/>
        <interval upper="0.07595199999999999"/>
        <interval upper="0.09152999999999999"/>
        <interval upper="0.10710799999999998"/>
        <interval upper="0.12268599999999998"/>
        <interval upper="0.13826399999999997"/>
        <interval upper="0.15384199999999998"/>
        <interval upper="0.16942"/>
      </discretization>
    </equation>
    <equation id="nhr">
      <parents>ClustVar</parents>
      <definition lower="6.5E-4" upper="0.31482">nhr=Choose(ClustVar,Normal(0.046019996102503895,0.0028964772065507576),Normal(0.007751823707830445,5.636943314069732E-5))</definition>
      <discretization>
        <interval upper="0.032067"/>
        <interval upper="0.063484"/>
        <interval upper="0.094901"/>
        <interval upper="0.12631799999999999"/>
        <interval upper="0.157735"/>
        <interval upper="0.189152"/>
        <interval upper="0.220569"/>
        <interval upper="0.251986"/>
        <interval upper="0.28340299999999996"/>
        <interval upper="0.31482"/>
      </discretization>
    </equation>
    <equation id="hnr">
      <parents>ClustVar</parents>
      <definition lower="8.441" upper="33.047">hnr=Choose(ClustVar,Normal(18.366771069502462,12.77050069182185),Normal(25.047235836166234,7.011425840620341))</definition>
      <discretization>
        <interval upper="10.9016"/>
        <interval upper="13.3622"/>
        <interval upper="15.822799999999999"/>
        <interval upper="18.2834"/>
        <interval upper="20.744"/>
        <interval upper="23.2046"/>
        <interval upper="25.6652"/>
        <interval upper="28.125799999999998"/>
        <interval upper="30.586399999999998"/>
        <interval upper="33.047"/>
      </discretization>
    </equation>
    <cpt id="status">
      <state id="0"/>
      <state id="1"/>
      <parents>ClustVar</parents>
      <probabilities>0.07234416321790284 0.9276558367820972 0.46538290043719605 0.5346170995628039 </probabilities>
    </cpt>
    <equation id="rpde">
      <parents>ClustVar</parents>
      <definition lower="0.25657" upper="0.685151">rpde=Choose(ClustVar,Normal(0.5649564281461437,0.0059145024032146295),Normal(0.4325890323413741,0.007294312677716364))</definition>
      <discretization>
        <interval upper="0.29942810000000003"/>
        <interval upper="0.34228620000000004"/>
        <interval upper="0.38514430000000005"/>
        <interval upper="0.42800240000000006"/>
        <interval upper="0.47086050000000007"/>
        <interval upper="0.5137186"/>
        <interval upper="0.5565767"/>
        <interval upper="0.5994348"/>
        <interval upper="0.6422929"/>
        <interval upper="0.6851510000000001"/>
      </discretization>
    </equation>
    <equation id="dfa">
      <parents>ClustVar</parents>
      <definition lower="0.574282" upper="0.825288">dfa=Choose(ClustVar,Normal(0.7199023895633748,0.0023455543958413503),Normal(0.710571112598824,0.0029574214700302083))</definition>
      <discretization>
        <interval upper="0.5993826"/>
        <interval upper="0.6244832"/>
        <interval upper="0.6495838"/>
        <interval upper="0.6746844000000001"/>
        <interval upper="0.6997850000000001"/>
        <interval upper="0.7248856000000001"/>
        <interval upper="0.7499862000000002"/>
        <interval upper="0.7750868000000002"/>
        <interval upper="0.8001874000000002"/>
        <interval upper="0.8252880000000002"/>
      </discretization>
    </equation>
    <equation id="spread1">
      <parents>ClustVar</parents>
      <definition lower="-7.964984" upper="-2.434031">spread1=Choose(ClustVar,Normal(-5.065855684138198,0.898198339851275),Normal(-6.401293626173339,0.5373588652396573))</definition>
      <discretization>
        <interval upper="-7.4118887"/>
        <interval upper="-6.858793400000001"/>
        <interval upper="-6.305698100000001"/>
        <interval upper="-5.752602800000001"/>
        <interval upper="-5.199507500000001"/>
        <interval upper="-4.646412200000001"/>
        <interval upper="-4.093316900000001"/>
        <interval upper="-3.5402216000000015"/>
        <interval upper="-2.9871263000000017"/>
        <interval upper="-2.434031000000002"/>
      </discretization>
    </equation>
    <equation id="spread2">
      <parents>ClustVar</parents>
      <definition lower="0.006274" upper="0.450493">spread2=Choose(ClustVar,Normal(0.24772186718154296,0.0061608976030664685),Normal(0.19441680170625372,0.005716887734205886))</definition>
      <discretization>
        <interval upper="0.0506959"/>
        <interval upper="0.0951178"/>
        <interval upper="0.1395397"/>
        <interval upper="0.1839616"/>
        <interval upper="0.22838350000000002"/>
        <interval upper="0.27280540000000003"/>
        <interval upper="0.31722730000000005"/>
        <interval upper="0.36164920000000006"/>
        <interval upper="0.4060711000000001"/>
        <interval upper="0.4504930000000001"/>
      </discretization>
    </equation>
    <equation id="d2">
      <parents>ClustVar</parents>
      <definition lower="1.423287" upper="3.671155">d2=Choose(ClustVar,Normal(2.5191486071433613,0.16839558326293902),Normal(2.2584262302290683,0.10437500312853042))</definition>
      <discretization>
        <interval upper="1.6480738"/>
        <interval upper="1.8728605999999999"/>
        <interval upper="2.0976474"/>
        <interval upper="2.3224342"/>
        <interval upper="2.547221"/>
        <interval upper="2.7720078"/>
        <interval upper="2.9967946"/>
        <interval upper="3.2215814"/>
        <interval upper="3.4463681999999998"/>
        <interval upper="3.6711549999999997"/>
      </discretization>
    </equation>
    <equation id="ppe">
      <parents>ClustVar</parents>
      <definition lower="0.044539" upper="0.527367">ppe=Choose(ClustVar,Normal(0.2543290249108017,0.00681921553098503),Normal(0.1481069899463098,0.002812014913478255))</definition>
      <discretization>
        <interval upper="0.09282180000000001"/>
        <interval upper="0.14110460000000002"/>
        <interval upper="0.18938740000000004"/>
        <interval upper="0.23767020000000005"/>
        <interval upper="0.28595300000000007"/>
        <interval upper="0.3342358000000001"/>
        <interval upper="0.3825186000000001"/>
        <interval upper="0.4308014000000001"/>
        <interval upper="0.4790842000000001"/>
        <interval upper="0.5273670000000001"/>
      </discretization>
    </equation>
  </nodes>
  <extensions>
    <genie app="GeNIe 2.3.3705.0 ACADEMIC" faultnameformat="nodestate" name="DAG" version="1.0">
      <node id="mdvp_fo">
        <name>mdvp_fo</name>
        <interior color="e5f6f7"/>
        <outline color="000080"/>
        <font bold="true" color="000080" name="Arial" size="10"/>
        <position>100 100 100 100</position>
        <barchart active="true" height="110" width="160"/>
      </node>
      <node id="mdvp_fhi">
        <name>mdvp_fhi</name>
        <interior color="e5f6f7"/>
        <outline color="000080"/>
        <font bold="true" color="000080" name="Arial" size="10"/>
        <position>100 100 100 100</position>
        <barchart active="true" height="110" width="160"/>
      </node>
      <node id="mdvp_flo">
        <name>mdvp_flo</name>
        <interior color="e5f6f7"/>
        <outline color="000080"/>
        <font bold="true" color="000080" name="Arial" size="10"/>
        <position>100 100 100 100</position>
        <barchart active="true" height="110" width="160"/>
      </node>
      <node id="mdvp_jitter">
        <name>mdvp_jitter</name>
        <interior color="e5f6f7"/>
        <outline color="000080"/>
        <font bold="true" color="000080" name="Arial" size="10"/>
        <position>100 100 100 100</position>
        <barchart active="true" height="110" width="160"/>
      </node>
      <node id="mdvp_jitter_abs">
        <name>mdvp_jitter_abs</name>
        <interior color="e5f6f7"/>
        <outline color="000080"/>
        <font bold="true" color="000080" name="Arial" size="10"/>
        <position>100 100 100 100</position>
        <barchart active="true" height="110" width="160"/>
      </node>
      <node id="mdvp_rap">
        <name>mdvp_rap</name>
        <interior color="e5f6f7"/>
        <outline color="000080"/>
        <font bold="true" color="000080" name="Arial" size="10"/>
        <position>100 100 100 100</position>
        <barchart active="true" height="110" width="160"/>
      </node>
      <node id="mdvp_ppq">
        <name>mdvp_ppq</name>
        <interior color="e5f6f7"/>
        <outline color="000080"/>
        <font bold="true" color="000080" name="Arial" size="10"/>
        <position>100 100 100 100</position>
        <barchart active="true" height="110" width="160"/>
      </node>
      <node id="jitter_ddp">
        <name>jitter_ddp</name>
        <interior color="e5f6f7"/>
        <outline color="000080"/>
        <font bold="true" color="000080" name="Arial" size="10"/>
        <position>100 100 100 100</position>
        <barchart active="true" height="110" width="160"/>
      </node>
      <node id="mdvp_shimmer">
        <name>mdvp_shimmer</name>
        <interior color="e5f6f7"/>
        <outline color="000080"/>
        <font bold="true" color="000080" name="Arial" size="10"/>
        <position>100 100 100 100</position>
        <barchart active="true" height="110" width="160"/>
      </node>
      <node id="mdvp_shimmer_db">
        <name>mdvp_shimmer_db</name>
        <interior color="e5f6f7"/>
        <outline color="000080"/>
        <font bold="true" color="000080" name="Arial" size="10"/>
        <position>100 100 100 100</position>
        <barchart active="true" height="110" width="160"/>
      </node>
      <node id="shimmer_apq3">
        <name>shimmer_apq3</name>
        <interior color="e5f6f7"/>
        <outline color="000080"/>
        <font bold="true" color="000080" name="Arial" size="10"/>
        <position>100 100 100 100</position>
        <barchart active="true" height="110" width="160"/>
      </node>
      <node id="shimmer_apq5">
        <name>shimmer_apq5</name>
        <interior color="e5f6f7"/>
        <outline color="000080"/>
        <font bold="true" color="000080" name="Arial" size="10"/>
        <position>100 100 100 100</position>
        <barchart active="true" height="110" width="160"/>
      </node>
      <node id="mdvp_apq">
        <name>mdvp_apq</name>
        <interior color="e5f6f7"/>
        <outline color="000080"/>
        <font bold="true" color="000080" name="Arial" size="10"/>
        <position>100 100 100 100</position>
        <barchart active="true" height="110" width="160"/>
      </node>
      <node id="shimmer_dda">
        <name>shimmer_dda</name>
        <interior color="e5f6f7"/>
        <outline color="000080"/>
        <font bold="true" color="000080" name="Arial" size="10"/>
        <position>100 100 100 100</position>
        <barchart active="true" height="110" width="160"/>
      </node>
      <node id="nhr">
        <name>nhr</name>
        <interior color="e5f6f7"/>
        <outline color="000080"/>
        <font bold="true" color="000080" name="Arial" size="10"/>
        <position>100 100 100 100</position>
        <barchart active="true" height="110" width="160"/>
      </node>
      <node id="hnr">
        <name>hnr</name>
        <interior color="e5f6f7"/>
        <outline color="000080"/>
        <font bold="true" color="000080" name="Arial" size="10"/>
        <position>100 100 100 100</position>
        <barchart active="true" height="110" width="160"/>
      </node>
      <node id="status">
        <name>status</name>
        <interior color="e5f6f7"/>
        <outline color="000080"/>
        <font bold="true" color="000080" name="Arial" size="10"/>
        <position>100 100 100 100</position>
        <barchart active="true" height="110" width="160"/>
      </node>
      <node id="rpde">
        <name>rpde</name>
        <interior color="e5f6f7"/>
        <outline color="000080"/>
        <font bold="true" color="000080" name="Arial" size="10"/>
        <position>100 100 100 100</position>
        <barchart active="true" height="110" width="160"/>
      </node>
      <node id="dfa">
        <name>dfa</name>
        <interior color="e5f6f7"/>
        <outline color="000080"/>
        <font bold="true" color="000080" name="Arial" size="10"/>
        <position>100 100 100 100</position>
        <barchart active="true" height="110" width="160"/>
      </node>
      <node id="spread1">
        <name>spread1</name>
        <interior color="e5f6f7"/>
        <outline color="000080"/>
        <font bold="true" color="000080" name="Arial" size="10"/>
        <position>100 100 100 100</position>
        <barchart active="true" height="110" width="160"/>
      </node>
      <node id="spread2">
        <name>spread2</name>
        <interior color="e5f6f7"/>
        <outline color="000080"/>
        <font bold="true" color="000080" name="Arial" size="10"/>
        <position>100 100 100 100</position>
        <barchart active="true" height="110" width="160"/>
      </node>
      <node id="d2">
        <name>d2</name>
        <interior color="e5f6f7"/>
        <outline color="000080"/>
        <font bold="true" color="000080" name="Arial" size="10"/>
        <position>100 100 100 100</position>
        <barchart active="true" height="110" width="160"/>
      </node>
      <node id="ppe">
        <name>ppe</name>
        <interior color="e5f6f7"/>
        <outline color="000080"/>
        <font bold="true" color="000080" name="Arial" size="10"/>
        <position>100 100 100 100</position>
        <barchart active="true" height="110" width="160"/>
      </node>
      <node id="ClustVar">
        <name>ClustVar</name>
        <interior color="e5f6f7"/>
        <outline color="000080"/>
        <font bold="true" color="000080" name="Arial" size="10"/>
        <position>100 100 100 100</position>
        <barchart active="true" height="110" width="160"/>
      </node>
    </genie>
  </extensions>
</smile>
