<?xml version="1.0" encoding="ISO-8859-1" standalone="no"?>
<smile discsamples="10000" id="DAG" numsamples="10000" version="1.0">
  <nodes>
    <equation id="y">
      <definition lower="2.0" upper="9.0">y=Normal(4.274731919863817,1.5596393168606282)</definition>
      <discretization>
        <interval upper="2.7"/>
        <interval upper="3.4000000000000004"/>
        <interval upper="4.1000000000000005"/>
        <interval upper="4.800000000000001"/>
        <interval upper="5.500000000000001"/>
        <interval upper="6.200000000000001"/>
        <interval upper="6.900000000000001"/>
        <interval upper="7.600000000000001"/>
        <interval upper="8.3"/>
        <interval upper="9.0"/>
      </discretization>
    </equation>
    <equation id="x">
      <parents>y</parents>
      <definition lower="1.0" upper="9.0">x=Choose(y)</definition>
      <discretization>
        <interval upper="1.8"/>
        <interval upper="2.6"/>
        <interval upper="3.4000000000000004"/>
        <interval upper="4.2"/>
        <interval upper="5.0"/>
        <interval upper="5.8"/>
        <interval upper="6.6"/>
        <interval upper="7.3999999999999995"/>
        <interval upper="8.2"/>
        <interval upper="9.0"/>
      </discretization>
    </equation>
    <equation id="wind">
      <definition lower="0.4" upper="9.4">wind=Normal(4.0441490397160385,3.181271675830962)</definition>
      <discretization>
        <interval upper="1.3"/>
        <interval upper="2.2"/>
        <interval upper="3.1"/>
        <interval upper="4.0"/>
        <interval upper="4.9"/>
        <interval upper="5.800000000000001"/>
        <interval upper="6.700000000000001"/>
        <interval upper="7.600000000000001"/>
        <interval upper="8.500000000000002"/>
        <interval upper="9.400000000000002"/>
      </discretization>
    </equation>
    <cpt id="LV_2159">
      <state id="0"/>
      <state id="1"/>
      <state id="2"/>
      <state id="3"/>
      <state id="4"/>
      <probabilities>0.004201680672268907 0.1556727435985815 0.033049718705378345 0.27945500623709874 0.5276208507866725 </probabilities>
    </cpt>
    <cpt id="month">
      <state id="0"/>
      <state id="1"/>
      <state id="2"/>
      <state id="3"/>
      <state id="4"/>
      <state id="5"/>
      <state id="6"/>
      <state id="7"/>
      <state id="8"/>
      <state id="9"/>
      <state id="10"/>
      <state id="11"/>
      <parents>LV_2159</parents>
      <probabilities>0.08333333333333333 0.08333333333333333 0.08333333333333333 0.08333333333333333 0.08333333333333333 0.08333333333333333 0.08333333333333333 0.08333333333333333 0.08333333333333333 0.08333333333333333 0.08333333333333333 0.08333333333333333 0.03137735471758916 0.2535021696298642 0.07843595103645831 0.04553011535807665 0.02081745315638235 0.035997096693057055 0.03287728253348865 0.08764624817825926 0.031099303018701563 0.020816419540953982 0.041458815016575286 0.32044179112059357 0.05414401900609652 0.17133915721395196 0.053580708424347756 0.053599203902487846 0.05300723214093456 0.09901186885518504 0.05557146424759801 0.05350532897195672 0.053340875367521266 0.053006992526118485 0.05350569408747097 0.24638745525633085 0.01909917620023007 0.3429490881714282 0.03509597163485256 0.04954825861011368 0.012938628369568208 0.10942704588075376 0.05698973359826431 0.03624717172447659 0.012932013149246588 0.012932021796015885 0.012946080644123573 0.2988948102209268 0.025557323453870406 0.32952634214774884 0.007322050603193411 0.043643662623826816 0.014620792011154331 0.057995559925654486 0.03993849133834716 0.1352356125150878 0.010961042523806657 0.010963912918189985 0.04389580523460942 0.2803394047045107 </probabilities>
    </cpt>
    <equation id="area">
      <parents>LV_2159</parents>
      <definition lower="0.0" upper="1090.84">area=Choose(LV_2159,Normal(0.0,1.0),Normal(30.43985442352733,380.3910381515091),Normal(265.5666822652563,70382.18059411591),Normal(3.897372321892114,9.156952516474163),Normal(0.0028521866664183845,0.008542808759420583))</definition>
      <discretization>
        <interval upper="109.08399999999999"/>
        <interval upper="218.16799999999998"/>
        <interval upper="327.25199999999995"/>
        <interval upper="436.33599999999996"/>
        <interval upper="545.42"/>
        <interval upper="654.5039999999999"/>
        <interval upper="763.5879999999999"/>
        <interval upper="872.6719999999998"/>
        <interval upper="981.7559999999997"/>
        <interval upper="1090.8399999999997"/>
      </discretization>
    </equation>
    <cpt id="LV_2445">
      <state id="0"/>
      <state id="1"/>
      <probabilities>0.16382016242705813 0.8361798375729419 </probabilities>
    </cpt>
    <equation id="dmc">
      <parents>LV_2445</parents>
      <definition lower="1.1" upper="291.3">dmc=Choose(LV_2445,Normal(24.770056458429544,239.59274596966424),Normal(129.84212392677486,3275.0564048807223))</definition>
      <discretization>
        <interval upper="30.12"/>
        <interval upper="59.14"/>
        <interval upper="88.16"/>
        <interval upper="117.17999999999999"/>
        <interval upper="146.2"/>
        <interval upper="175.22"/>
        <interval upper="204.24"/>
        <interval upper="233.26000000000002"/>
        <interval upper="262.28000000000003"/>
        <interval upper="291.3"/>
      </discretization>
    </equation>
    <equation id="dc">
      <parents>LV_2445</parents>
      <definition lower="7.9" upper="860.6">dc=Choose(LV_2445,Normal(64.75889308016416,1011.7820948137985),Normal(645.7448972792474,17826.63409444429))</definition>
      <discretization>
        <interval upper="93.17000000000002"/>
        <interval upper="178.44000000000003"/>
        <interval upper="263.71000000000004"/>
        <interval upper="348.98"/>
        <interval upper="434.25"/>
        <interval upper="519.52"/>
        <interval upper="604.79"/>
        <interval upper="690.06"/>
        <interval upper="775.3299999999999"/>
        <interval upper="860.5999999999999"/>
      </discretization>
    </equation>
    <equation id="temp">
      <parents>LV_2445</parents>
      <definition lower="2.2" upper="33.3">temp=Choose(LV_2445,Normal(12.372282155143273,14.092316683389106),Normal(20.25688790560356,27.749959619343606))</definition>
      <discretization>
        <interval upper="5.3100000000000005"/>
        <interval upper="8.42"/>
        <interval upper="11.53"/>
        <interval upper="14.639999999999999"/>
        <interval upper="17.75"/>
        <interval upper="20.86"/>
        <interval upper="23.97"/>
        <interval upper="27.08"/>
        <interval upper="30.189999999999998"/>
        <interval upper="33.3"/>
      </discretization>
    </equation>
    <cpt id="LV_2692">
      <state id="0"/>
      <state id="1"/>
      <probabilities>0.006382978723404255 0.9936170212765958 </probabilities>
    </cpt>
    <cpt id="day">
      <state id="0"/>
      <state id="1"/>
      <state id="2"/>
      <state id="3"/>
      <state id="4"/>
      <state id="5"/>
      <state id="6"/>
      <parents>LV_2692</parents>
      <probabilities>0.13333333333333333 0.13333333333333333 0.13333333333333333 0.2 0.13333333333333333 0.13333333333333333 0.13333333333333333 0.16910229645093947 0.14613778705636743 0.1649269311064718 0.17954070981210857 0.11691022964509394 0.12526096033402923 0.09812108559498957 </probabilities>
    </cpt>
    <equation id="isi">
      <parents>LV_2692</parents>
      <definition lower="0.0" upper="56.1">isi=Choose(LV_2692,Normal(56.09999999439001,0.6666667715735457),Normal(8.949247311826033,16.48180350442647))</definition>
      <discretization>
        <interval upper="5.61"/>
        <interval upper="11.22"/>
        <interval upper="16.830000000000002"/>
        <interval upper="22.44"/>
        <interval upper="28.05"/>
        <interval upper="33.660000000000004"/>
        <interval upper="39.27"/>
        <interval upper="44.88"/>
        <interval upper="50.49"/>
        <interval upper="56.1"/>
      </discretization>
    </equation>
    <cpt id="LV_2749">
      <state id="0"/>
      <state id="1"/>
      <probabilities>0.22557073804239067 0.7744292619576093 </probabilities>
    </cpt>
    <equation id="rh">
      <parents>LV_2749</parents>
      <definition lower="15.0" upper="100.0">rh=Choose(LV_2749,Normal(68.3672379733732,155.365065216459),Normal(37.752068009470634,100.68856264724948))</definition>
      <discretization>
        <interval upper="23.5"/>
        <interval upper="32.0"/>
        <interval upper="40.5"/>
        <interval upper="49.0"/>
        <interval upper="57.5"/>
        <interval upper="66.0"/>
        <interval upper="74.5"/>
        <interval upper="83.0"/>
        <interval upper="91.5"/>
        <interval upper="100.0"/>
      </discretization>
    </equation>
    <cpt id="LV_2322">
      <state id="0"/>
      <state id="1"/>
      <parents>LV_2749</parents>
      <probabilities>0.8529364735904335 0.14706352640956663 0.9883245280691486 0.01167547193085149 </probabilities>
    </cpt>
    <equation id="ffmc">
      <parents>LV_2322</parents>
      <definition lower="18.7" upper="96.2">ffmc=Choose(LV_2322,Normal(91.2209836338918,7.923472819941471),Normal(75.25554677649386,378.91511736092014))</definition>
      <discretization>
        <interval upper="26.45"/>
        <interval upper="34.2"/>
        <interval upper="41.95"/>
        <interval upper="49.7"/>
        <interval upper="57.45"/>
        <interval upper="65.2"/>
        <interval upper="72.95"/>
        <interval upper="80.7"/>
        <interval upper="88.45"/>
        <interval upper="96.2"/>
      </discretization>
    </equation>
    <equation id="rain">
      <parents>LV_2322</parents>
      <definition lower="0.0" upper="6.4">rain=Choose(LV_2322,Normal(8.490094513738095E-4,0.004594666371935879),Normal(0.6694955729547374,2.209479794769218))</definition>
      <discretization>
        <interval upper="0.64"/>
        <interval upper="1.28"/>
        <interval upper="1.92"/>
        <interval upper="2.56"/>
        <interval upper="3.2"/>
        <interval upper="3.8400000000000003"/>
        <interval upper="4.48"/>
        <interval upper="5.12"/>
        <interval upper="5.76"/>
        <interval upper="6.3999999999999995"/>
      </discretization>
    </equation>
  </nodes>
  <extensions>
    <genie app="GeNIe 2.3.3705.0 ACADEMIC" faultnameformat="nodestate" name="DAG" version="1.0">
      <node id="x">
        <name>x</name>
        <interior color="e5f6f7"/>
        <outline color="000080"/>
        <font bold="true" color="000080" name="Arial" size="10"/>
        <position>100 100 100 100</position>
        <barchart active="true" height="110" width="160"/>
      </node>
      <node id="y">
        <name>y</name>
        <interior color="e5f6f7"/>
        <outline color="000080"/>
        <font bold="true" color="000080" name="Arial" size="10"/>
        <position>100 100 100 100</position>
        <barchart active="true" height="110" width="160"/>
      </node>
      <node id="month">
        <name>month</name>
        <interior color="e5f6f7"/>
        <outline color="000080"/>
        <font bold="true" color="000080" name="Arial" size="10"/>
        <position>100 100 100 100</position>
        <barchart active="true" height="110" width="160"/>
      </node>
      <node id="day">
        <name>day</name>
        <interior color="e5f6f7"/>
        <outline color="000080"/>
        <font bold="true" color="000080" name="Arial" size="10"/>
        <position>100 100 100 100</position>
        <barchart active="true" height="110" width="160"/>
      </node>
      <node id="ffmc">
        <name>ffmc</name>
        <interior color="e5f6f7"/>
        <outline color="000080"/>
        <font bold="true" color="000080" name="Arial" size="10"/>
        <position>100 100 100 100</position>
        <barchart active="true" height="110" width="160"/>
      </node>
      <node id="dmc">
        <name>dmc</name>
        <interior color="e5f6f7"/>
        <outline color="000080"/>
        <font bold="true" color="000080" name="Arial" size="10"/>
        <position>100 100 100 100</position>
        <barchart active="true" height="110" width="160"/>
      </node>
      <node id="dc">
        <name>dc</name>
        <interior color="e5f6f7"/>
        <outline color="000080"/>
        <font bold="true" color="000080" name="Arial" size="10"/>
        <position>100 100 100 100</position>
        <barchart active="true" height="110" width="160"/>
      </node>
      <node id="isi">
        <name>isi</name>
        <interior color="e5f6f7"/>
        <outline color="000080"/>
        <font bold="true" color="000080" name="Arial" size="10"/>
        <position>100 100 100 100</position>
        <barchart active="true" height="110" width="160"/>
      </node>
      <node id="temp">
        <name>temp</name>
        <interior color="e5f6f7"/>
        <outline color="000080"/>
        <font bold="true" color="000080" name="Arial" size="10"/>
        <position>100 100 100 100</position>
        <barchart active="true" height="110" width="160"/>
      </node>
      <node id="rh">
        <name>rh</name>
        <interior color="e5f6f7"/>
        <outline color="000080"/>
        <font bold="true" color="000080" name="Arial" size="10"/>
        <position>100 100 100 100</position>
        <barchart active="true" height="110" width="160"/>
      </node>
      <node id="wind">
        <name>wind</name>
        <interior color="e5f6f7"/>
        <outline color="000080"/>
        <font bold="true" color="000080" name="Arial" size="10"/>
        <position>100 100 100 100</position>
        <barchart active="true" height="110" width="160"/>
      </node>
      <node id="rain">
        <name>rain</name>
        <interior color="e5f6f7"/>
        <outline color="000080"/>
        <font bold="true" color="000080" name="Arial" size="10"/>
        <position>100 100 100 100</position>
        <barchart active="true" height="110" width="160"/>
      </node>
      <node id="area">
        <name>area</name>
        <interior color="e5f6f7"/>
        <outline color="000080"/>
        <font bold="true" color="000080" name="Arial" size="10"/>
        <position>100 100 100 100</position>
        <barchart active="true" height="110" width="160"/>
      </node>
      <node id="LV_2159">
        <name>LV_2159</name>
        <interior color="e5f6f7"/>
        <outline color="000080"/>
        <font bold="true" color="000080" name="Arial" size="10"/>
        <position>100 100 100 100</position>
        <barchart active="true" height="110" width="160"/>
      </node>
      <node id="LV_2322">
        <name>LV_2322</name>
        <interior color="e5f6f7"/>
        <outline color="000080"/>
        <font bold="true" color="000080" name="Arial" size="10"/>
        <position>100 100 100 100</position>
        <barchart active="true" height="110" width="160"/>
      </node>
      <node id="LV_2445">
        <name>LV_2445</name>
        <interior color="e5f6f7"/>
        <outline color="000080"/>
        <font bold="true" color="000080" name="Arial" size="10"/>
        <position>100 100 100 100</position>
        <barchart active="true" height="110" width="160"/>
      </node>
      <node id="LV_2692">
        <name>LV_2692</name>
        <interior color="e5f6f7"/>
        <outline color="000080"/>
        <font bold="true" color="000080" name="Arial" size="10"/>
        <position>100 100 100 100</position>
        <barchart active="true" height="110" width="160"/>
      </node>
      <node id="LV_2749">
        <name>LV_2749</name>
        <interior color="e5f6f7"/>
        <outline color="000080"/>
        <font bold="true" color="000080" name="Arial" size="10"/>
        <position>100 100 100 100</position>
        <barchart active="true" height="110" width="160"/>
      </node>
    </genie>
  </extensions>
</smile>
