<?xml version="1.0" encoding="ISO-8859-1" standalone="no"?>
<smile discsamples="10000" id="DAG" numsamples="10000" version="1.0">
  <nodes>
    <equation id="y">
      <definition lower="2.0" upper="9.0">y=Normal(4.266166609371311,1.5428590044772035)</definition>
      <discretization>
        <interval upper="2.7"/>
        <interval upper="3.4000000000000004"/>
        <interval upper="4.1000000000000005"/>
        <interval upper="4.800000000000001"/>
        <interval upper="5.500000000000001"/>
        <interval upper="6.200000000000001"/>
        <interval upper="6.900000000000001"/>
        <interval upper="7.600000000000001"/>
        <interval upper="8.3"/>
        <interval upper="9.0"/>
      </discretization>
    </equation>
    <equation id="x">
      <parents>y</parents>
      <definition lower="1.0" upper="9.0">x=Choose(y)</definition>
      <discretization>
        <interval upper="1.8"/>
        <interval upper="2.6"/>
        <interval upper="3.4000000000000004"/>
        <interval upper="4.2"/>
        <interval upper="5.0"/>
        <interval upper="5.8"/>
        <interval upper="6.6"/>
        <interval upper="7.3999999999999995"/>
        <interval upper="8.2"/>
        <interval upper="9.0"/>
      </discretization>
    </equation>
    <equation id="wind">
      <definition lower="0.4" upper="9.4">wind=Normal(3.9820505386453746,2.9411855682773824)</definition>
      <discretization>
        <interval upper="1.3"/>
        <interval upper="2.2"/>
        <interval upper="3.1"/>
        <interval upper="4.0"/>
        <interval upper="4.9"/>
        <interval upper="5.800000000000001"/>
        <interval upper="6.700000000000001"/>
        <interval upper="7.600000000000001"/>
        <interval upper="8.500000000000002"/>
        <interval upper="9.400000000000002"/>
      </discretization>
    </equation>
    <cpt id="LV_3919">
      <state id="0"/>
      <state id="1"/>
      <probabilities>0.22092428658292823 0.7790757134170717 </probabilities>
    </cpt>
    <cpt id="month">
      <state id="0"/>
      <state id="1"/>
      <state id="2"/>
      <state id="3"/>
      <state id="4"/>
      <state id="5"/>
      <state id="6"/>
      <state id="7"/>
      <state id="8"/>
      <state id="9"/>
      <state id="10"/>
      <state id="11"/>
      <parents>LV_3919</parents>
      <probabilities>0.08723489834707635 0.016319681927299858 0.015893903149340433 0.15078729101503371 0.03157122271697496 0.022384833306632466 0.033000385824962286 0.4445235234521701 0.023722887726917084 0.023671694495062037 0.1345944258568079 0.016295252181722786 0.0052113008009516005 0.43266695640799796 0.005152440287624242 0.00521882817158011 0.005222651736727337 0.059725072186810176 0.020216670570766086 0.0053163976581416415 0.005190682492998455 0.005207278169201161 0.005315744824750615 0.4455559766924506 </probabilities>
    </cpt>
    <equation id="dc">
      <parents>month</parents>
      <definition lower="7.9" upper="860.6">dc=Choose(month,Normal(48.555555555016056,597.9765656779987),Normal(642.2204819273246,6336.223752396093),Normal(0.0,1.0),Normal(41.49411764681474,287.52365325983595),Normal(90.3499999954825,3285.0512502040783),Normal(448.05909090705444,11409.878883412224),Normal(297.1499999962856,3780.3180008829922),Normal(75.94259259245194,567.1677149573911),Normal(73.69999999263,0.6666668477231118),Normal(106.69999998933001,0.6666670461636386),Normal(681.6733333287889,109.38290469414171),Normal(734.7345029235478,2257.4690548358967))</definition>
      <discretization>
        <interval upper="93.17000000000002"/>
        <interval upper="178.44000000000003"/>
        <interval upper="263.71000000000004"/>
        <interval upper="348.98"/>
        <interval upper="434.25"/>
        <interval upper="519.52"/>
        <interval upper="604.79"/>
        <interval upper="690.06"/>
        <interval upper="775.3299999999999"/>
        <interval upper="860.5999999999999"/>
      </discretization>
    </equation>
    <equation id="dmc">
      <parents>LV_3919</parents>
      <definition lower="1.1" upper="291.3">dmc=Choose(LV_3919,Normal(29.15294156188624,255.95140721326106),Normal(135.47608354579236,2841.153349691848))</definition>
      <discretization>
        <interval upper="30.12"/>
        <interval upper="59.14"/>
        <interval upper="88.16"/>
        <interval upper="117.17999999999999"/>
        <interval upper="146.2"/>
        <interval upper="175.22"/>
        <interval upper="204.24"/>
        <interval upper="233.26000000000002"/>
        <interval upper="262.28000000000003"/>
        <interval upper="291.3"/>
      </discretization>
    </equation>
    <cpt id="LV_4166">
      <state id="0"/>
      <state id="1"/>
      <probabilities>0.00425531914893617 0.9957446808510638 </probabilities>
    </cpt>
    <equation id="rh">
      <parents>LV_4166</parents>
      <definition lower="15.0" upper="100.0">rh=Choose(LV_4166,Normal(0.0,1.0),Normal(44.06437768239398,260.56424929427766))</definition>
      <discretization>
        <interval upper="23.5"/>
        <interval upper="32.0"/>
        <interval upper="40.5"/>
        <interval upper="49.0"/>
        <interval upper="57.5"/>
        <interval upper="66.0"/>
        <interval upper="74.5"/>
        <interval upper="83.0"/>
        <interval upper="91.5"/>
        <interval upper="100.0"/>
      </discretization>
    </equation>
    <equation id="temp">
      <parents>rh</parents>
      <definition lower="2.2" upper="33.3">temp=Choose(rh)</definition>
      <discretization>
        <interval upper="5.3100000000000005"/>
        <interval upper="8.42"/>
        <interval upper="11.53"/>
        <interval upper="14.639999999999999"/>
        <interval upper="17.75"/>
        <interval upper="20.86"/>
        <interval upper="23.97"/>
        <interval upper="27.08"/>
        <interval upper="30.189999999999998"/>
        <interval upper="33.3"/>
      </discretization>
    </equation>
    <cpt id="LV_3559">
      <state id="0"/>
      <state id="1"/>
      <parents>LV_4166</parents>
      <probabilities>0.5 0.5 0.4961949848606142 0.5038050151393859 </probabilities>
    </cpt>
    <equation id="ffmc">
      <parents>LV_3559</parents>
      <definition lower="18.7" upper="96.2">ffmc=Choose(LV_3559,Normal(90.36360227125765,45.04065823754837),Normal(91.18801002279079,13.590337372862832))</definition>
      <discretization>
        <interval upper="26.45"/>
        <interval upper="34.2"/>
        <interval upper="41.95"/>
        <interval upper="49.7"/>
        <interval upper="57.45"/>
        <interval upper="65.2"/>
        <interval upper="72.95"/>
        <interval upper="80.7"/>
        <interval upper="88.45"/>
        <interval upper="96.2"/>
      </discretization>
    </equation>
    <equation id="area">
      <parents>LV_3559</parents>
      <definition lower="0.0" upper="1090.84">area=Choose(LV_3559,Normal(0.0047997391587266585,0.009906438797553218),Normal(26.980597855218296,8424.44454208275))</definition>
      <discretization>
        <interval upper="109.08399999999999"/>
        <interval upper="218.16799999999998"/>
        <interval upper="327.25199999999995"/>
        <interval upper="436.33599999999996"/>
        <interval upper="545.42"/>
        <interval upper="654.5039999999999"/>
        <interval upper="763.5879999999999"/>
        <interval upper="872.6719999999998"/>
        <interval upper="981.7559999999997"/>
        <interval upper="1090.8399999999997"/>
      </discretization>
    </equation>
    <cpt id="LV_3731">
      <state id="0"/>
      <state id="1"/>
      <parents>LV_4166</parents>
      <probabilities>0.5 0.5 0.9806449855738468 0.01935501442615322 </probabilities>
    </cpt>
    <cpt id="day">
      <state id="0"/>
      <state id="1"/>
      <state id="2"/>
      <state id="3"/>
      <state id="4"/>
      <state id="5"/>
      <state id="6"/>
      <parents>LV_3731</parents>
      <probabilities>0.16279749105839178 0.14589504133130207 0.15855785222293908 0.18606239329969027 0.12898351017057075 0.10776178311311813 0.10994192880398784 0.14279637964924147 0.09507465472921874 0.09563004207768139 0.19009985304262955 0.09495692356869585 0.2862565788704376 0.09518556806209531 </probabilities>
    </cpt>
    <equation id="isi">
      <parents>LV_3731</parents>
      <definition lower="0.0" upper="56.1">isi=Choose(LV_3731,Normal(8.899072095421582,15.827070851976663),Normal(19.10533745671442,180.41869013716948))</definition>
      <discretization>
        <interval upper="5.61"/>
        <interval upper="11.22"/>
        <interval upper="16.830000000000002"/>
        <interval upper="22.44"/>
        <interval upper="28.05"/>
        <interval upper="33.660000000000004"/>
        <interval upper="39.27"/>
        <interval upper="44.88"/>
        <interval upper="50.49"/>
        <interval upper="56.1"/>
      </discretization>
    </equation>
    <equation id="rain">
      <parents>LV_3731</parents>
      <definition lower="0.0" upper="6.4">rain=Choose(LV_3731,Normal(4.33652777155506E-4,0.004425476453969296),Normal(1.5219407283714037,3.3991656313903738))</definition>
      <discretization>
        <interval upper="0.64"/>
        <interval upper="1.28"/>
        <interval upper="1.92"/>
        <interval upper="2.56"/>
        <interval upper="3.2"/>
        <interval upper="3.8400000000000003"/>
        <interval upper="4.48"/>
        <interval upper="5.12"/>
        <interval upper="5.76"/>
        <interval upper="6.3999999999999995"/>
      </discretization>
    </equation>
  </nodes>
  <extensions>
    <genie app="GeNIe 2.3.3705.0 ACADEMIC" faultnameformat="nodestate" name="DAG" version="1.0">
      <node id="x">
        <name>x</name>
        <interior color="e5f6f7"/>
        <outline color="000080"/>
        <font bold="true" color="000080" name="Arial" size="10"/>
        <position>100 100 100 100</position>
        <barchart active="true" height="110" width="160"/>
      </node>
      <node id="y">
        <name>y</name>
        <interior color="e5f6f7"/>
        <outline color="000080"/>
        <font bold="true" color="000080" name="Arial" size="10"/>
        <position>100 100 100 100</position>
        <barchart active="true" height="110" width="160"/>
      </node>
      <node id="month">
        <name>month</name>
        <interior color="e5f6f7"/>
        <outline color="000080"/>
        <font bold="true" color="000080" name="Arial" size="10"/>
        <position>100 100 100 100</position>
        <barchart active="true" height="110" width="160"/>
      </node>
      <node id="day">
        <name>day</name>
        <interior color="e5f6f7"/>
        <outline color="000080"/>
        <font bold="true" color="000080" name="Arial" size="10"/>
        <position>100 100 100 100</position>
        <barchart active="true" height="110" width="160"/>
      </node>
      <node id="ffmc">
        <name>ffmc</name>
        <interior color="e5f6f7"/>
        <outline color="000080"/>
        <font bold="true" color="000080" name="Arial" size="10"/>
        <position>100 100 100 100</position>
        <barchart active="true" height="110" width="160"/>
      </node>
      <node id="dmc">
        <name>dmc</name>
        <interior color="e5f6f7"/>
        <outline color="000080"/>
        <font bold="true" color="000080" name="Arial" size="10"/>
        <position>100 100 100 100</position>
        <barchart active="true" height="110" width="160"/>
      </node>
      <node id="dc">
        <name>dc</name>
        <interior color="e5f6f7"/>
        <outline color="000080"/>
        <font bold="true" color="000080" name="Arial" size="10"/>
        <position>100 100 100 100</position>
        <barchart active="true" height="110" width="160"/>
      </node>
      <node id="isi">
        <name>isi</name>
        <interior color="e5f6f7"/>
        <outline color="000080"/>
        <font bold="true" color="000080" name="Arial" size="10"/>
        <position>100 100 100 100</position>
        <barchart active="true" height="110" width="160"/>
      </node>
      <node id="temp">
        <name>temp</name>
        <interior color="e5f6f7"/>
        <outline color="000080"/>
        <font bold="true" color="000080" name="Arial" size="10"/>
        <position>100 100 100 100</position>
        <barchart active="true" height="110" width="160"/>
      </node>
      <node id="rh">
        <name>rh</name>
        <interior color="e5f6f7"/>
        <outline color="000080"/>
        <font bold="true" color="000080" name="Arial" size="10"/>
        <position>100 100 100 100</position>
        <barchart active="true" height="110" width="160"/>
      </node>
      <node id="wind">
        <name>wind</name>
        <interior color="e5f6f7"/>
        <outline color="000080"/>
        <font bold="true" color="000080" name="Arial" size="10"/>
        <position>100 100 100 100</position>
        <barchart active="true" height="110" width="160"/>
      </node>
      <node id="rain">
        <name>rain</name>
        <interior color="e5f6f7"/>
        <outline color="000080"/>
        <font bold="true" color="000080" name="Arial" size="10"/>
        <position>100 100 100 100</position>
        <barchart active="true" height="110" width="160"/>
      </node>
      <node id="area">
        <name>area</name>
        <interior color="e5f6f7"/>
        <outline color="000080"/>
        <font bold="true" color="000080" name="Arial" size="10"/>
        <position>100 100 100 100</position>
        <barchart active="true" height="110" width="160"/>
      </node>
      <node id="LV_3559">
        <name>LV_3559</name>
        <interior color="e5f6f7"/>
        <outline color="000080"/>
        <font bold="true" color="000080" name="Arial" size="10"/>
        <position>100 100 100 100</position>
        <barchart active="true" height="110" width="160"/>
      </node>
      <node id="LV_3731">
        <name>LV_3731</name>
        <interior color="e5f6f7"/>
        <outline color="000080"/>
        <font bold="true" color="000080" name="Arial" size="10"/>
        <position>100 100 100 100</position>
        <barchart active="true" height="110" width="160"/>
      </node>
      <node id="LV_3919">
        <name>LV_3919</name>
        <interior color="e5f6f7"/>
        <outline color="000080"/>
        <font bold="true" color="000080" name="Arial" size="10"/>
        <position>100 100 100 100</position>
        <barchart active="true" height="110" width="160"/>
      </node>
      <node id="LV_4166">
        <name>LV_4166</name>
        <interior color="e5f6f7"/>
        <outline color="000080"/>
        <font bold="true" color="000080" name="Arial" size="10"/>
        <position>100 100 100 100</position>
        <barchart active="true" height="110" width="160"/>
      </node>
    </genie>
  </extensions>
</smile>
