<?xml version="1.0" encoding="ISO-8859-1" standalone="no"?>
<smile discsamples="10000" id="DAG" numsamples="10000" version="1.0">
  <nodes>
    <equation id="y">
      <definition lower="2.0" upper="9.0">y=Normal(4.2854385579794485,1.5258045151706525)</definition>
      <discretization>
        <interval upper="2.7"/>
        <interval upper="3.4000000000000004"/>
        <interval upper="4.1000000000000005"/>
        <interval upper="4.800000000000001"/>
        <interval upper="5.500000000000001"/>
        <interval upper="6.200000000000001"/>
        <interval upper="6.900000000000001"/>
        <interval upper="7.600000000000001"/>
        <interval upper="8.3"/>
        <interval upper="9.0"/>
      </discretization>
    </equation>
    <equation id="x">
      <parents>y</parents>
      <definition lower="1.0" upper="9.0">x=Choose(y)</definition>
      <discretization>
        <interval upper="1.8"/>
        <interval upper="2.6"/>
        <interval upper="3.4000000000000004"/>
        <interval upper="4.2"/>
        <interval upper="5.0"/>
        <interval upper="5.8"/>
        <interval upper="6.6"/>
        <interval upper="7.3999999999999995"/>
        <interval upper="8.2"/>
        <interval upper="9.0"/>
      </discretization>
    </equation>
    <cpt id="LV_6234">
      <state id="0"/>
      <state id="1"/>
      <probabilities>0.006382978723404255 0.9936170212765958 </probabilities>
    </cpt>
    <cpt id="day">
      <state id="0"/>
      <state id="1"/>
      <state id="2"/>
      <state id="3"/>
      <state id="4"/>
      <state id="5"/>
      <state id="6"/>
      <parents>LV_6234</parents>
      <probabilities>0.13333333333333333 0.13333333333333333 0.13333333333333333 0.2 0.13333333333333333 0.13333333333333333 0.13333333333333333 0.162839248434238 0.1440501043841336 0.162839248434238 0.18162839248434237 0.1127348643006263 0.1336116910229645 0.1022964509394572 </probabilities>
    </cpt>
    <equation id="isi">
      <parents>LV_6234</parents>
      <definition lower="0.0" upper="56.1">isi=Choose(LV_6234,Normal(56.09999999439001,0.6666667715735457),Normal(8.920430107524968,16.85198268519573))</definition>
      <discretization>
        <interval upper="5.61"/>
        <interval upper="11.22"/>
        <interval upper="16.830000000000002"/>
        <interval upper="22.44"/>
        <interval upper="28.05"/>
        <interval upper="33.660000000000004"/>
        <interval upper="39.27"/>
        <interval upper="44.88"/>
        <interval upper="50.49"/>
        <interval upper="56.1"/>
      </discretization>
    </equation>
    <cpt id="LV_6291">
      <state id="0"/>
      <state id="1"/>
      <probabilities>0.20069116694952807 0.799308833050472 </probabilities>
    </cpt>
    <equation id="rh">
      <parents>LV_6291</parents>
      <definition lower="15.0" upper="100.0">rh=Choose(LV_6291,Normal(68.76513820960155,150.50150799577858),Normal(37.683182778490036,101.2352583001201))</definition>
      <discretization>
        <interval upper="23.5"/>
        <interval upper="32.0"/>
        <interval upper="40.5"/>
        <interval upper="49.0"/>
        <interval upper="57.5"/>
        <interval upper="66.0"/>
        <interval upper="74.5"/>
        <interval upper="83.0"/>
        <interval upper="91.5"/>
        <interval upper="100.0"/>
      </discretization>
    </equation>
    <equation id="wind">
      <parents>LV_6291</parents>
      <definition lower="0.4" upper="9.4">wind=Choose(LV_6291,Normal(4.625500341634455,3.9724405470829653),Normal(3.864991760755855,2.9598362371813502))</definition>
      <discretization>
        <interval upper="1.3"/>
        <interval upper="2.2"/>
        <interval upper="3.1"/>
        <interval upper="4.0"/>
        <interval upper="4.9"/>
        <interval upper="5.800000000000001"/>
        <interval upper="6.700000000000001"/>
        <interval upper="7.600000000000001"/>
        <interval upper="8.500000000000002"/>
        <interval upper="9.400000000000002"/>
      </discretization>
    </equation>
    <cpt id="LV_5725">
      <state id="0"/>
      <state id="1"/>
      <parents>LV_6291</parents>
      <probabilities>0.4909511891326938 0.5090488108673061 0.48170814541016 0.51829185458984 </probabilities>
    </cpt>
    <equation id="ffmc">
      <parents>LV_5725</parents>
      <definition lower="18.7" upper="96.2">ffmc=Choose(LV_5725,Normal(90.07599223460495,51.823712938488505),Normal(90.94976752702046,14.579363571750804))</definition>
      <discretization>
        <interval upper="26.45"/>
        <interval upper="34.2"/>
        <interval upper="41.95"/>
        <interval upper="49.7"/>
        <interval upper="57.45"/>
        <interval upper="65.2"/>
        <interval upper="72.95"/>
        <interval upper="80.7"/>
        <interval upper="88.45"/>
        <interval upper="96.2"/>
      </discretization>
    </equation>
    <equation id="area">
      <parents>LV_5725</parents>
      <definition lower="0.0" upper="1090.84">area=Choose(LV_5725,Normal(0.004338128936932777,0.009846510469192875),Normal(22.92213999621778,5974.926976934406))</definition>
      <discretization>
        <interval upper="109.08399999999999"/>
        <interval upper="218.16799999999998"/>
        <interval upper="327.25199999999995"/>
        <interval upper="436.33599999999996"/>
        <interval upper="545.42"/>
        <interval upper="654.5039999999999"/>
        <interval upper="763.5879999999999"/>
        <interval upper="872.6719999999998"/>
        <interval upper="981.7559999999997"/>
        <interval upper="1090.8399999999997"/>
      </discretization>
    </equation>
    <cpt id="LV_5853">
      <state id="0"/>
      <state id="1"/>
      <parents>LV_6291</parents>
      <probabilities>0.9148692961634439 0.08513070383655612 0.9946355906177381 0.005364409382261846 </probabilities>
    </cpt>
    <cpt id="month">
      <state id="0"/>
      <state id="1"/>
      <state id="2"/>
      <state id="3"/>
      <state id="4"/>
      <state id="5"/>
      <state id="6"/>
      <state id="7"/>
      <state id="8"/>
      <state id="9"/>
      <state id="10"/>
      <state id="11"/>
      <parents>LV_5853</parents>
      <probabilities>0.020663590739219938 0.3058484112543608 0.022730041546911335 0.04132500162501315 0.008228753660555145 0.05562116140543896 0.039268090139593356 0.11153068569805036 0.008248408408452437 0.006200600581867015 0.035138679884421355 0.3451965750561161 0.06628341969085115 0.2659465005137448 0.06629351864970168 0.06643398016777183 0.06680112633847567 0.0692094706325975 0.06627120329482239 0.06763591316837737 0.06648654991201089 0.06617806796673822 0.0661951257685733 0.06626512389633538 </probabilities>
    </cpt>
    <equation id="rain">
      <parents>LV_5853</parents>
      <definition lower="0.0" upper="6.4">rain=Choose(LV_5853,Normal(8.132910482434294E-4,0.004492421634961047),Normal(1.7387907843237533,3.4695145556800986))</definition>
      <discretization>
        <interval upper="0.64"/>
        <interval upper="1.28"/>
        <interval upper="1.92"/>
        <interval upper="2.56"/>
        <interval upper="3.2"/>
        <interval upper="3.8400000000000003"/>
        <interval upper="4.48"/>
        <interval upper="5.12"/>
        <interval upper="5.76"/>
        <interval upper="6.3999999999999995"/>
      </discretization>
    </equation>
    <cpt id="LV_5987">
      <state id="0"/>
      <state id="1"/>
      <parents>LV_6291</parents>
      <probabilities>0.7635526817417266 0.23644731825827336 0.8326003199144931 0.16739968008550685 </probabilities>
    </cpt>
    <equation id="dmc">
      <parents>LV_5987</parents>
      <definition lower="1.1" upper="291.3">dmc=Choose(LV_5987,Normal(118.81495433312709,2203.4704407679405),Normal(26.362370568243488,252.43757009751772))</definition>
      <discretization>
        <interval upper="30.12"/>
        <interval upper="59.14"/>
        <interval upper="88.16"/>
        <interval upper="117.17999999999999"/>
        <interval upper="146.2"/>
        <interval upper="175.22"/>
        <interval upper="204.24"/>
        <interval upper="233.26000000000002"/>
        <interval upper="262.28000000000003"/>
        <interval upper="291.3"/>
      </discretization>
    </equation>
    <equation id="dc">
      <parents>LV_5987</parents>
      <definition lower="7.9" upper="860.6">dc=Choose(LV_5987,Normal(641.8987344685421,16622.468917469083),Normal(67.780451521883,961.7230943740218))</definition>
      <discretization>
        <interval upper="93.17000000000002"/>
        <interval upper="178.44000000000003"/>
        <interval upper="263.71000000000004"/>
        <interval upper="348.98"/>
        <interval upper="434.25"/>
        <interval upper="519.52"/>
        <interval upper="604.79"/>
        <interval upper="690.06"/>
        <interval upper="775.3299999999999"/>
        <interval upper="860.5999999999999"/>
      </discretization>
    </equation>
    <equation id="temp">
      <parents>LV_5987</parents>
      <definition lower="2.2" upper="33.3">temp=Choose(LV_5987,Normal(20.10177729546033,26.755648606372205),Normal(12.176893268317642,14.256611999656378))</definition>
      <discretization>
        <interval upper="5.3100000000000005"/>
        <interval upper="8.42"/>
        <interval upper="11.53"/>
        <interval upper="14.639999999999999"/>
        <interval upper="17.75"/>
        <interval upper="20.86"/>
        <interval upper="23.97"/>
        <interval upper="27.08"/>
        <interval upper="30.189999999999998"/>
        <interval upper="33.3"/>
      </discretization>
    </equation>
  </nodes>
  <extensions>
    <genie app="GeNIe 2.3.3705.0 ACADEMIC" faultnameformat="nodestate" name="DAG" version="1.0">
      <node id="x">
        <name>x</name>
        <interior color="e5f6f7"/>
        <outline color="000080"/>
        <font bold="true" color="000080" name="Arial" size="10"/>
        <position>100 100 100 100</position>
        <barchart active="true" height="110" width="160"/>
      </node>
      <node id="y">
        <name>y</name>
        <interior color="e5f6f7"/>
        <outline color="000080"/>
        <font bold="true" color="000080" name="Arial" size="10"/>
        <position>100 100 100 100</position>
        <barchart active="true" height="110" width="160"/>
      </node>
      <node id="month">
        <name>month</name>
        <interior color="e5f6f7"/>
        <outline color="000080"/>
        <font bold="true" color="000080" name="Arial" size="10"/>
        <position>100 100 100 100</position>
        <barchart active="true" height="110" width="160"/>
      </node>
      <node id="day">
        <name>day</name>
        <interior color="e5f6f7"/>
        <outline color="000080"/>
        <font bold="true" color="000080" name="Arial" size="10"/>
        <position>100 100 100 100</position>
        <barchart active="true" height="110" width="160"/>
      </node>
      <node id="ffmc">
        <name>ffmc</name>
        <interior color="e5f6f7"/>
        <outline color="000080"/>
        <font bold="true" color="000080" name="Arial" size="10"/>
        <position>100 100 100 100</position>
        <barchart active="true" height="110" width="160"/>
      </node>
      <node id="dmc">
        <name>dmc</name>
        <interior color="e5f6f7"/>
        <outline color="000080"/>
        <font bold="true" color="000080" name="Arial" size="10"/>
        <position>100 100 100 100</position>
        <barchart active="true" height="110" width="160"/>
      </node>
      <node id="dc">
        <name>dc</name>
        <interior color="e5f6f7"/>
        <outline color="000080"/>
        <font bold="true" color="000080" name="Arial" size="10"/>
        <position>100 100 100 100</position>
        <barchart active="true" height="110" width="160"/>
      </node>
      <node id="isi">
        <name>isi</name>
        <interior color="e5f6f7"/>
        <outline color="000080"/>
        <font bold="true" color="000080" name="Arial" size="10"/>
        <position>100 100 100 100</position>
        <barchart active="true" height="110" width="160"/>
      </node>
      <node id="temp">
        <name>temp</name>
        <interior color="e5f6f7"/>
        <outline color="000080"/>
        <font bold="true" color="000080" name="Arial" size="10"/>
        <position>100 100 100 100</position>
        <barchart active="true" height="110" width="160"/>
      </node>
      <node id="rh">
        <name>rh</name>
        <interior color="e5f6f7"/>
        <outline color="000080"/>
        <font bold="true" color="000080" name="Arial" size="10"/>
        <position>100 100 100 100</position>
        <barchart active="true" height="110" width="160"/>
      </node>
      <node id="wind">
        <name>wind</name>
        <interior color="e5f6f7"/>
        <outline color="000080"/>
        <font bold="true" color="000080" name="Arial" size="10"/>
        <position>100 100 100 100</position>
        <barchart active="true" height="110" width="160"/>
      </node>
      <node id="rain">
        <name>rain</name>
        <interior color="e5f6f7"/>
        <outline color="000080"/>
        <font bold="true" color="000080" name="Arial" size="10"/>
        <position>100 100 100 100</position>
        <barchart active="true" height="110" width="160"/>
      </node>
      <node id="area">
        <name>area</name>
        <interior color="e5f6f7"/>
        <outline color="000080"/>
        <font bold="true" color="000080" name="Arial" size="10"/>
        <position>100 100 100 100</position>
        <barchart active="true" height="110" width="160"/>
      </node>
      <node id="LV_5725">
        <name>LV_5725</name>
        <interior color="e5f6f7"/>
        <outline color="000080"/>
        <font bold="true" color="000080" name="Arial" size="10"/>
        <position>100 100 100 100</position>
        <barchart active="true" height="110" width="160"/>
      </node>
      <node id="LV_5853">
        <name>LV_5853</name>
        <interior color="e5f6f7"/>
        <outline color="000080"/>
        <font bold="true" color="000080" name="Arial" size="10"/>
        <position>100 100 100 100</position>
        <barchart active="true" height="110" width="160"/>
      </node>
      <node id="LV_5987">
        <name>LV_5987</name>
        <interior color="e5f6f7"/>
        <outline color="000080"/>
        <font bold="true" color="000080" name="Arial" size="10"/>
        <position>100 100 100 100</position>
        <barchart active="true" height="110" width="160"/>
      </node>
      <node id="LV_6234">
        <name>LV_6234</name>
        <interior color="e5f6f7"/>
        <outline color="000080"/>
        <font bold="true" color="000080" name="Arial" size="10"/>
        <position>100 100 100 100</position>
        <barchart active="true" height="110" width="160"/>
      </node>
      <node id="LV_6291">
        <name>LV_6291</name>
        <interior color="e5f6f7"/>
        <outline color="000080"/>
        <font bold="true" color="000080" name="Arial" size="10"/>
        <position>100 100 100 100</position>
        <barchart active="true" height="110" width="160"/>
      </node>
    </genie>
  </extensions>
</smile>
