<?xml version="1.0" encoding="ISO-8859-1" standalone="no"?>
<smile discsamples="10000" id="DAG" numsamples="10000" version="1.0">
  <nodes>
    <equation id="y">
      <definition lower="2.0" upper="9.0">y=Normal(4.394646266758891,1.2609558512270695)</definition>
      <discretization>
        <interval upper="2.7"/>
        <interval upper="3.4000000000000004"/>
        <interval upper="4.1000000000000005"/>
        <interval upper="4.800000000000001"/>
        <interval upper="5.500000000000001"/>
        <interval upper="6.200000000000001"/>
        <interval upper="6.900000000000001"/>
        <interval upper="7.600000000000001"/>
        <interval upper="8.3"/>
        <interval upper="9.0"/>
      </discretization>
    </equation>
    <equation id="x">
      <parents>y</parents>
      <definition lower="1.0" upper="9.0">x=Choose(y)</definition>
      <discretization>
        <interval upper="1.8"/>
        <interval upper="2.6"/>
        <interval upper="3.4000000000000004"/>
        <interval upper="4.2"/>
        <interval upper="5.0"/>
        <interval upper="5.8"/>
        <interval upper="6.6"/>
        <interval upper="7.3999999999999995"/>
        <interval upper="8.2"/>
        <interval upper="9.0"/>
      </discretization>
    </equation>
    <equation id="wind">
      <definition lower="0.4" upper="9.4">wind=Normal(4.0124573908937675,3.236213378556933)</definition>
      <discretization>
        <interval upper="1.3"/>
        <interval upper="2.2"/>
        <interval upper="3.1"/>
        <interval upper="4.0"/>
        <interval upper="4.9"/>
        <interval upper="5.800000000000001"/>
        <interval upper="6.700000000000001"/>
        <interval upper="7.600000000000001"/>
        <interval upper="8.500000000000002"/>
        <interval upper="9.400000000000002"/>
      </discretization>
    </equation>
    <cpt id="LV_767">
      <state id="0"/>
      <state id="1"/>
      <probabilities>0.7974342026127941 0.20256579738720595 </probabilities>
    </cpt>
    <equation id="ffmc">
      <parents>LV_767</parents>
      <definition lower="18.7" upper="96.2">ffmc=Choose(LV_767,Normal(91.53159344257645,6.346261573465255),Normal(87.22261259998545,117.68718263570601))</definition>
      <discretization>
        <interval upper="26.45"/>
        <interval upper="34.2"/>
        <interval upper="41.95"/>
        <interval upper="49.7"/>
        <interval upper="57.45"/>
        <interval upper="65.2"/>
        <interval upper="72.95"/>
        <interval upper="80.7"/>
        <interval upper="88.45"/>
        <interval upper="96.2"/>
      </discretization>
    </equation>
    <equation id="area">
      <parents>LV_767</parents>
      <definition lower="0.0" upper="1090.84">area=Choose(LV_767,Normal(2.2510818159060104,11.406384406651739),Normal(62.25848893582706,18998.392765055294))</definition>
      <discretization>
        <interval upper="109.08399999999999"/>
        <interval upper="218.16799999999998"/>
        <interval upper="327.25199999999995"/>
        <interval upper="436.33599999999996"/>
        <interval upper="545.42"/>
        <interval upper="654.5039999999999"/>
        <interval upper="763.5879999999999"/>
        <interval upper="872.6719999999998"/>
        <interval upper="981.7559999999997"/>
        <interval upper="1090.8399999999997"/>
      </discretization>
    </equation>
    <cpt id="LV_1029">
      <state id="0"/>
      <state id="1"/>
      <probabilities>0.16169355964251667 0.8383064403574834 </probabilities>
    </cpt>
    <equation id="dmc">
      <parents>LV_1029</parents>
      <definition lower="1.1" upper="291.3">dmc=Choose(LV_1029,Normal(25.47907292573385,237.86153189327612),Normal(129.49777990682148,3301.4985171568997))</definition>
      <discretization>
        <interval upper="30.12"/>
        <interval upper="59.14"/>
        <interval upper="88.16"/>
        <interval upper="117.17999999999999"/>
        <interval upper="146.2"/>
        <interval upper="175.22"/>
        <interval upper="204.24"/>
        <interval upper="233.26000000000002"/>
        <interval upper="262.28000000000003"/>
        <interval upper="291.3"/>
      </discretization>
    </equation>
    <equation id="dc">
      <parents>LV_1029</parents>
      <definition lower="7.9" upper="860.6">dc=Choose(LV_1029,Normal(66.73196765901656,961.4706784756911),Normal(647.1124929065019,17649.31623950806))</definition>
      <discretization>
        <interval upper="93.17000000000002"/>
        <interval upper="178.44000000000003"/>
        <interval upper="263.71000000000004"/>
        <interval upper="348.98"/>
        <interval upper="434.25"/>
        <interval upper="519.52"/>
        <interval upper="604.79"/>
        <interval upper="690.06"/>
        <interval upper="775.3299999999999"/>
        <interval upper="860.5999999999999"/>
      </discretization>
    </equation>
    <equation id="temp">
      <parents>LV_1029</parents>
      <definition lower="2.2" upper="33.3">temp=Choose(LV_1029,Normal(11.958336208432609,13.417422315271269),Normal(20.3159425121415,27.658301718903115))</definition>
      <discretization>
        <interval upper="5.3100000000000005"/>
        <interval upper="8.42"/>
        <interval upper="11.53"/>
        <interval upper="14.639999999999999"/>
        <interval upper="17.75"/>
        <interval upper="20.86"/>
        <interval upper="23.97"/>
        <interval upper="27.08"/>
        <interval upper="30.189999999999998"/>
        <interval upper="33.3"/>
      </discretization>
    </equation>
    <cpt id="LV_1374">
      <state id="0"/>
      <state id="1"/>
      <probabilities>0.2289287695475418 0.7710712304524582 </probabilities>
    </cpt>
    <equation id="rh">
      <parents>LV_1374</parents>
      <definition lower="15.0" upper="100.0">rh=Choose(LV_1374,Normal(67.48216570811725,160.025546750937),Normal(37.89951775502511,99.79173932174037))</definition>
      <discretization>
        <interval upper="23.5"/>
        <interval upper="32.0"/>
        <interval upper="40.5"/>
        <interval upper="49.0"/>
        <interval upper="57.5"/>
        <interval upper="66.0"/>
        <interval upper="74.5"/>
        <interval upper="83.0"/>
        <interval upper="91.5"/>
        <interval upper="100.0"/>
      </discretization>
    </equation>
    <cpt id="LV_895">
      <state id="0"/>
      <state id="1"/>
      <parents>LV_1374</parents>
      <probabilities>0.07461277811873655 0.9253872218812634 0.005558245633128533 0.9944417543668715 </probabilities>
    </cpt>
    <cpt id="month">
      <state id="0"/>
      <state id="1"/>
      <state id="2"/>
      <state id="3"/>
      <state id="4"/>
      <state id="5"/>
      <state id="6"/>
      <state id="7"/>
      <state id="8"/>
      <state id="9"/>
      <state id="10"/>
      <state id="11"/>
      <parents>LV_895</parents>
      <probabilities>0.06639456262145772 0.26602786419576 0.06631820105838358 0.0665478692030337 0.06697975018869348 0.06907787474197992 0.06631869178647108 0.06701477161201537 0.06656374542859815 0.06623419675779926 0.06623911677193951 0.06628335563386813 0.02272584608996332 0.3223772492356267 0.022730613229076397 0.035118164687092286 0.00822044284862163 0.07009890654303784 0.039266434993132475 0.09709846316033141 0.008246413408720692 0.006200005093472836 0.033070458093447413 0.3348470026174769 </probabilities>
    </cpt>
    <equation id="rain">
      <parents>LV_895</parents>
      <definition lower="0.0" upper="6.4">rain=Choose(LV_895,Normal(1.7445698133476362,3.472742537261425),Normal(8.240116998755035E-4,0.004494318815243535))</definition>
      <discretization>
        <interval upper="0.64"/>
        <interval upper="1.28"/>
        <interval upper="1.92"/>
        <interval upper="2.56"/>
        <interval upper="3.2"/>
        <interval upper="3.8400000000000003"/>
        <interval upper="4.48"/>
        <interval upper="5.12"/>
        <interval upper="5.76"/>
        <interval upper="6.3999999999999995"/>
      </discretization>
    </equation>
    <cpt id="LV_1276">
      <state id="0"/>
      <state id="1"/>
      <parents>LV_895</parents>
      <probabilities>0.7747554729198469 0.22524452708015308 0.594322086459385 0.405677913540615 </probabilities>
    </cpt>
    <cpt id="day">
      <state id="0"/>
      <state id="1"/>
      <state id="2"/>
      <state id="3"/>
      <state id="4"/>
      <state id="5"/>
      <state id="6"/>
      <parents>LV_1276</parents>
      <probabilities>0.1788864469432224 0.11889698849890919 0.09602978642847201 0.1836513467167733 0.08916056459281878 0.18860583680536253 0.14476903001444175 0.12216466475417843 0.19504992471150281 0.2784254450764731 0.15509682727244792 0.14879965828081643 0.03808839660115012 0.062375083303431084 </probabilities>
    </cpt>
    <equation id="isi">
      <parents>LV_1276</parents>
      <definition lower="0.0" upper="56.1">isi=Choose(LV_1276,Normal(9.890784480030451,33.3571587552398),Normal(7.814599413307516,1.679851270856102))</definition>
      <discretization>
        <interval upper="5.61"/>
        <interval upper="11.22"/>
        <interval upper="16.830000000000002"/>
        <interval upper="22.44"/>
        <interval upper="28.05"/>
        <interval upper="33.660000000000004"/>
        <interval upper="39.27"/>
        <interval upper="44.88"/>
        <interval upper="50.49"/>
        <interval upper="56.1"/>
      </discretization>
    </equation>
  </nodes>
  <extensions>
    <genie app="GeNIe 2.3.3705.0 ACADEMIC" faultnameformat="nodestate" name="DAG" version="1.0">
      <node id="x">
        <name>x</name>
        <interior color="e5f6f7"/>
        <outline color="000080"/>
        <font bold="true" color="000080" name="Arial" size="10"/>
        <position>100 100 100 100</position>
        <barchart active="true" height="110" width="160"/>
      </node>
      <node id="y">
        <name>y</name>
        <interior color="e5f6f7"/>
        <outline color="000080"/>
        <font bold="true" color="000080" name="Arial" size="10"/>
        <position>100 100 100 100</position>
        <barchart active="true" height="110" width="160"/>
      </node>
      <node id="month">
        <name>month</name>
        <interior color="e5f6f7"/>
        <outline color="000080"/>
        <font bold="true" color="000080" name="Arial" size="10"/>
        <position>100 100 100 100</position>
        <barchart active="true" height="110" width="160"/>
      </node>
      <node id="day">
        <name>day</name>
        <interior color="e5f6f7"/>
        <outline color="000080"/>
        <font bold="true" color="000080" name="Arial" size="10"/>
        <position>100 100 100 100</position>
        <barchart active="true" height="110" width="160"/>
      </node>
      <node id="ffmc">
        <name>ffmc</name>
        <interior color="e5f6f7"/>
        <outline color="000080"/>
        <font bold="true" color="000080" name="Arial" size="10"/>
        <position>100 100 100 100</position>
        <barchart active="true" height="110" width="160"/>
      </node>
      <node id="dmc">
        <name>dmc</name>
        <interior color="e5f6f7"/>
        <outline color="000080"/>
        <font bold="true" color="000080" name="Arial" size="10"/>
        <position>100 100 100 100</position>
        <barchart active="true" height="110" width="160"/>
      </node>
      <node id="dc">
        <name>dc</name>
        <interior color="e5f6f7"/>
        <outline color="000080"/>
        <font bold="true" color="000080" name="Arial" size="10"/>
        <position>100 100 100 100</position>
        <barchart active="true" height="110" width="160"/>
      </node>
      <node id="isi">
        <name>isi</name>
        <interior color="e5f6f7"/>
        <outline color="000080"/>
        <font bold="true" color="000080" name="Arial" size="10"/>
        <position>100 100 100 100</position>
        <barchart active="true" height="110" width="160"/>
      </node>
      <node id="temp">
        <name>temp</name>
        <interior color="e5f6f7"/>
        <outline color="000080"/>
        <font bold="true" color="000080" name="Arial" size="10"/>
        <position>100 100 100 100</position>
        <barchart active="true" height="110" width="160"/>
      </node>
      <node id="rh">
        <name>rh</name>
        <interior color="e5f6f7"/>
        <outline color="000080"/>
        <font bold="true" color="000080" name="Arial" size="10"/>
        <position>100 100 100 100</position>
        <barchart active="true" height="110" width="160"/>
      </node>
      <node id="wind">
        <name>wind</name>
        <interior color="e5f6f7"/>
        <outline color="000080"/>
        <font bold="true" color="000080" name="Arial" size="10"/>
        <position>100 100 100 100</position>
        <barchart active="true" height="110" width="160"/>
      </node>
      <node id="rain">
        <name>rain</name>
        <interior color="e5f6f7"/>
        <outline color="000080"/>
        <font bold="true" color="000080" name="Arial" size="10"/>
        <position>100 100 100 100</position>
        <barchart active="true" height="110" width="160"/>
      </node>
      <node id="area">
        <name>area</name>
        <interior color="e5f6f7"/>
        <outline color="000080"/>
        <font bold="true" color="000080" name="Arial" size="10"/>
        <position>100 100 100 100</position>
        <barchart active="true" height="110" width="160"/>
      </node>
      <node id="LV_767">
        <name>LV_767</name>
        <interior color="e5f6f7"/>
        <outline color="000080"/>
        <font bold="true" color="000080" name="Arial" size="10"/>
        <position>100 100 100 100</position>
        <barchart active="true" height="110" width="160"/>
      </node>
      <node id="LV_895">
        <name>LV_895</name>
        <interior color="e5f6f7"/>
        <outline color="000080"/>
        <font bold="true" color="000080" name="Arial" size="10"/>
        <position>100 100 100 100</position>
        <barchart active="true" height="110" width="160"/>
      </node>
      <node id="LV_1029">
        <name>LV_1029</name>
        <interior color="e5f6f7"/>
        <outline color="000080"/>
        <font bold="true" color="000080" name="Arial" size="10"/>
        <position>100 100 100 100</position>
        <barchart active="true" height="110" width="160"/>
      </node>
      <node id="LV_1276">
        <name>LV_1276</name>
        <interior color="e5f6f7"/>
        <outline color="000080"/>
        <font bold="true" color="000080" name="Arial" size="10"/>
        <position>100 100 100 100</position>
        <barchart active="true" height="110" width="160"/>
      </node>
      <node id="LV_1374">
        <name>LV_1374</name>
        <interior color="e5f6f7"/>
        <outline color="000080"/>
        <font bold="true" color="000080" name="Arial" size="10"/>
        <position>100 100 100 100</position>
        <barchart active="true" height="110" width="160"/>
      </node>
    </genie>
  </extensions>
</smile>
