<?xml version="1.0" encoding="ISO-8859-1" standalone="no"?>
<smile discsamples="10000" id="DAG" numsamples="10000" version="1.0">
  <nodes>
    <equation id="y">
      <definition lower="2.0" upper="9.0">y=Normal(4.276873247486943,1.5049249589005576)</definition>
      <discretization>
        <interval upper="2.7"/>
        <interval upper="3.4000000000000004"/>
        <interval upper="4.1000000000000005"/>
        <interval upper="4.800000000000001"/>
        <interval upper="5.500000000000001"/>
        <interval upper="6.200000000000001"/>
        <interval upper="6.900000000000001"/>
        <interval upper="7.600000000000001"/>
        <interval upper="8.3"/>
        <interval upper="9.0"/>
      </discretization>
    </equation>
    <equation id="x">
      <parents>y</parents>
      <definition lower="1.0" upper="9.0">x=Choose(y)</definition>
      <discretization>
        <interval upper="1.8"/>
        <interval upper="2.6"/>
        <interval upper="3.4000000000000004"/>
        <interval upper="4.2"/>
        <interval upper="5.0"/>
        <interval upper="5.8"/>
        <interval upper="6.6"/>
        <interval upper="7.3999999999999995"/>
        <interval upper="8.2"/>
        <interval upper="9.0"/>
      </discretization>
    </equation>
    <cpt id="LV_5508">
      <state id="0"/>
      <state id="1"/>
      <probabilities>0.006382978723404255 0.9936170212765958 </probabilities>
    </cpt>
    <cpt id="day">
      <state id="0"/>
      <state id="1"/>
      <state id="2"/>
      <state id="3"/>
      <state id="4"/>
      <state id="5"/>
      <state id="6"/>
      <parents>LV_5508</parents>
      <probabilities>0.13333333333333333 0.13333333333333333 0.13333333333333333 0.2 0.13333333333333333 0.13333333333333333 0.13333333333333333 0.15866388308977036 0.1524008350730689 0.1649269311064718 0.17954070981210857 0.11691022964509394 0.12317327766179541 0.10438413361169102 </probabilities>
    </cpt>
    <equation id="isi">
      <parents>LV_5508</parents>
      <definition lower="0.0" upper="56.1">isi=Choose(LV_5508,Normal(56.09999999439001,0.6666667715735457),Normal(8.963870967740018,16.9758309042099))</definition>
      <discretization>
        <interval upper="5.61"/>
        <interval upper="11.22"/>
        <interval upper="16.830000000000002"/>
        <interval upper="22.44"/>
        <interval upper="28.05"/>
        <interval upper="33.660000000000004"/>
        <interval upper="39.27"/>
        <interval upper="44.88"/>
        <interval upper="50.49"/>
        <interval upper="56.1"/>
      </discretization>
    </equation>
    <cpt id="LV_5565">
      <state id="0"/>
      <state id="1"/>
      <probabilities>0.1990060099981317 0.8009939900018682 </probabilities>
    </cpt>
    <equation id="rh">
      <parents>LV_5565</parents>
      <definition lower="15.0" upper="100.0">rh=Choose(LV_5565,Normal(68.76468047190615,141.28615008187268),Normal(37.69295545202932,103.96693219824536))</definition>
      <discretization>
        <interval upper="23.5"/>
        <interval upper="32.0"/>
        <interval upper="40.5"/>
        <interval upper="49.0"/>
        <interval upper="57.5"/>
        <interval upper="66.0"/>
        <interval upper="74.5"/>
        <interval upper="83.0"/>
        <interval upper="91.5"/>
        <interval upper="100.0"/>
      </discretization>
    </equation>
    <equation id="wind">
      <parents>LV_5565</parents>
      <definition lower="0.4" upper="9.4">wind=Choose(LV_5565,Normal(4.697802117828486,3.617403524409602),Normal(3.8903193613866733,3.004509946157433))</definition>
      <discretization>
        <interval upper="1.3"/>
        <interval upper="2.2"/>
        <interval upper="3.1"/>
        <interval upper="4.0"/>
        <interval upper="4.9"/>
        <interval upper="5.800000000000001"/>
        <interval upper="6.700000000000001"/>
        <interval upper="7.600000000000001"/>
        <interval upper="8.500000000000002"/>
        <interval upper="9.400000000000002"/>
      </discretization>
    </equation>
    <cpt id="LV_4999">
      <state id="0"/>
      <state id="1"/>
      <parents>LV_5565</parents>
      <probabilities>0.49654716756313205 0.503452832436868 0.48725796662680776 0.5127420333731924 </probabilities>
    </cpt>
    <equation id="ffmc">
      <parents>LV_4999</parents>
      <definition lower="18.7" upper="96.2">ffmc=Choose(LV_4999,Normal(91.13224507459233,7.772620205641377),Normal(90.33558594256839,34.678139477295915))</definition>
      <discretization>
        <interval upper="26.45"/>
        <interval upper="34.2"/>
        <interval upper="41.95"/>
        <interval upper="49.7"/>
        <interval upper="57.45"/>
        <interval upper="65.2"/>
        <interval upper="72.95"/>
        <interval upper="80.7"/>
        <interval upper="88.45"/>
        <interval upper="96.2"/>
      </discretization>
    </equation>
    <equation id="area">
      <parents>LV_4999</parents>
      <definition lower="0.0" upper="1090.84">area=Choose(LV_4999,Normal(0.008126363507414393,0.011171163537631087),Normal(25.163890591748938,8241.874636704262))</definition>
      <discretization>
        <interval upper="109.08399999999999"/>
        <interval upper="218.16799999999998"/>
        <interval upper="327.25199999999995"/>
        <interval upper="436.33599999999996"/>
        <interval upper="545.42"/>
        <interval upper="654.5039999999999"/>
        <interval upper="763.5879999999999"/>
        <interval upper="872.6719999999998"/>
        <interval upper="981.7559999999997"/>
        <interval upper="1090.8399999999997"/>
      </discretization>
    </equation>
    <cpt id="LV_5127">
      <state id="0"/>
      <state id="1"/>
      <parents>LV_5565</parents>
      <probabilities>0.9143095786891724 0.08569042131082762 0.9946464728403213 0.0053535271596787375 </probabilities>
    </cpt>
    <cpt id="month">
      <state id="0"/>
      <state id="1"/>
      <state id="2"/>
      <state id="3"/>
      <state id="4"/>
      <state id="5"/>
      <state id="6"/>
      <state id="7"/>
      <state id="8"/>
      <state id="9"/>
      <state id="10"/>
      <state id="11"/>
      <parents>LV_5127</parents>
      <probabilities>0.0227285065849805 0.33890332463067574 0.02272971069567322 0.03719345840365223 0.00616882659074656 0.0659844929398353 0.03513220078987439 0.10945847256323046 0.008248073543580807 0.006200427007718597 0.035137663375231235 0.3121148428748009 0.06633803072839012 0.2662076716234114 0.06631874943379681 0.06640540110230268 0.0667143047401628 0.06876383778236535 0.06631308499376957 0.06769894214972558 0.06651855950352188 0.06620829067302658 0.06622561320388981 0.06628751406563736 </probabilities>
    </cpt>
    <equation id="rain">
      <parents>LV_5127</parents>
      <definition lower="0.0" upper="6.4">rain=Choose(LV_5127,Normal(8.192075796350161E-4,0.00449346073085761),Normal(1.7422202911195417,3.471346793219633))</definition>
      <discretization>
        <interval upper="0.64"/>
        <interval upper="1.28"/>
        <interval upper="1.92"/>
        <interval upper="2.56"/>
        <interval upper="3.2"/>
        <interval upper="3.8400000000000003"/>
        <interval upper="4.48"/>
        <interval upper="5.12"/>
        <interval upper="5.76"/>
        <interval upper="6.3999999999999995"/>
      </discretization>
    </equation>
    <cpt id="LV_5261">
      <state id="0"/>
      <state id="1"/>
      <parents>LV_5565</parents>
      <probabilities>0.7838731006609069 0.21612689933909313 0.8326083696603257 0.1673916303396744 </probabilities>
    </cpt>
    <equation id="dmc">
      <parents>LV_5261</parents>
      <definition lower="1.1" upper="291.3">dmc=Choose(LV_5261,Normal(124.11257994306136,2676.28858940859),Normal(27.429887916118773,248.4886626992614))</definition>
      <discretization>
        <interval upper="30.12"/>
        <interval upper="59.14"/>
        <interval upper="88.16"/>
        <interval upper="117.17999999999999"/>
        <interval upper="146.2"/>
        <interval upper="175.22"/>
        <interval upper="204.24"/>
        <interval upper="233.26000000000002"/>
        <interval upper="262.28000000000003"/>
        <interval upper="291.3"/>
      </discretization>
    </equation>
    <equation id="dc">
      <parents>LV_5261</parents>
      <definition lower="7.9" upper="860.6">dc=Choose(LV_5261,Normal(639.4378201157613,16094.354573526),Normal(67.22858894450401,858.1295916689023))</definition>
      <discretization>
        <interval upper="93.17000000000002"/>
        <interval upper="178.44000000000003"/>
        <interval upper="263.71000000000004"/>
        <interval upper="348.98"/>
        <interval upper="434.25"/>
        <interval upper="519.52"/>
        <interval upper="604.79"/>
        <interval upper="690.06"/>
        <interval upper="775.3299999999999"/>
        <interval upper="860.5999999999999"/>
      </discretization>
    </equation>
    <equation id="temp">
      <parents>LV_5261</parents>
      <definition lower="2.2" upper="33.3">temp=Choose(LV_5261,Normal(20.31164950692106,27.14774998903001),Normal(12.431237019295368,13.512593585063879))</definition>
      <discretization>
        <interval upper="5.3100000000000005"/>
        <interval upper="8.42"/>
        <interval upper="11.53"/>
        <interval upper="14.639999999999999"/>
        <interval upper="17.75"/>
        <interval upper="20.86"/>
        <interval upper="23.97"/>
        <interval upper="27.08"/>
        <interval upper="30.189999999999998"/>
        <interval upper="33.3"/>
      </discretization>
    </equation>
  </nodes>
  <extensions>
    <genie app="GeNIe 2.3.3705.0 ACADEMIC" faultnameformat="nodestate" name="DAG" version="1.0">
      <node id="x">
        <name>x</name>
        <interior color="e5f6f7"/>
        <outline color="000080"/>
        <font bold="true" color="000080" name="Arial" size="10"/>
        <position>100 100 100 100</position>
        <barchart active="true" height="110" width="160"/>
      </node>
      <node id="y">
        <name>y</name>
        <interior color="e5f6f7"/>
        <outline color="000080"/>
        <font bold="true" color="000080" name="Arial" size="10"/>
        <position>100 100 100 100</position>
        <barchart active="true" height="110" width="160"/>
      </node>
      <node id="month">
        <name>month</name>
        <interior color="e5f6f7"/>
        <outline color="000080"/>
        <font bold="true" color="000080" name="Arial" size="10"/>
        <position>100 100 100 100</position>
        <barchart active="true" height="110" width="160"/>
      </node>
      <node id="day">
        <name>day</name>
        <interior color="e5f6f7"/>
        <outline color="000080"/>
        <font bold="true" color="000080" name="Arial" size="10"/>
        <position>100 100 100 100</position>
        <barchart active="true" height="110" width="160"/>
      </node>
      <node id="ffmc">
        <name>ffmc</name>
        <interior color="e5f6f7"/>
        <outline color="000080"/>
        <font bold="true" color="000080" name="Arial" size="10"/>
        <position>100 100 100 100</position>
        <barchart active="true" height="110" width="160"/>
      </node>
      <node id="dmc">
        <name>dmc</name>
        <interior color="e5f6f7"/>
        <outline color="000080"/>
        <font bold="true" color="000080" name="Arial" size="10"/>
        <position>100 100 100 100</position>
        <barchart active="true" height="110" width="160"/>
      </node>
      <node id="dc">
        <name>dc</name>
        <interior color="e5f6f7"/>
        <outline color="000080"/>
        <font bold="true" color="000080" name="Arial" size="10"/>
        <position>100 100 100 100</position>
        <barchart active="true" height="110" width="160"/>
      </node>
      <node id="isi">
        <name>isi</name>
        <interior color="e5f6f7"/>
        <outline color="000080"/>
        <font bold="true" color="000080" name="Arial" size="10"/>
        <position>100 100 100 100</position>
        <barchart active="true" height="110" width="160"/>
      </node>
      <node id="temp">
        <name>temp</name>
        <interior color="e5f6f7"/>
        <outline color="000080"/>
        <font bold="true" color="000080" name="Arial" size="10"/>
        <position>100 100 100 100</position>
        <barchart active="true" height="110" width="160"/>
      </node>
      <node id="rh">
        <name>rh</name>
        <interior color="e5f6f7"/>
        <outline color="000080"/>
        <font bold="true" color="000080" name="Arial" size="10"/>
        <position>100 100 100 100</position>
        <barchart active="true" height="110" width="160"/>
      </node>
      <node id="wind">
        <name>wind</name>
        <interior color="e5f6f7"/>
        <outline color="000080"/>
        <font bold="true" color="000080" name="Arial" size="10"/>
        <position>100 100 100 100</position>
        <barchart active="true" height="110" width="160"/>
      </node>
      <node id="rain">
        <name>rain</name>
        <interior color="e5f6f7"/>
        <outline color="000080"/>
        <font bold="true" color="000080" name="Arial" size="10"/>
        <position>100 100 100 100</position>
        <barchart active="true" height="110" width="160"/>
      </node>
      <node id="area">
        <name>area</name>
        <interior color="e5f6f7"/>
        <outline color="000080"/>
        <font bold="true" color="000080" name="Arial" size="10"/>
        <position>100 100 100 100</position>
        <barchart active="true" height="110" width="160"/>
      </node>
      <node id="LV_4999">
        <name>LV_4999</name>
        <interior color="e5f6f7"/>
        <outline color="000080"/>
        <font bold="true" color="000080" name="Arial" size="10"/>
        <position>100 100 100 100</position>
        <barchart active="true" height="110" width="160"/>
      </node>
      <node id="LV_5127">
        <name>LV_5127</name>
        <interior color="e5f6f7"/>
        <outline color="000080"/>
        <font bold="true" color="000080" name="Arial" size="10"/>
        <position>100 100 100 100</position>
        <barchart active="true" height="110" width="160"/>
      </node>
      <node id="LV_5261">
        <name>LV_5261</name>
        <interior color="e5f6f7"/>
        <outline color="000080"/>
        <font bold="true" color="000080" name="Arial" size="10"/>
        <position>100 100 100 100</position>
        <barchart active="true" height="110" width="160"/>
      </node>
      <node id="LV_5508">
        <name>LV_5508</name>
        <interior color="e5f6f7"/>
        <outline color="000080"/>
        <font bold="true" color="000080" name="Arial" size="10"/>
        <position>100 100 100 100</position>
        <barchart active="true" height="110" width="160"/>
      </node>
      <node id="LV_5565">
        <name>LV_5565</name>
        <interior color="e5f6f7"/>
        <outline color="000080"/>
        <font bold="true" color="000080" name="Arial" size="10"/>
        <position>100 100 100 100</position>
        <barchart active="true" height="110" width="160"/>
      </node>
    </genie>
  </extensions>
</smile>
