<?xml version="1.0" encoding="ISO-8859-1" standalone="no"?>
<smile discsamples="10000" id="DAG" numsamples="10000" version="1.0">
  <nodes>
    <cpt id="ClustVar">
      <state id="0"/>
      <state id="1"/>
      <probabilities>0.9600942422643314 0.039905757735668713 </probabilities>
    </cpt>
    <cpt id="dgn">
      <state id="0"/>
      <state id="1"/>
      <state id="2"/>
      <state id="3"/>
      <state id="4"/>
      <state id="5"/>
      <state id="6"/>
      <parents>ClustVar</parents>
      <probabilities>0.004818231822219466 0.09882347233202353 0.7542038625909545 0.09395412404055929 0.031331457845029234 0.00964150363588477 0.007227347733329201 0.04358521682428633 0.1786297717002965 0.42312441925614713 0.13542145997754393 0.13170473018543497 0.043858193130075177 0.04367620892621594 </probabilities>
    </cpt>
    <equation id="pre4">
      <parents>ClustVar</parents>
      <definition lower="1.44" upper="6.3">pre4=Choose(ClustVar,Normal(3.2854752417081263,0.7459125107620959),Normal(3.1393570116582974,0.7313787586980104))</definition>
      <discretization>
        <interval upper="1.926"/>
        <interval upper="2.412"/>
        <interval upper="2.8979999999999997"/>
        <interval upper="3.3839999999999995"/>
        <interval upper="3.869999999999999"/>
        <interval upper="4.355999999999999"/>
        <interval upper="4.841999999999999"/>
        <interval upper="5.3279999999999985"/>
        <interval upper="5.813999999999998"/>
        <interval upper="6.299999999999998"/>
      </discretization>
    </equation>
    <equation id="pre5">
      <parents>ClustVar</parents>
      <definition lower="0.96" upper="86.3">pre5=Choose(ClustVar,Normal(2.521432361229346,0.9329552180906011),Normal(62.799687020127735,530.5999068654285))</definition>
      <discretization>
        <interval upper="9.494"/>
        <interval upper="18.028"/>
        <interval upper="26.561999999999998"/>
        <interval upper="35.096"/>
        <interval upper="43.629999999999995"/>
        <interval upper="52.163999999999994"/>
        <interval upper="60.69799999999999"/>
        <interval upper="69.232"/>
        <interval upper="77.766"/>
        <interval upper="86.30000000000001"/>
      </discretization>
    </equation>
    <cpt id="pre6">
      <state id="0"/>
      <state id="1"/>
      <state id="2"/>
      <parents>ClustVar</parents>
      <probabilities>0.2627585880239693 0.6715574116893424 0.06568400028668842 0.5413839577701085 0.40298526233233095 0.05563077989756052 </probabilities>
    </cpt>
    <cpt id="pre7">
      <state id="0"/>
      <state id="1"/>
      <parents>ClustVar</parents>
      <probabilities>0.939011133379378 0.06098886662062197 0.7188657567993262 0.2811342432006738 </probabilities>
    </cpt>
    <cpt id="pre8">
      <state id="0"/>
      <state id="1"/>
      <parents>ClustVar</parents>
      <probabilities>0.863394847909218 0.13660515209078203 0.6034821323037894 0.39651786769621067 </probabilities>
    </cpt>
    <cpt id="pre9">
      <state id="0"/>
      <state id="1"/>
      <parents>ClustVar</parents>
      <probabilities>0.9390199334484634 0.060980066551536684 0.6077990552902671 0.39220094470973293 </probabilities>
    </cpt>
    <cpt id="pre10">
      <state id="0"/>
      <state id="1"/>
      <parents>ClustVar</parents>
      <probabilities>0.30241653147333947 0.6975834685266605 0.5180749966654892 0.48192500333451077 </probabilities>
    </cpt>
    <cpt id="pre11">
      <state id="0"/>
      <state id="1"/>
      <parents>ClustVar</parents>
      <probabilities>0.8195266479551196 0.18047335204488038 0.9352888549930533 0.06471114500694679 </probabilities>
    </cpt>
    <cpt id="pre14">
      <state id="0"/>
      <state id="1"/>
      <state id="2"/>
      <state id="3"/>
      <parents>ClustVar</parents>
      <probabilities>0.3810326731430568 0.5412864560965035 0.038844263567086666 0.038836607193353065 0.2694498607706192 0.5767944739832526 0.10195989730848713 0.05179576793764092 </probabilities>
    </cpt>
    <cpt id="pre17">
      <state id="0"/>
      <state id="1"/>
      <parents>ClustVar</parents>
      <probabilities>0.9268173563690496 0.0731826436309504 0.8848440531802314 0.11515594681976864 </probabilities>
    </cpt>
    <cpt id="pre30">
      <state id="0"/>
      <state id="1"/>
      <parents>ClustVar</parents>
      <probabilities>0.16827230600597462 0.8317276939940254 0.3440701253405337 0.6559298746594663 </probabilities>
    </cpt>
    <equation id="age">
      <parents>ClustVar</parents>
      <definition lower="21.0" upper="87.0">age=Choose(ClustVar,Normal(62.88009373481165,73.0029541356715),Normal(58.20597398791847,77.48929669812627))</definition>
      <discretization>
        <interval upper="27.6"/>
        <interval upper="34.2"/>
        <interval upper="40.800000000000004"/>
        <interval upper="47.400000000000006"/>
        <interval upper="54.00000000000001"/>
        <interval upper="60.60000000000001"/>
        <interval upper="67.2"/>
        <interval upper="73.8"/>
        <interval upper="80.39999999999999"/>
        <interval upper="86.99999999999999"/>
      </discretization>
    </equation>
    <cpt id="risk1yr">
      <state id="0"/>
      <state id="1"/>
      <parents>ClustVar</parents>
      <probabilities>0.8439036559995932 0.1560963440004069 0.8807380801738651 0.11926191982613486 </probabilities>
    </cpt>
  </nodes>
  <extensions>
    <genie app="GeNIe 2.3.3705.0 ACADEMIC" faultnameformat="nodestate" name="DAG" version="1.0">
      <node id="dgn">
        <name>dgn</name>
        <interior color="e5f6f7"/>
        <outline color="000080"/>
        <font bold="true" color="000080" name="Arial" size="10"/>
        <position>100 100 100 100</position>
        <barchart active="true" height="110" width="160"/>
      </node>
      <node id="pre4">
        <name>pre4</name>
        <interior color="e5f6f7"/>
        <outline color="000080"/>
        <font bold="true" color="000080" name="Arial" size="10"/>
        <position>100 100 100 100</position>
        <barchart active="true" height="110" width="160"/>
      </node>
      <node id="pre5">
        <name>pre5</name>
        <interior color="e5f6f7"/>
        <outline color="000080"/>
        <font bold="true" color="000080" name="Arial" size="10"/>
        <position>100 100 100 100</position>
        <barchart active="true" height="110" width="160"/>
      </node>
      <node id="pre6">
        <name>pre6</name>
        <interior color="e5f6f7"/>
        <outline color="000080"/>
        <font bold="true" color="000080" name="Arial" size="10"/>
        <position>100 100 100 100</position>
        <barchart active="true" height="110" width="160"/>
      </node>
      <node id="pre7">
        <name>pre7</name>
        <interior color="e5f6f7"/>
        <outline color="000080"/>
        <font bold="true" color="000080" name="Arial" size="10"/>
        <position>100 100 100 100</position>
        <barchart active="true" height="110" width="160"/>
      </node>
      <node id="pre8">
        <name>pre8</name>
        <interior color="e5f6f7"/>
        <outline color="000080"/>
        <font bold="true" color="000080" name="Arial" size="10"/>
        <position>100 100 100 100</position>
        <barchart active="true" height="110" width="160"/>
      </node>
      <node id="pre9">
        <name>pre9</name>
        <interior color="e5f6f7"/>
        <outline color="000080"/>
        <font bold="true" color="000080" name="Arial" size="10"/>
        <position>100 100 100 100</position>
        <barchart active="true" height="110" width="160"/>
      </node>
      <node id="pre10">
        <name>pre10</name>
        <interior color="e5f6f7"/>
        <outline color="000080"/>
        <font bold="true" color="000080" name="Arial" size="10"/>
        <position>100 100 100 100</position>
        <barchart active="true" height="110" width="160"/>
      </node>
      <node id="pre11">
        <name>pre11</name>
        <interior color="e5f6f7"/>
        <outline color="000080"/>
        <font bold="true" color="000080" name="Arial" size="10"/>
        <position>100 100 100 100</position>
        <barchart active="true" height="110" width="160"/>
      </node>
      <node id="pre14">
        <name>pre14</name>
        <interior color="e5f6f7"/>
        <outline color="000080"/>
        <font bold="true" color="000080" name="Arial" size="10"/>
        <position>100 100 100 100</position>
        <barchart active="true" height="110" width="160"/>
      </node>
      <node id="pre17">
        <name>pre17</name>
        <interior color="e5f6f7"/>
        <outline color="000080"/>
        <font bold="true" color="000080" name="Arial" size="10"/>
        <position>100 100 100 100</position>
        <barchart active="true" height="110" width="160"/>
      </node>
      <node id="pre30">
        <name>pre30</name>
        <interior color="e5f6f7"/>
        <outline color="000080"/>
        <font bold="true" color="000080" name="Arial" size="10"/>
        <position>100 100 100 100</position>
        <barchart active="true" height="110" width="160"/>
      </node>
      <node id="age">
        <name>age</name>
        <interior color="e5f6f7"/>
        <outline color="000080"/>
        <font bold="true" color="000080" name="Arial" size="10"/>
        <position>100 100 100 100</position>
        <barchart active="true" height="110" width="160"/>
      </node>
      <node id="risk1yr">
        <name>risk1yr</name>
        <interior color="e5f6f7"/>
        <outline color="000080"/>
        <font bold="true" color="000080" name="Arial" size="10"/>
        <position>100 100 100 100</position>
        <barchart active="true" height="110" width="160"/>
      </node>
      <node id="ClustVar">
        <name>ClustVar</name>
        <interior color="e5f6f7"/>
        <outline color="000080"/>
        <font bold="true" color="000080" name="Arial" size="10"/>
        <position>100 100 100 100</position>
        <barchart active="true" height="110" width="160"/>
      </node>
    </genie>
  </extensions>
</smile>
