<?xml version="1.0" encoding="ISO-8859-1" standalone="no"?>
<smile discsamples="10000" id="DAG" numsamples="10000" version="1.0">
  <nodes>
    <cpt id="ClustVar">
      <state id="0"/>
      <state id="1"/>
      <probabilities>0.9669443945173941 0.03305560548260587 </probabilities>
    </cpt>
    <cpt id="dgn">
      <state id="0"/>
      <state id="1"/>
      <state id="2"/>
      <state id="3"/>
      <state id="4"/>
      <state id="5"/>
      <state id="6"/>
      <parents>ClustVar</parents>
      <probabilities>0.004784586807995987 0.10289724920823173 0.7512800315244875 0.09317472430546621 0.031112349527916243 0.009574178413908289 0.0071768802119939815 0.04992322522367331 0.15511416252178123 0.38615339776139135 0.15768232734231558 0.15086354129452603 0.050235896780397776 0.0500274490759148 </probabilities>
    </cpt>
    <equation id="pre4">
      <parents>ClustVar</parents>
      <definition lower="1.44" upper="6.3">pre4=Choose(ClustVar,Normal(3.2838507578190574,0.7431354656529968),Normal(3.197436908108271,0.8570800108760928))</definition>
      <discretization>
        <interval upper="1.926"/>
        <interval upper="2.412"/>
        <interval upper="2.8979999999999997"/>
        <interval upper="3.3839999999999995"/>
        <interval upper="3.869999999999999"/>
        <interval upper="4.355999999999999"/>
        <interval upper="4.841999999999999"/>
        <interval upper="5.3279999999999985"/>
        <interval upper="5.813999999999998"/>
        <interval upper="6.299999999999998"/>
      </discretization>
    </equation>
    <equation id="pre5">
      <parents>ClustVar</parents>
      <definition lower="0.96" upper="86.3">pre5=Choose(ClustVar,Normal(2.522805874995061,0.9326898325973545),Normal(61.39051495101029,659.551133500027))</definition>
      <discretization>
        <interval upper="9.494"/>
        <interval upper="18.028"/>
        <interval upper="26.561999999999998"/>
        <interval upper="35.096"/>
        <interval upper="43.629999999999995"/>
        <interval upper="52.163999999999994"/>
        <interval upper="60.69799999999999"/>
        <interval upper="69.232"/>
        <interval upper="77.766"/>
        <interval upper="86.30000000000001"/>
      </discretization>
    </equation>
    <cpt id="pre6">
      <state id="0"/>
      <state id="1"/>
      <state id="2"/>
      <parents>ClustVar</parents>
      <probabilities>0.2800170542083132 0.6595826393765225 0.06040030641516427 0.5199563887336177 0.41431519215009693 0.06572841911628545 </probabilities>
    </cpt>
    <cpt id="pre7">
      <state id="0"/>
      <state id="1"/>
      <parents>ClustVar</parents>
      <probabilities>0.9322122834851359 0.06778771651486412 0.6639534920313374 0.33604650796866264 </probabilities>
    </cpt>
    <cpt id="pre8">
      <state id="0"/>
      <state id="1"/>
      <parents>ClustVar</parents>
      <probabilities>0.8571367408182434 0.14286325918175655 0.5260669691886811 0.47393303081131893 </probabilities>
    </cpt>
    <cpt id="pre9">
      <state id="0"/>
      <state id="1"/>
      <parents>ClustVar</parents>
      <probabilities>0.9467040846066379 0.053295915393362044 0.6640895959797608 0.33591040402023914 </probabilities>
    </cpt>
    <cpt id="pre10">
      <state id="0"/>
      <state id="1"/>
      <parents>ClustVar</parents>
      <probabilities>0.3170229572961355 0.6829770427038645 0.49064614560194164 0.5093538543980585 </probabilities>
    </cpt>
    <cpt id="pre11">
      <state id="0"/>
      <state id="1"/>
      <parents>ClustVar</parents>
      <probabilities>0.8256343491529654 0.1743656508470347 0.9227658980063471 0.07723410199365278 </probabilities>
    </cpt>
    <cpt id="pre14">
      <state id="0"/>
      <state id="1"/>
      <state id="2"/>
      <state id="3"/>
      <parents>ClustVar</parents>
      <probabilities>0.37342085187426577 0.544633062644012 0.04097811554545939 0.040967969936262866 0.2600581243183248 0.6183993722033551 0.06089451999826803 0.06064798348005204 </probabilities>
    </cpt>
    <cpt id="pre17">
      <state id="0"/>
      <state id="1"/>
      <parents>ClustVar</parents>
      <probabilities>0.9273374912042974 0.07266250879570262 0.8624785607923455 0.13752143920765456 </probabilities>
    </cpt>
    <cpt id="pre30">
      <state id="0"/>
      <state id="1"/>
      <parents>ClustVar</parents>
      <probabilities>0.1789867903596102 0.8210132096403898 0.41549999467157156 0.5845000053284285 </probabilities>
    </cpt>
    <equation id="age">
      <parents>ClustVar</parents>
      <definition lower="21.0" upper="87.0">age=Choose(ClustVar,Normal(62.5807703317813,72.30216284611762),Normal(57.87161946602057,92.50849819797969))</definition>
      <discretization>
        <interval upper="27.6"/>
        <interval upper="34.2"/>
        <interval upper="40.800000000000004"/>
        <interval upper="47.400000000000006"/>
        <interval upper="54.00000000000001"/>
        <interval upper="60.60000000000001"/>
        <interval upper="67.2"/>
        <interval upper="73.8"/>
        <interval upper="80.39999999999999"/>
        <interval upper="86.99999999999999"/>
      </discretization>
    </equation>
    <cpt id="risk1yr">
      <state id="0"/>
      <state id="1"/>
      <parents>ClustVar</parents>
      <probabilities>0.8450043329318669 0.15499566706813306 0.923887160904572 0.07611283909542793 </probabilities>
    </cpt>
  </nodes>
  <extensions>
    <genie app="GeNIe 2.3.3705.0 ACADEMIC" faultnameformat="nodestate" name="DAG" version="1.0">
      <node id="dgn">
        <name>dgn</name>
        <interior color="e5f6f7"/>
        <outline color="000080"/>
        <font bold="true" color="000080" name="Arial" size="10"/>
        <position>100 100 100 100</position>
        <barchart active="true" height="110" width="160"/>
      </node>
      <node id="pre4">
        <name>pre4</name>
        <interior color="e5f6f7"/>
        <outline color="000080"/>
        <font bold="true" color="000080" name="Arial" size="10"/>
        <position>100 100 100 100</position>
        <barchart active="true" height="110" width="160"/>
      </node>
      <node id="pre5">
        <name>pre5</name>
        <interior color="e5f6f7"/>
        <outline color="000080"/>
        <font bold="true" color="000080" name="Arial" size="10"/>
        <position>100 100 100 100</position>
        <barchart active="true" height="110" width="160"/>
      </node>
      <node id="pre6">
        <name>pre6</name>
        <interior color="e5f6f7"/>
        <outline color="000080"/>
        <font bold="true" color="000080" name="Arial" size="10"/>
        <position>100 100 100 100</position>
        <barchart active="true" height="110" width="160"/>
      </node>
      <node id="pre7">
        <name>pre7</name>
        <interior color="e5f6f7"/>
        <outline color="000080"/>
        <font bold="true" color="000080" name="Arial" size="10"/>
        <position>100 100 100 100</position>
        <barchart active="true" height="110" width="160"/>
      </node>
      <node id="pre8">
        <name>pre8</name>
        <interior color="e5f6f7"/>
        <outline color="000080"/>
        <font bold="true" color="000080" name="Arial" size="10"/>
        <position>100 100 100 100</position>
        <barchart active="true" height="110" width="160"/>
      </node>
      <node id="pre9">
        <name>pre9</name>
        <interior color="e5f6f7"/>
        <outline color="000080"/>
        <font bold="true" color="000080" name="Arial" size="10"/>
        <position>100 100 100 100</position>
        <barchart active="true" height="110" width="160"/>
      </node>
      <node id="pre10">
        <name>pre10</name>
        <interior color="e5f6f7"/>
        <outline color="000080"/>
        <font bold="true" color="000080" name="Arial" size="10"/>
        <position>100 100 100 100</position>
        <barchart active="true" height="110" width="160"/>
      </node>
      <node id="pre11">
        <name>pre11</name>
        <interior color="e5f6f7"/>
        <outline color="000080"/>
        <font bold="true" color="000080" name="Arial" size="10"/>
        <position>100 100 100 100</position>
        <barchart active="true" height="110" width="160"/>
      </node>
      <node id="pre14">
        <name>pre14</name>
        <interior color="e5f6f7"/>
        <outline color="000080"/>
        <font bold="true" color="000080" name="Arial" size="10"/>
        <position>100 100 100 100</position>
        <barchart active="true" height="110" width="160"/>
      </node>
      <node id="pre17">
        <name>pre17</name>
        <interior color="e5f6f7"/>
        <outline color="000080"/>
        <font bold="true" color="000080" name="Arial" size="10"/>
        <position>100 100 100 100</position>
        <barchart active="true" height="110" width="160"/>
      </node>
      <node id="pre30">
        <name>pre30</name>
        <interior color="e5f6f7"/>
        <outline color="000080"/>
        <font bold="true" color="000080" name="Arial" size="10"/>
        <position>100 100 100 100</position>
        <barchart active="true" height="110" width="160"/>
      </node>
      <node id="age">
        <name>age</name>
        <interior color="e5f6f7"/>
        <outline color="000080"/>
        <font bold="true" color="000080" name="Arial" size="10"/>
        <position>100 100 100 100</position>
        <barchart active="true" height="110" width="160"/>
      </node>
      <node id="risk1yr">
        <name>risk1yr</name>
        <interior color="e5f6f7"/>
        <outline color="000080"/>
        <font bold="true" color="000080" name="Arial" size="10"/>
        <position>100 100 100 100</position>
        <barchart active="true" height="110" width="160"/>
      </node>
      <node id="ClustVar">
        <name>ClustVar</name>
        <interior color="e5f6f7"/>
        <outline color="000080"/>
        <font bold="true" color="000080" name="Arial" size="10"/>
        <position>100 100 100 100</position>
        <barchart active="true" height="110" width="160"/>
      </node>
    </genie>
  </extensions>
</smile>
