<?xml version="1.0" encoding="ISO-8859-1" standalone="no"?>
<smile discsamples="10000" id="DAG" numsamples="10000" version="1.0">
  <nodes>
    <equation id="pre4">
      <definition lower="1.44" upper="6.3">pre4=Normal(3.317503863910077,0.7741159044912862)</definition>
      <discretization>
        <interval upper="1.926"/>
        <interval upper="2.412"/>
        <interval upper="2.8979999999999997"/>
        <interval upper="3.3839999999999995"/>
        <interval upper="3.869999999999999"/>
        <interval upper="4.355999999999999"/>
        <interval upper="4.841999999999999"/>
        <interval upper="5.3279999999999985"/>
        <interval upper="5.813999999999998"/>
        <interval upper="6.299999999999998"/>
      </discretization>
    </equation>
    <cpt id="pre11">
      <state id="0"/>
      <state id="1"/>
      <probabilities>0.8305930214052677 0.16940697859473222 </probabilities>
    </cpt>
    <cpt id="pre10">
      <state id="0"/>
      <state id="1"/>
      <parents>pre11</parents>
      <probabilities>0.34831460674157305 0.651685393258427 0.10666666666666667 0.8933333333333333 </probabilities>
    </cpt>
    <cpt id="pre6">
      <state id="0"/>
      <state id="1"/>
      <state id="2"/>
      <parents>pre10</parents>
      <probabilities>0.746268656716418 0.23134328358208955 0.022388059701492536 0.059800664451827246 0.8538205980066446 0.08637873754152824 </probabilities>
    </cpt>
    <cpt id="pre30">
      <state id="0"/>
      <state id="1"/>
      <parents>pre11</parents>
      <probabilities>0.2050561797752809 0.7949438202247191 0.10666666666666667 0.8933333333333333 </probabilities>
    </cpt>
    <cpt id="pre17">
      <state id="0"/>
      <state id="1"/>
      <probabilities>0.9247035887642238 0.07529641123577624 </probabilities>
    </cpt>
    <cpt id="risk1yr">
      <state id="0"/>
      <state id="1"/>
      <parents>pre17</parents>
      <probabilities>0.8560606060606061 0.14393939393939395 0.7142857142857143 0.2857142857142857 </probabilities>
    </cpt>
    <cpt id="pre14">
      <state id="0"/>
      <state id="1"/>
      <state id="2"/>
      <state id="3"/>
      <parents>risk1yr</parents>
      <probabilities>0.3967391304347826 0.5380434782608695 0.03804347826086957 0.02717391304347826 0.2535211267605634 0.5070422535211268 0.11267605633802817 0.1267605633802817 </probabilities>
    </cpt>
    <equation id="age">
      <definition lower="21.0" upper="87.0">age=Normal(62.461165194700925,75.85085034846408)</definition>
      <discretization>
        <interval upper="27.6"/>
        <interval upper="34.2"/>
        <interval upper="40.800000000000004"/>
        <interval upper="47.400000000000006"/>
        <interval upper="54.00000000000001"/>
        <interval upper="60.60000000000001"/>
        <interval upper="67.2"/>
        <interval upper="73.8"/>
        <interval upper="80.39999999999999"/>
        <interval upper="86.99999999999999"/>
      </discretization>
    </equation>
    <cpt id="LV_6277">
      <state id="0"/>
      <state id="1"/>
      <probabilities>0.9695488622513104 0.030451137748689655 </probabilities>
    </cpt>
    <cpt id="dgn">
      <state id="0"/>
      <state id="1"/>
      <state id="2"/>
      <state id="3"/>
      <state id="4"/>
      <state id="5"/>
      <state id="6"/>
      <parents>LV_6277</parents>
      <probabilities>0.0070422816128193726 0.11032894732818184 0.7300500695352317 0.09858831405393927 0.03286365799366325 0.011737101592478162 0.009389627883686377 0.07999183004622891 0.15998950167908735 0.3199900488743205 0.12005286545424339 0.15998986452272912 0.07999259250022552 0.07999329692316523 </probabilities>
    </cpt>
    <equation id="pre5">
      <parents>LV_6277</parents>
      <definition lower="0.96" upper="86.3">pre5=Choose(LV_6277,Normal(2.5357880446488856,0.6049152589952674),Normal(64.9546182616896,296.66561200757167))</definition>
      <discretization>
        <interval upper="9.494"/>
        <interval upper="18.028"/>
        <interval upper="26.561999999999998"/>
        <interval upper="35.096"/>
        <interval upper="43.629999999999995"/>
        <interval upper="52.163999999999994"/>
        <interval upper="60.69799999999999"/>
        <interval upper="69.232"/>
        <interval upper="77.766"/>
        <interval upper="86.30000000000001"/>
      </discretization>
    </equation>
    <cpt id="pre7">
      <state id="0"/>
      <state id="1"/>
      <parents>LV_6277</parents>
      <probabilities>0.9326925300130239 0.06730746998697605 0.6000522862635814 0.3999477137364186 </probabilities>
    </cpt>
    <cpt id="pre8">
      <state id="0"/>
      <state id="1"/>
      <parents>pre7</parents>
      <probabilities>0.8841309823677582 0.11586901763224182 0.5 0.5 </probabilities>
    </cpt>
    <cpt id="pre9">
      <state id="0"/>
      <state id="1"/>
      <parents>LV_6277</parents>
      <probabilities>0.937500280873829 0.062499719126171076 0.6000515073514334 0.39994849264856663 </probabilities>
    </cpt>
  </nodes>
  <extensions>
    <genie app="GeNIe 2.3.3705.0 ACADEMIC" faultnameformat="nodestate" name="DAG" version="1.0">
      <node id="dgn">
        <name>dgn</name>
        <interior color="e5f6f7"/>
        <outline color="000080"/>
        <font bold="true" color="000080" name="Arial" size="10"/>
        <position>100 100 100 100</position>
        <barchart active="true" height="110" width="160"/>
      </node>
      <node id="pre4">
        <name>pre4</name>
        <interior color="e5f6f7"/>
        <outline color="000080"/>
        <font bold="true" color="000080" name="Arial" size="10"/>
        <position>100 100 100 100</position>
        <barchart active="true" height="110" width="160"/>
      </node>
      <node id="pre5">
        <name>pre5</name>
        <interior color="e5f6f7"/>
        <outline color="000080"/>
        <font bold="true" color="000080" name="Arial" size="10"/>
        <position>100 100 100 100</position>
        <barchart active="true" height="110" width="160"/>
      </node>
      <node id="pre6">
        <name>pre6</name>
        <interior color="e5f6f7"/>
        <outline color="000080"/>
        <font bold="true" color="000080" name="Arial" size="10"/>
        <position>100 100 100 100</position>
        <barchart active="true" height="110" width="160"/>
      </node>
      <node id="pre7">
        <name>pre7</name>
        <interior color="e5f6f7"/>
        <outline color="000080"/>
        <font bold="true" color="000080" name="Arial" size="10"/>
        <position>100 100 100 100</position>
        <barchart active="true" height="110" width="160"/>
      </node>
      <node id="pre8">
        <name>pre8</name>
        <interior color="e5f6f7"/>
        <outline color="000080"/>
        <font bold="true" color="000080" name="Arial" size="10"/>
        <position>100 100 100 100</position>
        <barchart active="true" height="110" width="160"/>
      </node>
      <node id="pre9">
        <name>pre9</name>
        <interior color="e5f6f7"/>
        <outline color="000080"/>
        <font bold="true" color="000080" name="Arial" size="10"/>
        <position>100 100 100 100</position>
        <barchart active="true" height="110" width="160"/>
      </node>
      <node id="pre10">
        <name>pre10</name>
        <interior color="e5f6f7"/>
        <outline color="000080"/>
        <font bold="true" color="000080" name="Arial" size="10"/>
        <position>100 100 100 100</position>
        <barchart active="true" height="110" width="160"/>
      </node>
      <node id="pre11">
        <name>pre11</name>
        <interior color="e5f6f7"/>
        <outline color="000080"/>
        <font bold="true" color="000080" name="Arial" size="10"/>
        <position>100 100 100 100</position>
        <barchart active="true" height="110" width="160"/>
      </node>
      <node id="pre14">
        <name>pre14</name>
        <interior color="e5f6f7"/>
        <outline color="000080"/>
        <font bold="true" color="000080" name="Arial" size="10"/>
        <position>100 100 100 100</position>
        <barchart active="true" height="110" width="160"/>
      </node>
      <node id="pre17">
        <name>pre17</name>
        <interior color="e5f6f7"/>
        <outline color="000080"/>
        <font bold="true" color="000080" name="Arial" size="10"/>
        <position>100 100 100 100</position>
        <barchart active="true" height="110" width="160"/>
      </node>
      <node id="pre30">
        <name>pre30</name>
        <interior color="e5f6f7"/>
        <outline color="000080"/>
        <font bold="true" color="000080" name="Arial" size="10"/>
        <position>100 100 100 100</position>
        <barchart active="true" height="110" width="160"/>
      </node>
      <node id="age">
        <name>age</name>
        <interior color="e5f6f7"/>
        <outline color="000080"/>
        <font bold="true" color="000080" name="Arial" size="10"/>
        <position>100 100 100 100</position>
        <barchart active="true" height="110" width="160"/>
      </node>
      <node id="risk1yr">
        <name>risk1yr</name>
        <interior color="e5f6f7"/>
        <outline color="000080"/>
        <font bold="true" color="000080" name="Arial" size="10"/>
        <position>100 100 100 100</position>
        <barchart active="true" height="110" width="160"/>
      </node>
      <node id="LV_6277">
        <name>LV_6277</name>
        <interior color="e5f6f7"/>
        <outline color="000080"/>
        <font bold="true" color="000080" name="Arial" size="10"/>
        <position>100 100 100 100</position>
        <barchart active="true" height="110" width="160"/>
      </node>
    </genie>
  </extensions>
</smile>
