<?xml version="1.0" encoding="ISO-8859-1" standalone="no"?>
<smile discsamples="10000" id="DAG" numsamples="10000" version="1.0">
  <nodes>
    <equation id="pre4">
      <definition lower="1.44" upper="6.3">pre4=Normal(3.2566312224006455,0.7464095992499491)</definition>
      <discretization>
        <interval upper="1.926"/>
        <interval upper="2.412"/>
        <interval upper="2.8979999999999997"/>
        <interval upper="3.3839999999999995"/>
        <interval upper="3.869999999999999"/>
        <interval upper="4.355999999999999"/>
        <interval upper="4.841999999999999"/>
        <interval upper="5.3279999999999985"/>
        <interval upper="5.813999999999998"/>
        <interval upper="6.299999999999998"/>
      </discretization>
    </equation>
    <cpt id="pre11">
      <state id="0"/>
      <state id="1"/>
      <probabilities>0.8329404392456433 0.16705956075435666 </probabilities>
    </cpt>
    <cpt id="pre6">
      <state id="0"/>
      <state id="1"/>
      <state id="2"/>
      <parents>pre11</parents>
      <probabilities>0.32590529247910865 0.6545961002785515 0.019498607242339833 0.02631578947368421 0.7105263157894737 0.2631578947368421 </probabilities>
    </cpt>
    <cpt id="pre10">
      <state id="0"/>
      <state id="1"/>
      <parents>pre6</parents>
      <probabilities>0.8823529411764706 0.11764705882352941 0.10726643598615918 0.8927335640138409 0.1111111111111111 0.8888888888888888 </probabilities>
    </cpt>
    <cpt id="pre30">
      <state id="0"/>
      <state id="1"/>
      <parents>pre11</parents>
      <probabilities>0.21008403361344538 0.7899159663865546 0.10810810810810811 0.8918918918918919 </probabilities>
    </cpt>
    <cpt id="pre17">
      <state id="0"/>
      <state id="1"/>
      <probabilities>0.9200087530834725 0.07999124691652741 </probabilities>
    </cpt>
    <cpt id="risk1yr">
      <state id="0"/>
      <state id="1"/>
      <parents>pre17</parents>
      <probabilities>0.8629441624365483 0.13705583756345177 0.6756756756756757 0.32432432432432434 </probabilities>
    </cpt>
    <equation id="age">
      <definition lower="21.0" upper="87.0">age=Normal(62.38805198715375,76.96246764241972)</definition>
      <discretization>
        <interval upper="27.6"/>
        <interval upper="34.2"/>
        <interval upper="40.800000000000004"/>
        <interval upper="47.400000000000006"/>
        <interval upper="54.00000000000001"/>
        <interval upper="60.60000000000001"/>
        <interval upper="67.2"/>
        <interval upper="73.8"/>
        <interval upper="80.39999999999999"/>
        <interval upper="86.99999999999999"/>
      </discretization>
    </equation>
    <cpt id="LV_4517">
      <state id="0"/>
      <state id="1"/>
      <probabilities>0.03747854244640593 0.962521457553594 </probabilities>
    </cpt>
    <cpt id="dgn">
      <state id="0"/>
      <state id="1"/>
      <state id="2"/>
      <state id="3"/>
      <state id="4"/>
      <state id="5"/>
      <state id="6"/>
      <parents>LV_4517</parents>
      <probabilities>0.07142021765835925 0.17855584491566925 0.3214062242981677 0.14293126801510544 0.1428445476879083 0.07142064298205528 0.07142125444273478 0.007092243978575725 0.11583978018836844 0.7210448216625793 0.10164961397851627 0.030732809640288395 0.014184470363224188 0.009456260188447549 </probabilities>
    </cpt>
    <equation id="pre5">
      <parents>LV_4517</parents>
      <definition lower="0.96" upper="86.3">pre5=Choose(LV_4517,Normal(66.00400792639361,279.55047161488176),Normal(2.5030120942221274,0.5887092934501124))</definition>
      <discretization>
        <interval upper="9.494"/>
        <interval upper="18.028"/>
        <interval upper="26.561999999999998"/>
        <interval upper="35.096"/>
        <interval upper="43.629999999999995"/>
        <interval upper="52.163999999999994"/>
        <interval upper="60.69799999999999"/>
        <interval upper="69.232"/>
        <interval upper="77.766"/>
        <interval upper="86.30000000000001"/>
      </discretization>
    </equation>
    <cpt id="pre7">
      <state id="0"/>
      <state id="1"/>
      <parents>LV_4517</parents>
      <probabilities>0.7222667557046104 0.2777332442953896 0.9346244725609202 0.06537552743907978 </probabilities>
    </cpt>
    <cpt id="pre8">
      <state id="0"/>
      <state id="1"/>
      <parents>pre7</parents>
      <probabilities>0.8721804511278195 0.12781954887218044 0.46875 0.53125 </probabilities>
    </cpt>
    <cpt id="pre14">
      <state id="0"/>
      <state id="1"/>
      <state id="2"/>
      <state id="3"/>
      <parents>pre7</parents>
      <probabilities>0.38461538461538464 0.5384615384615384 0.03722084367245657 0.03970223325062035 0.19444444444444445 0.5277777777777778 0.19444444444444445 0.08333333333333333 </probabilities>
    </cpt>
    <cpt id="pre9">
      <state id="0"/>
      <state id="1"/>
      <parents>LV_4517</parents>
      <probabilities>0.5556245622095092 0.44437543779049077 0.9370460797144661 0.06295392028553391 </probabilities>
    </cpt>
  </nodes>
  <extensions>
    <genie app="GeNIe 2.3.3705.0 ACADEMIC" faultnameformat="nodestate" name="DAG" version="1.0">
      <node id="dgn">
        <name>dgn</name>
        <interior color="e5f6f7"/>
        <outline color="000080"/>
        <font bold="true" color="000080" name="Arial" size="10"/>
        <position>100 100 100 100</position>
        <barchart active="true" height="110" width="160"/>
      </node>
      <node id="pre4">
        <name>pre4</name>
        <interior color="e5f6f7"/>
        <outline color="000080"/>
        <font bold="true" color="000080" name="Arial" size="10"/>
        <position>100 100 100 100</position>
        <barchart active="true" height="110" width="160"/>
      </node>
      <node id="pre5">
        <name>pre5</name>
        <interior color="e5f6f7"/>
        <outline color="000080"/>
        <font bold="true" color="000080" name="Arial" size="10"/>
        <position>100 100 100 100</position>
        <barchart active="true" height="110" width="160"/>
      </node>
      <node id="pre6">
        <name>pre6</name>
        <interior color="e5f6f7"/>
        <outline color="000080"/>
        <font bold="true" color="000080" name="Arial" size="10"/>
        <position>100 100 100 100</position>
        <barchart active="true" height="110" width="160"/>
      </node>
      <node id="pre7">
        <name>pre7</name>
        <interior color="e5f6f7"/>
        <outline color="000080"/>
        <font bold="true" color="000080" name="Arial" size="10"/>
        <position>100 100 100 100</position>
        <barchart active="true" height="110" width="160"/>
      </node>
      <node id="pre8">
        <name>pre8</name>
        <interior color="e5f6f7"/>
        <outline color="000080"/>
        <font bold="true" color="000080" name="Arial" size="10"/>
        <position>100 100 100 100</position>
        <barchart active="true" height="110" width="160"/>
      </node>
      <node id="pre9">
        <name>pre9</name>
        <interior color="e5f6f7"/>
        <outline color="000080"/>
        <font bold="true" color="000080" name="Arial" size="10"/>
        <position>100 100 100 100</position>
        <barchart active="true" height="110" width="160"/>
      </node>
      <node id="pre10">
        <name>pre10</name>
        <interior color="e5f6f7"/>
        <outline color="000080"/>
        <font bold="true" color="000080" name="Arial" size="10"/>
        <position>100 100 100 100</position>
        <barchart active="true" height="110" width="160"/>
      </node>
      <node id="pre11">
        <name>pre11</name>
        <interior color="e5f6f7"/>
        <outline color="000080"/>
        <font bold="true" color="000080" name="Arial" size="10"/>
        <position>100 100 100 100</position>
        <barchart active="true" height="110" width="160"/>
      </node>
      <node id="pre14">
        <name>pre14</name>
        <interior color="e5f6f7"/>
        <outline color="000080"/>
        <font bold="true" color="000080" name="Arial" size="10"/>
        <position>100 100 100 100</position>
        <barchart active="true" height="110" width="160"/>
      </node>
      <node id="pre17">
        <name>pre17</name>
        <interior color="e5f6f7"/>
        <outline color="000080"/>
        <font bold="true" color="000080" name="Arial" size="10"/>
        <position>100 100 100 100</position>
        <barchart active="true" height="110" width="160"/>
      </node>
      <node id="pre30">
        <name>pre30</name>
        <interior color="e5f6f7"/>
        <outline color="000080"/>
        <font bold="true" color="000080" name="Arial" size="10"/>
        <position>100 100 100 100</position>
        <barchart active="true" height="110" width="160"/>
      </node>
      <node id="age">
        <name>age</name>
        <interior color="e5f6f7"/>
        <outline color="000080"/>
        <font bold="true" color="000080" name="Arial" size="10"/>
        <position>100 100 100 100</position>
        <barchart active="true" height="110" width="160"/>
      </node>
      <node id="risk1yr">
        <name>risk1yr</name>
        <interior color="e5f6f7"/>
        <outline color="000080"/>
        <font bold="true" color="000080" name="Arial" size="10"/>
        <position>100 100 100 100</position>
        <barchart active="true" height="110" width="160"/>
      </node>
      <node id="LV_4517">
        <name>LV_4517</name>
        <interior color="e5f6f7"/>
        <outline color="000080"/>
        <font bold="true" color="000080" name="Arial" size="10"/>
        <position>100 100 100 100</position>
        <barchart active="true" height="110" width="160"/>
      </node>
    </genie>
  </extensions>
</smile>
