<?xml version="1.0" encoding="ISO-8859-1" standalone="no"?>
<smile discsamples="10000" id="DAG" numsamples="10000" version="1.0">
  <nodes>
    <cpt id="LV_313">
      <state id="0"/>
      <state id="1"/>
      <probabilities>0.5488974893233368 0.4511025106766632 </probabilities>
    </cpt>
    <equation id="F">
      <parents>LV_313</parents>
      <definition lower="1.0" upper="50.0">F=Choose(LV_313,Normal(2.3153952300176943,2.003647258899876),Normal(9.17549313968848,49.85526238925848))</definition>
      <discretization>
        <interval upper="5.9"/>
        <interval upper="10.8"/>
        <interval upper="15.700000000000001"/>
        <interval upper="20.6"/>
        <interval upper="25.5"/>
        <interval upper="30.4"/>
        <interval upper="35.3"/>
        <interval upper="40.199999999999996"/>
        <interval upper="45.099999999999994"/>
        <interval upper="49.99999999999999"/>
      </discretization>
    </equation>
    <equation id="M">
      <parents>F</parents>
      <definition lower="250.0" upper="12500.0">M=Choose(F)</definition>
      <discretization>
        <interval upper="1475.0"/>
        <interval upper="2700.0"/>
        <interval upper="3925.0"/>
        <interval upper="5150.0"/>
        <interval upper="6375.0"/>
        <interval upper="7600.0"/>
        <interval upper="8825.0"/>
        <interval upper="10050.0"/>
        <interval upper="11275.0"/>
        <interval upper="12500.0"/>
      </discretization>
    </equation>
    <equation id="T">
      <parents>LV_313</parents>
      <definition lower="2.0" upper="98.0">T=Choose(LV_313,Normal(18.23472650741773,124.6314472706641),Normal(54.89717807247619,426.7917159046589))</definition>
      <discretization>
        <interval upper="11.6"/>
        <interval upper="21.2"/>
        <interval upper="30.799999999999997"/>
        <interval upper="40.4"/>
        <interval upper="50.0"/>
        <interval upper="59.6"/>
        <interval upper="69.2"/>
        <interval upper="78.8"/>
        <interval upper="88.39999999999999"/>
        <interval upper="97.99999999999999"/>
      </discretization>
    </equation>
    <cpt id="LV_302">
      <state id="0"/>
      <state id="1"/>
      <parents>LV_313</parents>
      <probabilities>0.20531936563731035 0.7946806343626898 0.18998679242750754 0.8100132075724925 </probabilities>
    </cpt>
    <equation id="R">
      <parents>LV_302</parents>
      <definition lower="0.0" upper="74.0">R=Choose(LV_302,Normal(1.9999999999984799,0.015002882844560382),Normal(12.162296631257973,63.41550064680569))</definition>
      <discretization>
        <interval upper="7.4"/>
        <interval upper="14.8"/>
        <interval upper="22.200000000000003"/>
        <interval upper="29.6"/>
        <interval upper="37.0"/>
        <interval upper="44.4"/>
        <interval upper="51.8"/>
        <interval upper="59.199999999999996"/>
        <interval upper="66.6"/>
        <interval upper="74.0"/>
      </discretization>
    </equation>
    <cpt id="class">
      <state id="0"/>
      <state id="1"/>
      <parents>LV_302</parents>
      <probabilities>0.620649015204588 0.37935098479541185 0.8195129359430471 0.18048706405695294 </probabilities>
    </cpt>
  </nodes>
  <extensions>
    <genie app="GeNIe 2.3.3705.0 ACADEMIC" faultnameformat="nodestate" name="DAG" version="1.0">
      <node id="R">
        <name>R</name>
        <interior color="e5f6f7"/>
        <outline color="000080"/>
        <font bold="true" color="000080" name="Arial" size="10"/>
        <position>100 100 100 100</position>
        <barchart active="true" height="110" width="160"/>
      </node>
      <node id="F">
        <name>F</name>
        <interior color="e5f6f7"/>
        <outline color="000080"/>
        <font bold="true" color="000080" name="Arial" size="10"/>
        <position>100 100 100 100</position>
        <barchart active="true" height="110" width="160"/>
      </node>
      <node id="M">
        <name>M</name>
        <interior color="e5f6f7"/>
        <outline color="000080"/>
        <font bold="true" color="000080" name="Arial" size="10"/>
        <position>100 100 100 100</position>
        <barchart active="true" height="110" width="160"/>
      </node>
      <node id="T">
        <name>T</name>
        <interior color="e5f6f7"/>
        <outline color="000080"/>
        <font bold="true" color="000080" name="Arial" size="10"/>
        <position>100 100 100 100</position>
        <barchart active="true" height="110" width="160"/>
      </node>
      <node id="class">
        <name>class</name>
        <interior color="e5f6f7"/>
        <outline color="000080"/>
        <font bold="true" color="000080" name="Arial" size="10"/>
        <position>100 100 100 100</position>
        <barchart active="true" height="110" width="160"/>
      </node>
      <node id="LV_302">
        <name>LV_302</name>
        <interior color="e5f6f7"/>
        <outline color="000080"/>
        <font bold="true" color="000080" name="Arial" size="10"/>
        <position>100 100 100 100</position>
        <barchart active="true" height="110" width="160"/>
      </node>
      <node id="LV_313">
        <name>LV_313</name>
        <interior color="e5f6f7"/>
        <outline color="000080"/>
        <font bold="true" color="000080" name="Arial" size="10"/>
        <position>100 100 100 100</position>
        <barchart active="true" height="110" width="160"/>
      </node>
    </genie>
  </extensions>
</smile>
