<?xml version="1.0" encoding="ISO-8859-1" standalone="no"?>
<smile discsamples="10000" id="DAG" numsamples="10000" version="1.0">
  <nodes>
    <equation id="age">
      <definition lower="24.0" upper="89.0">age=Normal(56.050016265452186,237.04540012985908)</definition>
      <discretization>
        <interval upper="30.5"/>
        <interval upper="37.0"/>
        <interval upper="43.5"/>
        <interval upper="50.0"/>
        <interval upper="56.5"/>
        <interval upper="63.0"/>
        <interval upper="69.5"/>
        <interval upper="76.0"/>
        <interval upper="82.5"/>
        <interval upper="89.0"/>
      </discretization>
    </equation>
    <equation id="bmi">
      <definition lower="18.37" upper="38.57875854">bmi=Normal(28.127251997428445,24.312838614055472)</definition>
      <discretization>
        <interval upper="20.390875854"/>
        <interval upper="22.411751708"/>
        <interval upper="24.432627562"/>
        <interval upper="26.453503416"/>
        <interval upper="28.47437927"/>
        <interval upper="30.495255124"/>
        <interval upper="32.516130978"/>
        <interval upper="34.537006832"/>
        <interval upper="36.557882686000006"/>
        <interval upper="38.57875854000001"/>
      </discretization>
    </equation>
    <equation id="glucose">
      <definition lower="60.0" upper="201.0">glucose=Normal(98.81880286271958,527.7074083261343)</definition>
      <discretization>
        <interval upper="74.1"/>
        <interval upper="88.19999999999999"/>
        <interval upper="102.29999999999998"/>
        <interval upper="116.39999999999998"/>
        <interval upper="130.49999999999997"/>
        <interval upper="144.59999999999997"/>
        <interval upper="158.69999999999996"/>
        <interval upper="172.79999999999995"/>
        <interval upper="186.89999999999995"/>
        <interval upper="200.99999999999994"/>
      </discretization>
    </equation>
    <equation id="leptin">
      <definition lower="4.311" upper="90.28">leptin=Normal(28.372814907286916,367.6588141894301)</definition>
      <discretization>
        <interval upper="12.9079"/>
        <interval upper="21.5048"/>
        <interval upper="30.1017"/>
        <interval upper="38.6986"/>
        <interval upper="47.2955"/>
        <interval upper="55.892399999999995"/>
        <interval upper="64.4893"/>
        <interval upper="73.0862"/>
        <interval upper="81.68310000000001"/>
        <interval upper="90.28000000000002"/>
      </discretization>
    </equation>
    <equation id="adiponectin">
      <definition lower="1.65602" upper="38.04">adiponectin=Normal(10.13246300910865,48.75240775547821)</definition>
      <discretization>
        <interval upper="5.294418"/>
        <interval upper="8.932816"/>
        <interval upper="12.571214000000001"/>
        <interval upper="16.209612"/>
        <interval upper="19.84801"/>
        <interval upper="23.486407999999997"/>
        <interval upper="27.124805999999996"/>
        <interval upper="30.763203999999995"/>
        <interval upper="34.401602"/>
        <interval upper="38.04"/>
      </discretization>
    </equation>
    <equation id="resistin">
      <definition lower="3.21" upper="82.1">resistin=Normal(15.373631659076116,162.71749819017052)</definition>
      <discretization>
        <interval upper="11.099"/>
        <interval upper="18.988"/>
        <interval upper="26.877"/>
        <interval upper="34.766"/>
        <interval upper="42.655"/>
        <interval upper="50.544000000000004"/>
        <interval upper="58.43300000000001"/>
        <interval upper="66.322"/>
        <interval upper="74.211"/>
        <interval upper="82.1"/>
      </discretization>
    </equation>
    <equation id="mcp_1">
      <definition lower="45.843" upper="1698.44">mcp_1=Normal(533.3397924528302,120997.05709917562)</definition>
      <discretization>
        <interval upper="211.10270000000003"/>
        <interval upper="376.36240000000004"/>
        <interval upper="541.6221"/>
        <interval upper="706.8818000000001"/>
        <interval upper="872.1415000000002"/>
        <interval upper="1037.4012000000002"/>
        <interval upper="1202.6609000000003"/>
        <interval upper="1367.9206000000004"/>
        <interval upper="1533.1803000000004"/>
        <interval upper="1698.4400000000005"/>
      </discretization>
    </equation>
    <cpt id="LV_121">
      <state id="0"/>
      <state id="1"/>
      <probabilities>0.26784865743460146 0.7321513425653985 </probabilities>
    </cpt>
    <equation id="homa">
      <parents>LV_121</parents>
      <definition lower="0.507936" upper="25.05034187">homa=Choose(LV_121,Normal(7.007960038642774,28.071082525205043),Normal(1.4451940116247082,0.5576373179716438))</definition>
      <discretization>
        <interval upper="2.962176587"/>
        <interval upper="5.416417174"/>
        <interval upper="7.870657761"/>
        <interval upper="10.324898348000001"/>
        <interval upper="12.779138935000002"/>
        <interval upper="15.233379522000003"/>
        <interval upper="17.687620109000004"/>
        <interval upper="20.141860696000006"/>
        <interval upper="22.596101283000007"/>
        <interval upper="25.050341870000008"/>
      </discretization>
    </equation>
    <equation id="insulin">
      <parents>homa</parents>
      <definition lower="2.432" upper="58.46">insulin=Choose(homa)</definition>
      <discretization>
        <interval upper="8.0348"/>
        <interval upper="13.6376"/>
        <interval upper="19.2404"/>
        <interval upper="24.843200000000003"/>
        <interval upper="30.446000000000005"/>
        <interval upper="36.04880000000001"/>
        <interval upper="41.65160000000001"/>
        <interval upper="47.25440000000001"/>
        <interval upper="52.85720000000001"/>
        <interval upper="58.460000000000015"/>
      </discretization>
    </equation>
    <cpt id="class">
      <state id="0"/>
      <state id="1"/>
      <parents>LV_121</parents>
      <probabilities>0.1948498201655912 0.8051501798344087 0.4757875601386331 0.5242124398613669 </probabilities>
    </cpt>
  </nodes>
  <extensions>
    <genie app="GeNIe 2.3.3705.0 ACADEMIC" faultnameformat="nodestate" name="DAG" version="1.0">
      <node id="age">
        <name>age</name>
        <interior color="e5f6f7"/>
        <outline color="000080"/>
        <font bold="true" color="000080" name="Arial" size="10"/>
        <position>100 100 100 100</position>
        <barchart active="true" height="110" width="160"/>
      </node>
      <node id="bmi">
        <name>bmi</name>
        <interior color="e5f6f7"/>
        <outline color="000080"/>
        <font bold="true" color="000080" name="Arial" size="10"/>
        <position>100 100 100 100</position>
        <barchart active="true" height="110" width="160"/>
      </node>
      <node id="glucose">
        <name>glucose</name>
        <interior color="e5f6f7"/>
        <outline color="000080"/>
        <font bold="true" color="000080" name="Arial" size="10"/>
        <position>100 100 100 100</position>
        <barchart active="true" height="110" width="160"/>
      </node>
      <node id="insulin">
        <name>insulin</name>
        <interior color="e5f6f7"/>
        <outline color="000080"/>
        <font bold="true" color="000080" name="Arial" size="10"/>
        <position>100 100 100 100</position>
        <barchart active="true" height="110" width="160"/>
      </node>
      <node id="homa">
        <name>homa</name>
        <interior color="e5f6f7"/>
        <outline color="000080"/>
        <font bold="true" color="000080" name="Arial" size="10"/>
        <position>100 100 100 100</position>
        <barchart active="true" height="110" width="160"/>
      </node>
      <node id="leptin">
        <name>leptin</name>
        <interior color="e5f6f7"/>
        <outline color="000080"/>
        <font bold="true" color="000080" name="Arial" size="10"/>
        <position>100 100 100 100</position>
        <barchart active="true" height="110" width="160"/>
      </node>
      <node id="adiponectin">
        <name>adiponectin</name>
        <interior color="e5f6f7"/>
        <outline color="000080"/>
        <font bold="true" color="000080" name="Arial" size="10"/>
        <position>100 100 100 100</position>
        <barchart active="true" height="110" width="160"/>
      </node>
      <node id="resistin">
        <name>resistin</name>
        <interior color="e5f6f7"/>
        <outline color="000080"/>
        <font bold="true" color="000080" name="Arial" size="10"/>
        <position>100 100 100 100</position>
        <barchart active="true" height="110" width="160"/>
      </node>
      <node id="mcp_1">
        <name>mcp_1</name>
        <interior color="e5f6f7"/>
        <outline color="000080"/>
        <font bold="true" color="000080" name="Arial" size="10"/>
        <position>100 100 100 100</position>
        <barchart active="true" height="110" width="160"/>
      </node>
      <node id="class">
        <name>class</name>
        <interior color="e5f6f7"/>
        <outline color="000080"/>
        <font bold="true" color="000080" name="Arial" size="10"/>
        <position>100 100 100 100</position>
        <barchart active="true" height="110" width="160"/>
      </node>
      <node id="LV_121">
        <name>LV_121</name>
        <interior color="e5f6f7"/>
        <outline color="000080"/>
        <font bold="true" color="000080" name="Arial" size="10"/>
        <position>100 100 100 100</position>
        <barchart active="true" height="110" width="160"/>
      </node>
    </genie>
  </extensions>
</smile>
