<?xml version="1.0" encoding="ISO-8859-1" standalone="no"?>
<smile discsamples="10000" id="DAG" numsamples="10000" version="1.0">
  <nodes>
    <cpt id="ClustVar">
      <state id="0"/>
      <state id="1"/>
      <state id="2"/>
      <probabilities>0.011014783266208358 0.7133295151987041 0.27565570153508756 </probabilities>
    </cpt>
    <equation id="x">
      <parents>ClustVar</parents>
      <definition lower="1.0" upper="9.0">x=Choose(ClustVar,Normal(4.237225071549278,3.4498576705709616),Normal(4.433536672623778,5.7533336817862475),Normal(5.126772659686051,4.02984781198593))</definition>
      <discretization>
        <interval upper="1.8"/>
        <interval upper="2.6"/>
        <interval upper="3.4000000000000004"/>
        <interval upper="4.2"/>
        <interval upper="5.0"/>
        <interval upper="5.8"/>
        <interval upper="6.6"/>
        <interval upper="7.3999999999999995"/>
        <interval upper="8.2"/>
        <interval upper="9.0"/>
      </discretization>
    </equation>
    <equation id="y">
      <parents>ClustVar</parents>
      <definition lower="2.0" upper="9.0">y=Choose(ClustVar,Normal(4.057933019394038,0.8766776462315218),Normal(4.213593117574352,1.5292652823268096),Normal(4.549570437989017,1.5291875670064456))</definition>
      <discretization>
        <interval upper="2.7"/>
        <interval upper="3.4000000000000004"/>
        <interval upper="4.1000000000000005"/>
        <interval upper="4.800000000000001"/>
        <interval upper="5.500000000000001"/>
        <interval upper="6.200000000000001"/>
        <interval upper="6.900000000000001"/>
        <interval upper="7.600000000000001"/>
        <interval upper="8.3"/>
        <interval upper="9.0"/>
      </discretization>
    </equation>
    <cpt id="month">
      <state id="0"/>
      <state id="1"/>
      <state id="2"/>
      <state id="3"/>
      <state id="4"/>
      <state id="5"/>
      <state id="6"/>
      <state id="7"/>
      <state id="8"/>
      <state id="9"/>
      <state id="10"/>
      <state id="11"/>
      <parents>ClustVar</parents>
      <probabilities>0.12551980744057611 0.1552837413773786 0.06289925268423663 0.12707919027469972 0.06208237927275304 0.06558326532667597 0.0638328222973609 0.06815061598586084 0.06208237927275304 0.061965683071112526 0.06359942989407973 0.08192143310251299 0.0029304814766199644 0.4461515169698072 0.0029304814766199644 0.0029902872210407798 0.0028924232756249 0.07862621889979524 0.019421262150298744 0.0031751413402561976 0.0028924232756249 0.002886986389768462 0.0029631027917595676 0.4321396747327839 0.04255216692843962 0.0808635004824738 0.07100091929917351 0.1418816123274767 0.021300275789752052 0.0410113679755533 0.08727580588339455 0.34798487903566255 0.021300275789752052 0.014200183859834703 0.09942807981857604 0.0312009328099111 </probabilities>
    </cpt>
    <cpt id="day">
      <state id="0"/>
      <state id="1"/>
      <state id="2"/>
      <state id="3"/>
      <state id="4"/>
      <state id="5"/>
      <state id="6"/>
      <parents>ClustVar</parents>
      <probabilities>0.10397022255489846 0.10207495862833986 0.1037804189424998 0.391278185236716 0.09985930447933054 0.10037057740878305 0.09866633274943218 0.16694241067833404 0.13484397703610265 0.16474757154416064 0.16619937128463766 0.1414872053827277 0.12571943683170686 0.10006002724233047 0.18454448449885863 0.18423671237142078 0.13861494094391516 0.18523752763336415 0.07898180035034764 0.14080651600243219 0.0875780181996615 </probabilities>
    </cpt>
    <equation id="ffmc">
      <parents>ClustVar</parents>
      <definition lower="18.7" upper="96.2">ffmc=Choose(ClustVar,Normal(86.87350139122134,23.35772428557054),Normal(92.18286758104895,3.2882039629969695),Normal(86.50135697847,86.49986681364888))</definition>
      <discretization>
        <interval upper="26.45"/>
        <interval upper="34.2"/>
        <interval upper="41.95"/>
        <interval upper="49.7"/>
        <interval upper="57.45"/>
        <interval upper="65.2"/>
        <interval upper="72.95"/>
        <interval upper="80.7"/>
        <interval upper="88.45"/>
        <interval upper="96.2"/>
      </discretization>
    </equation>
    <equation id="dmc">
      <parents>ClustVar</parents>
      <definition lower="1.1" upper="291.3">dmc=Choose(ClustVar,Normal(47.86520979707118,2574.4963285993585),Normal(137.923916277787,2847.012972686606),Normal(43.12495838517782,1524.404404364593))</definition>
      <discretization>
        <interval upper="30.12"/>
        <interval upper="59.14"/>
        <interval upper="88.16"/>
        <interval upper="117.17999999999999"/>
        <interval upper="146.2"/>
        <interval upper="175.22"/>
        <interval upper="204.24"/>
        <interval upper="233.26000000000002"/>
        <interval upper="262.28000000000003"/>
        <interval upper="291.3"/>
      </discretization>
    </equation>
    <equation id="dc">
      <parents>ClustVar</parents>
      <definition lower="7.9" upper="860.6">dc=Choose(ClustVar,Normal(334.36221693007644,97566.3003658797),Normal(668.5335956735609,11283.715414535058),Normal(239.8613299485243,59311.88773169021))</definition>
      <discretization>
        <interval upper="93.17000000000002"/>
        <interval upper="178.44000000000003"/>
        <interval upper="263.71000000000004"/>
        <interval upper="348.98"/>
        <interval upper="434.25"/>
        <interval upper="519.52"/>
        <interval upper="604.79"/>
        <interval upper="690.06"/>
        <interval upper="775.3299999999999"/>
        <interval upper="860.5999999999999"/>
      </discretization>
    </equation>
    <equation id="isi">
      <parents>ClustVar</parents>
      <definition lower="0.0" upper="56.1">isi=Choose(ClustVar,Normal(6.510608514840748,22.647921075973557),Normal(9.907329262975342,13.297685820125299),Normal(6.505490439966395,32.864327276778965))</definition>
      <discretization>
        <interval upper="5.61"/>
        <interval upper="11.22"/>
        <interval upper="16.830000000000002"/>
        <interval upper="22.44"/>
        <interval upper="28.05"/>
        <interval upper="33.660000000000004"/>
        <interval upper="39.27"/>
        <interval upper="44.88"/>
        <interval upper="50.49"/>
        <interval upper="56.1"/>
      </discretization>
    </equation>
    <equation id="temp">
      <parents>ClustVar</parents>
      <definition lower="2.2" upper="33.3">temp=Choose(ClustVar,Normal(16.4336946514171,30.855326414973),Normal(20.844916151472596,20.795678230144595),Normal(13.655084161555552,33.427978014404985))</definition>
      <discretization>
        <interval upper="5.3100000000000005"/>
        <interval upper="8.42"/>
        <interval upper="11.53"/>
        <interval upper="14.639999999999999"/>
        <interval upper="17.75"/>
        <interval upper="20.86"/>
        <interval upper="23.97"/>
        <interval upper="27.08"/>
        <interval upper="30.189999999999998"/>
        <interval upper="33.3"/>
      </discretization>
    </equation>
    <equation id="rh">
      <parents>ClustVar</parents>
      <definition lower="15.0" upper="100.0">rh=Choose(ClustVar,Normal(52.55005600476291,290.3439547014747),Normal(43.48468918401555,216.21143981993183),Normal(46.67949771008103,372.3887108431305))</definition>
      <discretization>
        <interval upper="23.5"/>
        <interval upper="32.0"/>
        <interval upper="40.5"/>
        <interval upper="49.0"/>
        <interval upper="57.5"/>
        <interval upper="66.0"/>
        <interval upper="74.5"/>
        <interval upper="83.0"/>
        <interval upper="91.5"/>
        <interval upper="100.0"/>
      </discretization>
    </equation>
    <equation id="wind">
      <parents>ClustVar</parents>
      <definition lower="0.4" upper="9.4">wind=Choose(ClustVar,Normal(5.2263681615873026,8.329418240266659),Normal(3.7529215597256185,2.556292107224887),Normal(4.715249136287695,4.18639488785197))</definition>
      <discretization>
        <interval upper="1.3"/>
        <interval upper="2.2"/>
        <interval upper="3.1"/>
        <interval upper="4.0"/>
        <interval upper="4.9"/>
        <interval upper="5.800000000000001"/>
        <interval upper="6.700000000000001"/>
        <interval upper="7.600000000000001"/>
        <interval upper="8.500000000000002"/>
        <interval upper="9.400000000000002"/>
      </discretization>
    </equation>
    <equation id="rain">
      <parents>ClustVar</parents>
      <definition lower="0.0" upper="6.4">rain=Choose(ClustVar,Normal(0.00515932793261848,0.020905111159778555),Normal(6.453377856834724E-5,2.6181859415443266E-4),Normal(0.0791705001228293,0.33861675812939274))</definition>
      <discretization>
        <interval upper="0.64"/>
        <interval upper="1.28"/>
        <interval upper="1.92"/>
        <interval upper="2.56"/>
        <interval upper="3.2"/>
        <interval upper="3.8400000000000003"/>
        <interval upper="4.48"/>
        <interval upper="5.12"/>
        <interval upper="5.76"/>
        <interval upper="6.3999999999999995"/>
      </discretization>
    </equation>
    <equation id="area">
      <parents>ClustVar</parents>
      <definition lower="0.0" upper="1090.84">area=Choose(ClustVar,Normal(43.24839366648298,1366.0359200556077),Normal(8.773178067433275,2169.5982967383056),Normal(3.2197575347354475,67.33957203064809))</definition>
      <discretization>
        <interval upper="109.08399999999999"/>
        <interval upper="218.16799999999998"/>
        <interval upper="327.25199999999995"/>
        <interval upper="436.33599999999996"/>
        <interval upper="545.42"/>
        <interval upper="654.5039999999999"/>
        <interval upper="763.5879999999999"/>
        <interval upper="872.6719999999998"/>
        <interval upper="981.7559999999997"/>
        <interval upper="1090.8399999999997"/>
      </discretization>
    </equation>
  </nodes>
  <extensions>
    <genie app="GeNIe 2.3.3705.0 ACADEMIC" faultnameformat="nodestate" name="DAG" version="1.0">
      <node id="x">
        <name>x</name>
        <interior color="e5f6f7"/>
        <outline color="000080"/>
        <font bold="true" color="000080" name="Arial" size="10"/>
        <position>100 100 100 100</position>
        <barchart active="true" height="110" width="160"/>
      </node>
      <node id="y">
        <name>y</name>
        <interior color="e5f6f7"/>
        <outline color="000080"/>
        <font bold="true" color="000080" name="Arial" size="10"/>
        <position>100 100 100 100</position>
        <barchart active="true" height="110" width="160"/>
      </node>
      <node id="month">
        <name>month</name>
        <interior color="e5f6f7"/>
        <outline color="000080"/>
        <font bold="true" color="000080" name="Arial" size="10"/>
        <position>100 100 100 100</position>
        <barchart active="true" height="110" width="160"/>
      </node>
      <node id="day">
        <name>day</name>
        <interior color="e5f6f7"/>
        <outline color="000080"/>
        <font bold="true" color="000080" name="Arial" size="10"/>
        <position>100 100 100 100</position>
        <barchart active="true" height="110" width="160"/>
      </node>
      <node id="ffmc">
        <name>ffmc</name>
        <interior color="e5f6f7"/>
        <outline color="000080"/>
        <font bold="true" color="000080" name="Arial" size="10"/>
        <position>100 100 100 100</position>
        <barchart active="true" height="110" width="160"/>
      </node>
      <node id="dmc">
        <name>dmc</name>
        <interior color="e5f6f7"/>
        <outline color="000080"/>
        <font bold="true" color="000080" name="Arial" size="10"/>
        <position>100 100 100 100</position>
        <barchart active="true" height="110" width="160"/>
      </node>
      <node id="dc">
        <name>dc</name>
        <interior color="e5f6f7"/>
        <outline color="000080"/>
        <font bold="true" color="000080" name="Arial" size="10"/>
        <position>100 100 100 100</position>
        <barchart active="true" height="110" width="160"/>
      </node>
      <node id="isi">
        <name>isi</name>
        <interior color="e5f6f7"/>
        <outline color="000080"/>
        <font bold="true" color="000080" name="Arial" size="10"/>
        <position>100 100 100 100</position>
        <barchart active="true" height="110" width="160"/>
      </node>
      <node id="temp">
        <name>temp</name>
        <interior color="e5f6f7"/>
        <outline color="000080"/>
        <font bold="true" color="000080" name="Arial" size="10"/>
        <position>100 100 100 100</position>
        <barchart active="true" height="110" width="160"/>
      </node>
      <node id="rh">
        <name>rh</name>
        <interior color="e5f6f7"/>
        <outline color="000080"/>
        <font bold="true" color="000080" name="Arial" size="10"/>
        <position>100 100 100 100</position>
        <barchart active="true" height="110" width="160"/>
      </node>
      <node id="wind">
        <name>wind</name>
        <interior color="e5f6f7"/>
        <outline color="000080"/>
        <font bold="true" color="000080" name="Arial" size="10"/>
        <position>100 100 100 100</position>
        <barchart active="true" height="110" width="160"/>
      </node>
      <node id="rain">
        <name>rain</name>
        <interior color="e5f6f7"/>
        <outline color="000080"/>
        <font bold="true" color="000080" name="Arial" size="10"/>
        <position>100 100 100 100</position>
        <barchart active="true" height="110" width="160"/>
      </node>
      <node id="area">
        <name>area</name>
        <interior color="e5f6f7"/>
        <outline color="000080"/>
        <font bold="true" color="000080" name="Arial" size="10"/>
        <position>100 100 100 100</position>
        <barchart active="true" height="110" width="160"/>
      </node>
      <node id="ClustVar">
        <name>ClustVar</name>
        <interior color="e5f6f7"/>
        <outline color="000080"/>
        <font bold="true" color="000080" name="Arial" size="10"/>
        <position>100 100 100 100</position>
        <barchart active="true" height="110" width="160"/>
      </node>
    </genie>
  </extensions>
</smile>
