<?xml version="1.0" encoding="ISO-8859-1" standalone="no"?>
<smile discsamples="10000" id="DAG" numsamples="10000" version="1.0">
  <nodes>
    <cpt id="ClustVar">
      <state id="0"/>
      <state id="1"/>
      <state id="2"/>
      <state id="3"/>
      <probabilities>0.006424302957311825 0.1670029012204083 0.09569411490190537 0.7308786809203746 </probabilities>
    </cpt>
    <equation id="x">
      <parents>ClustVar</parents>
      <definition lower="1.0" upper="9.0">x=Choose(ClustVar,Normal(5.834457718112134,4.029927438130038),Normal(4.930760762503341,3.248244696884931),Normal(4.838057628329364,5.896940873927666),Normal(4.60159249462244,5.724335941757308))</definition>
      <discretization>
        <interval upper="1.8"/>
        <interval upper="2.6"/>
        <interval upper="3.4000000000000004"/>
        <interval upper="4.2"/>
        <interval upper="5.0"/>
        <interval upper="5.8"/>
        <interval upper="6.6"/>
        <interval upper="7.3999999999999995"/>
        <interval upper="8.2"/>
        <interval upper="9.0"/>
      </discretization>
    </equation>
    <equation id="y">
      <parents>ClustVar</parents>
      <definition lower="2.0" upper="9.0">y=Choose(ClustVar,Normal(4.1498890685262095,0.777309298951981),Normal(4.484348487128386,1.4875699066203714),Normal(4.669585745707536,2.2095565088257287),Normal(4.2390560308896434,1.3976208049889074))</definition>
      <discretization>
        <interval upper="2.7"/>
        <interval upper="3.4000000000000004"/>
        <interval upper="4.1000000000000005"/>
        <interval upper="4.800000000000001"/>
        <interval upper="5.500000000000001"/>
        <interval upper="6.200000000000001"/>
        <interval upper="6.900000000000001"/>
        <interval upper="7.600000000000001"/>
        <interval upper="8.3"/>
        <interval upper="9.0"/>
      </discretization>
    </equation>
    <cpt id="month">
      <state id="0"/>
      <state id="1"/>
      <state id="2"/>
      <state id="3"/>
      <state id="4"/>
      <state id="5"/>
      <state id="6"/>
      <state id="7"/>
      <state id="8"/>
      <state id="9"/>
      <state id="10"/>
      <state id="11"/>
      <parents>ClustVar</parents>
      <probabilities>0.0727780509101349 0.16783579327636078 0.0727780509101349 0.07426331725523969 0.07183288141779548 0.0758836078154058 0.07385824461566566 0.07885414050393902 0.07183288141779548 0.07169785720460414 0.07358819618928297 0.09479697848364121 0.09010980575819647 0.0262957913699775 0.011449595781156976 0.2027151995168433 0.011300899732051041 0.011938168574833253 0.011619534122992376 0.5855013089389907 0.011300899732051041 0.011279657439321623 0.011577049537533492 0.014912089496052315 0.018296267070433664 0.18736477334770812 0.1799076353864535 0.018669660275960037 0.05397229061593604 0.11394824492922885 0.055658878825626555 0.019823793617013512 0.036015471914156064 0.018024708375510717 0.01849993609162624 0.2798183395503467 0.0028919805769486704 0.38963087101826616 0.0028919805769486704 0.0029510005887231332 0.002854422387637649 0.06181613687095394 0.03397038345961058 0.003133426079707545 0.002854422387637649 0.0028490569320217887 0.045499063622494805 0.4486572554990493 </probabilities>
    </cpt>
    <cpt id="day">
      <state id="0"/>
      <state id="1"/>
      <state id="2"/>
      <state id="3"/>
      <state id="4"/>
      <state id="5"/>
      <state id="6"/>
      <parents>ClustVar</parents>
      <probabilities>0.12934476076239132 0.12701231459469914 0.129132816956177 0.24259090459521424 0.12425579180086432 0.12489190450227433 0.12277150678837974 0.21626438114072163 0.19220218553859186 0.18052326715971329 0.16875225121174464 0.09665777247106402 0.0729136793550651 0.07268646312309959 0.08611779492495625 0.14353252219574864 0.2224174838241726 0.19611084968645237 0.06249207553964831 0.16713353023835967 0.1221957435906623 0.16688629758072204 0.13823180398646662 0.1556208105899436 0.17688343634438988 0.12976196648781804 0.1174023792061978 0.11521330580446212 </probabilities>
    </cpt>
    <equation id="ffmc">
      <parents>ClustVar</parents>
      <definition lower="18.7" upper="96.2">ffmc=Choose(ClustVar,Normal(91.2224707213384,15.539180666592614),Normal(87.84916061060491,19.695297179225136),Normal(84.79259204954288,203.5814540207056),Normal(91.8850907214678,3.1084961462655847))</definition>
      <discretization>
        <interval upper="26.45"/>
        <interval upper="34.2"/>
        <interval upper="41.95"/>
        <interval upper="49.7"/>
        <interval upper="57.45"/>
        <interval upper="65.2"/>
        <interval upper="72.95"/>
        <interval upper="80.7"/>
        <interval upper="88.45"/>
        <interval upper="96.2"/>
      </discretization>
    </equation>
    <equation id="dmc">
      <parents>ClustVar</parents>
      <definition lower="1.1" upper="291.3">dmc=Choose(ClustVar,Normal(142.98810440748122,3078.3346963577),Normal(29.360955203726668,384.3493312550996),Normal(99.3390752060158,4590.539963180406),Normal(128.6618395559956,2935.952370984745))</definition>
      <discretization>
        <interval upper="30.12"/>
        <interval upper="59.14"/>
        <interval upper="88.16"/>
        <interval upper="117.17999999999999"/>
        <interval upper="146.2"/>
        <interval upper="175.22"/>
        <interval upper="204.24"/>
        <interval upper="233.26000000000002"/>
        <interval upper="262.28000000000003"/>
        <interval upper="291.3"/>
      </discretization>
    </equation>
    <equation id="dc">
      <parents>ClustVar</parents>
      <definition lower="7.9" upper="860.6">dc=Choose(ClustVar,Normal(624.3277904881196,36541.633192210844),Normal(78.69256903855567,5444.851494404652),Normal(505.2366513326656,42211.17209606224),Normal(664.7988747789702,12663.821927663495))</definition>
      <discretization>
        <interval upper="93.17000000000002"/>
        <interval upper="178.44000000000003"/>
        <interval upper="263.71000000000004"/>
        <interval upper="348.98"/>
        <interval upper="434.25"/>
        <interval upper="519.52"/>
        <interval upper="604.79"/>
        <interval upper="690.06"/>
        <interval upper="775.3299999999999"/>
        <interval upper="860.5999999999999"/>
      </discretization>
    </equation>
    <equation id="isi">
      <parents>ClustVar</parents>
      <definition lower="0.0" upper="56.1">isi=Choose(ClustVar,Normal(11.410580172000504,16.082145854130594),Normal(6.049049469485478,8.707074826091363),Normal(7.523199823439335,73.96174366407287),Normal(9.572049282277112,12.125222995981002))</definition>
      <discretization>
        <interval upper="5.61"/>
        <interval upper="11.22"/>
        <interval upper="16.830000000000002"/>
        <interval upper="22.44"/>
        <interval upper="28.05"/>
        <interval upper="33.660000000000004"/>
        <interval upper="39.27"/>
        <interval upper="44.88"/>
        <interval upper="50.49"/>
        <interval upper="56.1"/>
      </discretization>
    </equation>
    <equation id="temp">
      <parents>ClustVar</parents>
      <definition lower="2.2" upper="33.3">temp=Choose(ClustVar,Normal(20.394736080697587,19.091313121700395),Normal(12.512246622383783,13.753662825810922),Normal(16.020684535343083,67.43971516039984),Normal(20.05319943054609,16.439003580224295))</definition>
      <discretization>
        <interval upper="5.3100000000000005"/>
        <interval upper="8.42"/>
        <interval upper="11.53"/>
        <interval upper="14.639999999999999"/>
        <interval upper="17.75"/>
        <interval upper="20.86"/>
        <interval upper="23.97"/>
        <interval upper="27.08"/>
        <interval upper="30.189999999999998"/>
        <interval upper="33.3"/>
      </discretization>
    </equation>
    <equation id="rh">
      <parents>ClustVar</parents>
      <definition lower="15.0" upper="100.0">rh=Choose(ClustVar,Normal(58.64280390609495,338.9669885852725),Normal(44.53176794085488,308.22766149876674),Normal(47.54008874361678,535.594676539576),Normal(43.398391920761014,202.9522242130214))</definition>
      <discretization>
        <interval upper="23.5"/>
        <interval upper="32.0"/>
        <interval upper="40.5"/>
        <interval upper="49.0"/>
        <interval upper="57.5"/>
        <interval upper="66.0"/>
        <interval upper="74.5"/>
        <interval upper="83.0"/>
        <interval upper="91.5"/>
        <interval upper="100.0"/>
      </discretization>
    </equation>
    <equation id="wind">
      <parents>ClustVar</parents>
      <definition lower="0.4" upper="9.4">wind=Choose(ClustVar,Normal(5.808717057110928,4.810062450587169),Normal(4.56257408654063,3.785734738858244),Normal(4.704950000746399,4.503245837529581),Normal(3.688356143778062,2.5142001415811315))</definition>
      <discretization>
        <interval upper="1.3"/>
        <interval upper="2.2"/>
        <interval upper="3.1"/>
        <interval upper="4.0"/>
        <interval upper="4.9"/>
        <interval upper="5.800000000000001"/>
        <interval upper="6.700000000000001"/>
        <interval upper="7.600000000000001"/>
        <interval upper="8.500000000000002"/>
        <interval upper="9.400000000000002"/>
      </discretization>
    </equation>
    <equation id="rain">
      <parents>ClustVar</parents>
      <definition lower="0.0" upper="6.4">rain=Choose(ClustVar,Normal(0.5107935444914522,0.2829951445356795),Normal(0.002879106603107354,0.0016528497570568305),Normal(0.005073649598919572,0.002901567919808051),Normal(6.365603268397922E-5,2.582575662273616E-4))</definition>
      <discretization>
        <interval upper="0.64"/>
        <interval upper="1.28"/>
        <interval upper="1.92"/>
        <interval upper="2.56"/>
        <interval upper="3.2"/>
        <interval upper="3.8400000000000003"/>
        <interval upper="4.48"/>
        <interval upper="5.12"/>
        <interval upper="5.76"/>
        <interval upper="6.3999999999999995"/>
      </discretization>
    </equation>
    <equation id="area">
      <parents>ClustVar</parents>
      <definition lower="0.0" upper="1090.84">area=Choose(ClustVar,Normal(6.426984725722153,2063.3927165090627),Normal(4.712113519267755,150.9445800966203),Normal(93.71899620786928,38005.74108450836),Normal(4.004296338648794,73.60347263357284))</definition>
      <discretization>
        <interval upper="109.08399999999999"/>
        <interval upper="218.16799999999998"/>
        <interval upper="327.25199999999995"/>
        <interval upper="436.33599999999996"/>
        <interval upper="545.42"/>
        <interval upper="654.5039999999999"/>
        <interval upper="763.5879999999999"/>
        <interval upper="872.6719999999998"/>
        <interval upper="981.7559999999997"/>
        <interval upper="1090.8399999999997"/>
      </discretization>
    </equation>
  </nodes>
  <extensions>
    <genie app="GeNIe 2.3.3705.0 ACADEMIC" faultnameformat="nodestate" name="DAG" version="1.0">
      <node id="x">
        <name>x</name>
        <interior color="e5f6f7"/>
        <outline color="000080"/>
        <font bold="true" color="000080" name="Arial" size="10"/>
        <position>100 100 100 100</position>
        <barchart active="true" height="110" width="160"/>
      </node>
      <node id="y">
        <name>y</name>
        <interior color="e5f6f7"/>
        <outline color="000080"/>
        <font bold="true" color="000080" name="Arial" size="10"/>
        <position>100 100 100 100</position>
        <barchart active="true" height="110" width="160"/>
      </node>
      <node id="month">
        <name>month</name>
        <interior color="e5f6f7"/>
        <outline color="000080"/>
        <font bold="true" color="000080" name="Arial" size="10"/>
        <position>100 100 100 100</position>
        <barchart active="true" height="110" width="160"/>
      </node>
      <node id="day">
        <name>day</name>
        <interior color="e5f6f7"/>
        <outline color="000080"/>
        <font bold="true" color="000080" name="Arial" size="10"/>
        <position>100 100 100 100</position>
        <barchart active="true" height="110" width="160"/>
      </node>
      <node id="ffmc">
        <name>ffmc</name>
        <interior color="e5f6f7"/>
        <outline color="000080"/>
        <font bold="true" color="000080" name="Arial" size="10"/>
        <position>100 100 100 100</position>
        <barchart active="true" height="110" width="160"/>
      </node>
      <node id="dmc">
        <name>dmc</name>
        <interior color="e5f6f7"/>
        <outline color="000080"/>
        <font bold="true" color="000080" name="Arial" size="10"/>
        <position>100 100 100 100</position>
        <barchart active="true" height="110" width="160"/>
      </node>
      <node id="dc">
        <name>dc</name>
        <interior color="e5f6f7"/>
        <outline color="000080"/>
        <font bold="true" color="000080" name="Arial" size="10"/>
        <position>100 100 100 100</position>
        <barchart active="true" height="110" width="160"/>
      </node>
      <node id="isi">
        <name>isi</name>
        <interior color="e5f6f7"/>
        <outline color="000080"/>
        <font bold="true" color="000080" name="Arial" size="10"/>
        <position>100 100 100 100</position>
        <barchart active="true" height="110" width="160"/>
      </node>
      <node id="temp">
        <name>temp</name>
        <interior color="e5f6f7"/>
        <outline color="000080"/>
        <font bold="true" color="000080" name="Arial" size="10"/>
        <position>100 100 100 100</position>
        <barchart active="true" height="110" width="160"/>
      </node>
      <node id="rh">
        <name>rh</name>
        <interior color="e5f6f7"/>
        <outline color="000080"/>
        <font bold="true" color="000080" name="Arial" size="10"/>
        <position>100 100 100 100</position>
        <barchart active="true" height="110" width="160"/>
      </node>
      <node id="wind">
        <name>wind</name>
        <interior color="e5f6f7"/>
        <outline color="000080"/>
        <font bold="true" color="000080" name="Arial" size="10"/>
        <position>100 100 100 100</position>
        <barchart active="true" height="110" width="160"/>
      </node>
      <node id="rain">
        <name>rain</name>
        <interior color="e5f6f7"/>
        <outline color="000080"/>
        <font bold="true" color="000080" name="Arial" size="10"/>
        <position>100 100 100 100</position>
        <barchart active="true" height="110" width="160"/>
      </node>
      <node id="area">
        <name>area</name>
        <interior color="e5f6f7"/>
        <outline color="000080"/>
        <font bold="true" color="000080" name="Arial" size="10"/>
        <position>100 100 100 100</position>
        <barchart active="true" height="110" width="160"/>
      </node>
      <node id="ClustVar">
        <name>ClustVar</name>
        <interior color="e5f6f7"/>
        <outline color="000080"/>
        <font bold="true" color="000080" name="Arial" size="10"/>
        <position>100 100 100 100</position>
        <barchart active="true" height="110" width="160"/>
      </node>
    </genie>
  </extensions>
</smile>
