<?xml version="1.0" encoding="ISO-8859-1" standalone="no"?>
<smile discsamples="10000" id="DAG" numsamples="10000" version="1.0">
  <nodes>
    <equation id="age">
      <definition lower="30.0" upper="83.0">age=Normal(52.055803308086176,127.17934983073515)</definition>
      <discretization>
        <interval upper="35.3"/>
        <interval upper="40.599999999999994"/>
        <interval upper="45.89999999999999"/>
        <interval upper="51.19999999999999"/>
        <interval upper="56.499999999999986"/>
        <interval upper="61.79999999999998"/>
        <interval upper="67.09999999999998"/>
        <interval upper="72.39999999999998"/>
        <interval upper="77.69999999999997"/>
        <interval upper="82.99999999999997"/>
      </discretization>
    </equation>
    <equation id="year">
      <definition lower="58.0" upper="69.0">year=Normal(62.75759184540243,10.322269880930667)</definition>
      <discretization>
        <interval upper="59.1"/>
        <interval upper="60.2"/>
        <interval upper="61.300000000000004"/>
        <interval upper="62.400000000000006"/>
        <interval upper="63.50000000000001"/>
        <interval upper="64.60000000000001"/>
        <interval upper="65.7"/>
        <interval upper="66.8"/>
        <interval upper="67.89999999999999"/>
        <interval upper="68.99999999999999"/>
      </discretization>
    </equation>
    <cpt id="LV_116">
      <state id="0"/>
      <state id="1"/>
      <state id="2"/>
      <probabilities>0.434845942689665 0.2952822646011486 0.26987179270918643 </probabilities>
    </cpt>
    <equation id="nodes">
      <parents>LV_116</parents>
      <definition lower="0.0" upper="52.0">nodes=Choose(LV_116,Normal(2.8653539700731394E-13,0.016309680936230607),Normal(2.061807647369324,1.4546171941741441),Normal(12.825754359887027,86.53061669685245))</definition>
      <discretization>
        <interval upper="5.2"/>
        <interval upper="10.4"/>
        <interval upper="15.600000000000001"/>
        <interval upper="20.8"/>
        <interval upper="26.0"/>
        <interval upper="31.2"/>
        <interval upper="36.4"/>
        <interval upper="41.6"/>
        <interval upper="46.800000000000004"/>
        <interval upper="52.00000000000001"/>
      </discretization>
    </equation>
    <cpt id="class">
      <state id="0"/>
      <state id="1"/>
      <parents>LV_116</parents>
      <probabilities>0.8366520622491512 0.16334793775084874 0.760041233917403 0.23995876608259697 0.4983432483602236 0.5016567516397764 </probabilities>
    </cpt>
  </nodes>
  <extensions>
    <genie app="GeNIe 2.3.3705.0 ACADEMIC" faultnameformat="nodestate" name="DAG" version="1.0">
      <node id="age">
        <name>age</name>
        <interior color="e5f6f7"/>
        <outline color="000080"/>
        <font bold="true" color="000080" name="Arial" size="10"/>
        <position>100 100 100 100</position>
        <barchart active="true" height="110" width="160"/>
      </node>
      <node id="year">
        <name>year</name>
        <interior color="e5f6f7"/>
        <outline color="000080"/>
        <font bold="true" color="000080" name="Arial" size="10"/>
        <position>100 100 100 100</position>
        <barchart active="true" height="110" width="160"/>
      </node>
      <node id="nodes">
        <name>nodes</name>
        <interior color="e5f6f7"/>
        <outline color="000080"/>
        <font bold="true" color="000080" name="Arial" size="10"/>
        <position>100 100 100 100</position>
        <barchart active="true" height="110" width="160"/>
      </node>
      <node id="class">
        <name>class</name>
        <interior color="e5f6f7"/>
        <outline color="000080"/>
        <font bold="true" color="000080" name="Arial" size="10"/>
        <position>100 100 100 100</position>
        <barchart active="true" height="110" width="160"/>
      </node>
      <node id="LV_116">
        <name>LV_116</name>
        <interior color="e5f6f7"/>
        <outline color="000080"/>
        <font bold="true" color="000080" name="Arial" size="10"/>
        <position>100 100 100 100</position>
        <barchart active="true" height="110" width="160"/>
      </node>
    </genie>
  </extensions>
</smile>
