<?xml version="1.0" encoding="ISO-8859-1" standalone="no"?>
<smile discsamples="10000" id="DAG" numsamples="10000" version="1.0">
  <nodes>
    <equation id="wind">
      <definition lower="0.4" upper="9.4">wind=Normal(3.9820505386453746,2.9411855682773824)</definition>
      <discretization>
        <interval upper="1.3"/>
        <interval upper="2.2"/>
        <interval upper="3.1"/>
        <interval upper="4.0"/>
        <interval upper="4.9"/>
        <interval upper="5.800000000000001"/>
        <interval upper="6.700000000000001"/>
        <interval upper="7.600000000000001"/>
        <interval upper="8.500000000000002"/>
        <interval upper="9.400000000000002"/>
      </discretization>
    </equation>
    <cpt id="LV_494">
      <state id="0"/>
      <state id="1"/>
      <probabilities>0.017285967784314734 0.9827140322156853 </probabilities>
    </cpt>
    <cpt id="day">
      <state id="0"/>
      <state id="1"/>
      <state id="2"/>
      <state id="3"/>
      <state id="4"/>
      <state id="5"/>
      <state id="6"/>
      <parents>LV_494</parents>
      <probabilities>0.1509304534147527 0.09967527743001703 0.09967545839795335 0.14987231418121033 0.09967497928683376 0.30049698650701834 0.09967453078221448 0.1624110109047184 0.145595373701444 0.1582569169833639 0.1877790495747541 0.1287133184066168 0.10752331942634506 0.10972101100275788 </probabilities>
    </cpt>
    <equation id="rain">
      <parents>LV_494</parents>
      <definition lower="0.0" upper="6.4">rain=Choose(LV_494,Normal(1.7641315464383958,3.4834208988598263),Normal(4.2564595213476957E-4,0.0044147526094435036))</definition>
      <discretization>
        <interval upper="0.64"/>
        <interval upper="1.28"/>
        <interval upper="1.92"/>
        <interval upper="2.56"/>
        <interval upper="3.2"/>
        <interval upper="3.8400000000000003"/>
        <interval upper="4.48"/>
        <interval upper="5.12"/>
        <interval upper="5.76"/>
        <interval upper="6.3999999999999995"/>
      </discretization>
    </equation>
    <cpt id="LV_546">
      <state id="0"/>
      <state id="1"/>
      <probabilities>0.006382978723404255 0.9936170212765958 </probabilities>
    </cpt>
    <equation id="isi">
      <parents>LV_546</parents>
      <definition lower="0.0" upper="56.1">isi=Choose(LV_546,Normal(56.09999999439001,0.6666667715735457),Normal(8.953333333331413,15.9399514632576))</definition>
      <discretization>
        <interval upper="5.61"/>
        <interval upper="11.22"/>
        <interval upper="16.830000000000002"/>
        <interval upper="22.44"/>
        <interval upper="28.05"/>
        <interval upper="33.660000000000004"/>
        <interval upper="39.27"/>
        <interval upper="44.88"/>
        <interval upper="50.49"/>
        <interval upper="56.1"/>
      </discretization>
    </equation>
    <cpt id="LV_536">
      <state id="0"/>
      <state id="1"/>
      <parents>LV_546</parents>
      <probabilities>0.42432444007549286 0.5756755599245071 0.3239598594394322 0.6760401405605678 </probabilities>
    </cpt>
    <equation id="rh">
      <parents>LV_536</parents>
      <definition lower="15.0" upper="100.0">rh=Choose(LV_536,Normal(61.67474518149704,192.72185822808277),Normal(35.7001930879544,75.48851402555016))</definition>
      <discretization>
        <interval upper="23.5"/>
        <interval upper="32.0"/>
        <interval upper="40.5"/>
        <interval upper="49.0"/>
        <interval upper="57.5"/>
        <interval upper="66.0"/>
        <interval upper="74.5"/>
        <interval upper="83.0"/>
        <interval upper="91.5"/>
        <interval upper="100.0"/>
      </discretization>
    </equation>
    <cpt id="LV_516">
      <state id="0"/>
      <state id="1"/>
      <parents>LV_536</parents>
      <probabilities>0.5996232726370114 0.4003767273629887 0.9179565157922033 0.08204348420779664 </probabilities>
    </cpt>
    <equation id="ffmc">
      <parents>LV_516</parents>
      <definition lower="18.7" upper="96.2">ffmc=Choose(LV_516,Normal(92.19461705958318,2.8515133280643354),Normal(84.3346568744729,98.39069488137321))</definition>
      <discretization>
        <interval upper="26.45"/>
        <interval upper="34.2"/>
        <interval upper="41.95"/>
        <interval upper="49.7"/>
        <interval upper="57.45"/>
        <interval upper="65.2"/>
        <interval upper="72.95"/>
        <interval upper="80.7"/>
        <interval upper="88.45"/>
        <interval upper="96.2"/>
      </discretization>
    </equation>
    <equation id="temp">
      <parents>LV_516</parents>
      <definition lower="2.2" upper="33.3">temp=Choose(LV_516,Normal(20.415002577676656,21.86963757758308),Normal(13.286602915617609,28.61098646292508))</definition>
      <discretization>
        <interval upper="5.3100000000000005"/>
        <interval upper="8.42"/>
        <interval upper="11.53"/>
        <interval upper="14.639999999999999"/>
        <interval upper="17.75"/>
        <interval upper="20.86"/>
        <interval upper="23.97"/>
        <interval upper="27.08"/>
        <interval upper="30.189999999999998"/>
        <interval upper="33.3"/>
      </discretization>
    </equation>
    <cpt id="LV_557">
      <state id="0"/>
      <state id="1"/>
      <probabilities>0.565651301520315 0.4343486984796851 </probabilities>
    </cpt>
    <equation id="x">
      <parents>LV_557</parents>
      <definition lower="1.0" upper="9.0">x=Choose(LV_557,Normal(2.946079511873974,1.91053602484204),Normal(6.874602675257168,1.261907880432453))</definition>
      <discretization>
        <interval upper="1.8"/>
        <interval upper="2.6"/>
        <interval upper="3.4000000000000004"/>
        <interval upper="4.2"/>
        <interval upper="5.0"/>
        <interval upper="5.8"/>
        <interval upper="6.6"/>
        <interval upper="7.3999999999999995"/>
        <interval upper="8.2"/>
        <interval upper="9.0"/>
      </discretization>
    </equation>
    <equation id="y">
      <parents>LV_557</parents>
      <definition lower="2.0" upper="9.0">y=Choose(LV_557,Normal(3.7864089170135315,1.0404197063551721),Normal(4.892222437109516,1.5011069124062413))</definition>
      <discretization>
        <interval upper="2.7"/>
        <interval upper="3.4000000000000004"/>
        <interval upper="4.1000000000000005"/>
        <interval upper="4.800000000000001"/>
        <interval upper="5.500000000000001"/>
        <interval upper="6.200000000000001"/>
        <interval upper="6.900000000000001"/>
        <interval upper="7.600000000000001"/>
        <interval upper="8.3"/>
        <interval upper="9.0"/>
      </discretization>
    </equation>
    <cpt id="LV_506">
      <state id="0"/>
      <state id="1"/>
      <parents>LV_557</parents>
      <probabilities>0.1711404365311848 0.8288595634688152 0.2093610425593831 0.790638957440617 </probabilities>
    </cpt>
    <equation id="dmc">
      <parents>LV_506</parents>
      <definition lower="1.1" upper="291.3">dmc=Choose(LV_506,Normal(26.354498917366186,251.51845643979712),Normal(131.4024048566291,3075.112284205853))</definition>
      <discretization>
        <interval upper="30.12"/>
        <interval upper="59.14"/>
        <interval upper="88.16"/>
        <interval upper="117.17999999999999"/>
        <interval upper="146.2"/>
        <interval upper="175.22"/>
        <interval upper="204.24"/>
        <interval upper="233.26000000000002"/>
        <interval upper="262.28000000000003"/>
        <interval upper="291.3"/>
      </discretization>
    </equation>
    <equation id="dc">
      <parents>LV_506</parents>
      <definition lower="7.9" upper="860.6">dc=Choose(LV_506,Normal(67.1183155040312,910.5584706222422),Normal(668.2594471847717,11712.599421071378))</definition>
      <discretization>
        <interval upper="93.17000000000002"/>
        <interval upper="178.44000000000003"/>
        <interval upper="263.71000000000004"/>
        <interval upper="348.98"/>
        <interval upper="434.25"/>
        <interval upper="519.52"/>
        <interval upper="604.79"/>
        <interval upper="690.06"/>
        <interval upper="775.3299999999999"/>
        <interval upper="860.5999999999999"/>
      </discretization>
    </equation>
    <cpt id="LV_495">
      <state id="0"/>
      <state id="1"/>
      <state id="2"/>
      <parents>LV_506</parents>
      <probabilities>0.6026179305708307 0.2838450661002472 0.11353700332892212 0.4577400670149809 0.40681849614812016 0.13544143683689894 </probabilities>
    </cpt>
    <cpt id="month">
      <state id="0"/>
      <state id="1"/>
      <state id="2"/>
      <state id="3"/>
      <state id="4"/>
      <state id="5"/>
      <state id="6"/>
      <state id="7"/>
      <state id="8"/>
      <state id="9"/>
      <state id="10"/>
      <state id="11"/>
      <parents>LV_495</parents>
      <probabilities>0.027701309792022462 0.33720335370123516 0.0079370255184957 0.043480070118684315 0.015862692421793927 0.03931830979567181 0.015665867436409662 0.14648547853743335 0.0079370255184957 0.011896188972969268 0.04746343541283437 0.29904924277395434 0.02447417699560193 0.32922490894487116 0.009839192220961308 0.04420460521191471 0.009852662814735954 0.06899967632699247 0.03449495285394441 0.07802360278565888 0.00983919222097197 0.009850279518536651 0.024175635977871077 0.3570211141279394 0.036797276857489715 0.2430178389335659 0.02416985197248127 0.03695961151368639 0.02417135091454163 0.04914886502444143 0.03674680319126612 0.08735357724739146 0.03625477795869572 0.024171086694051977 0.04986051565331071 0.35134844403907745 </probabilities>
    </cpt>
    <equation id="area">
      <parents>LV_495</parents>
      <definition lower="0.0" upper="1090.84">area=Choose(LV_495,Normal(0.0024800033275136353,0.009237509643539494),Normal(5.235827127222964,18.681461577836146),Normal(91.86152454193301,27353.813614621293))</definition>
      <discretization>
        <interval upper="109.08399999999999"/>
        <interval upper="218.16799999999998"/>
        <interval upper="327.25199999999995"/>
        <interval upper="436.33599999999996"/>
        <interval upper="545.42"/>
        <interval upper="654.5039999999999"/>
        <interval upper="763.5879999999999"/>
        <interval upper="872.6719999999998"/>
        <interval upper="981.7559999999997"/>
        <interval upper="1090.8399999999997"/>
      </discretization>
    </equation>
  </nodes>
  <extensions>
    <genie app="GeNIe 2.3.3705.0 ACADEMIC" faultnameformat="nodestate" name="DAG" version="1.0">
      <node id="x">
        <name>x</name>
        <interior color="e5f6f7"/>
        <outline color="000080"/>
        <font bold="true" color="000080" name="Arial" size="10"/>
        <position>100 100 100 100</position>
        <barchart active="true" height="110" width="160"/>
      </node>
      <node id="y">
        <name>y</name>
        <interior color="e5f6f7"/>
        <outline color="000080"/>
        <font bold="true" color="000080" name="Arial" size="10"/>
        <position>100 100 100 100</position>
        <barchart active="true" height="110" width="160"/>
      </node>
      <node id="month">
        <name>month</name>
        <interior color="e5f6f7"/>
        <outline color="000080"/>
        <font bold="true" color="000080" name="Arial" size="10"/>
        <position>100 100 100 100</position>
        <barchart active="true" height="110" width="160"/>
      </node>
      <node id="day">
        <name>day</name>
        <interior color="e5f6f7"/>
        <outline color="000080"/>
        <font bold="true" color="000080" name="Arial" size="10"/>
        <position>100 100 100 100</position>
        <barchart active="true" height="110" width="160"/>
      </node>
      <node id="ffmc">
        <name>ffmc</name>
        <interior color="e5f6f7"/>
        <outline color="000080"/>
        <font bold="true" color="000080" name="Arial" size="10"/>
        <position>100 100 100 100</position>
        <barchart active="true" height="110" width="160"/>
      </node>
      <node id="dmc">
        <name>dmc</name>
        <interior color="e5f6f7"/>
        <outline color="000080"/>
        <font bold="true" color="000080" name="Arial" size="10"/>
        <position>100 100 100 100</position>
        <barchart active="true" height="110" width="160"/>
      </node>
      <node id="dc">
        <name>dc</name>
        <interior color="e5f6f7"/>
        <outline color="000080"/>
        <font bold="true" color="000080" name="Arial" size="10"/>
        <position>100 100 100 100</position>
        <barchart active="true" height="110" width="160"/>
      </node>
      <node id="isi">
        <name>isi</name>
        <interior color="e5f6f7"/>
        <outline color="000080"/>
        <font bold="true" color="000080" name="Arial" size="10"/>
        <position>100 100 100 100</position>
        <barchart active="true" height="110" width="160"/>
      </node>
      <node id="temp">
        <name>temp</name>
        <interior color="e5f6f7"/>
        <outline color="000080"/>
        <font bold="true" color="000080" name="Arial" size="10"/>
        <position>100 100 100 100</position>
        <barchart active="true" height="110" width="160"/>
      </node>
      <node id="rh">
        <name>rh</name>
        <interior color="e5f6f7"/>
        <outline color="000080"/>
        <font bold="true" color="000080" name="Arial" size="10"/>
        <position>100 100 100 100</position>
        <barchart active="true" height="110" width="160"/>
      </node>
      <node id="wind">
        <name>wind</name>
        <interior color="e5f6f7"/>
        <outline color="000080"/>
        <font bold="true" color="000080" name="Arial" size="10"/>
        <position>100 100 100 100</position>
        <barchart active="true" height="110" width="160"/>
      </node>
      <node id="rain">
        <name>rain</name>
        <interior color="e5f6f7"/>
        <outline color="000080"/>
        <font bold="true" color="000080" name="Arial" size="10"/>
        <position>100 100 100 100</position>
        <barchart active="true" height="110" width="160"/>
      </node>
      <node id="area">
        <name>area</name>
        <interior color="e5f6f7"/>
        <outline color="000080"/>
        <font bold="true" color="000080" name="Arial" size="10"/>
        <position>100 100 100 100</position>
        <barchart active="true" height="110" width="160"/>
      </node>
      <node id="LV_494">
        <name>LV_494</name>
        <interior color="e5f6f7"/>
        <outline color="000080"/>
        <font bold="true" color="000080" name="Arial" size="10"/>
        <position>100 100 100 100</position>
        <barchart active="true" height="110" width="160"/>
      </node>
      <node id="LV_495">
        <name>LV_495</name>
        <interior color="e5f6f7"/>
        <outline color="000080"/>
        <font bold="true" color="000080" name="Arial" size="10"/>
        <position>100 100 100 100</position>
        <barchart active="true" height="110" width="160"/>
      </node>
      <node id="LV_506">
        <name>LV_506</name>
        <interior color="e5f6f7"/>
        <outline color="000080"/>
        <font bold="true" color="000080" name="Arial" size="10"/>
        <position>100 100 100 100</position>
        <barchart active="true" height="110" width="160"/>
      </node>
      <node id="LV_516">
        <name>LV_516</name>
        <interior color="e5f6f7"/>
        <outline color="000080"/>
        <font bold="true" color="000080" name="Arial" size="10"/>
        <position>100 100 100 100</position>
        <barchart active="true" height="110" width="160"/>
      </node>
      <node id="LV_536">
        <name>LV_536</name>
        <interior color="e5f6f7"/>
        <outline color="000080"/>
        <font bold="true" color="000080" name="Arial" size="10"/>
        <position>100 100 100 100</position>
        <barchart active="true" height="110" width="160"/>
      </node>
      <node id="LV_546">
        <name>LV_546</name>
        <interior color="e5f6f7"/>
        <outline color="000080"/>
        <font bold="true" color="000080" name="Arial" size="10"/>
        <position>100 100 100 100</position>
        <barchart active="true" height="110" width="160"/>
      </node>
      <node id="LV_557">
        <name>LV_557</name>
        <interior color="e5f6f7"/>
        <outline color="000080"/>
        <font bold="true" color="000080" name="Arial" size="10"/>
        <position>100 100 100 100</position>
        <barchart active="true" height="110" width="160"/>
      </node>
    </genie>
  </extensions>
</smile>
