<?xml version="1.0" encoding="ISO-8859-1" standalone="no"?>
<smile discsamples="10000" id="DAG" numsamples="10000" version="1.0">
  <nodes>
    <equation id="wind">
      <definition lower="0.4" upper="9.4">wind=Normal(4.080337476546873,3.2819701295250874)</definition>
      <discretization>
        <interval upper="1.3"/>
        <interval upper="2.2"/>
        <interval upper="3.1"/>
        <interval upper="4.0"/>
        <interval upper="4.9"/>
        <interval upper="5.800000000000001"/>
        <interval upper="6.700000000000001"/>
        <interval upper="7.600000000000001"/>
        <interval upper="8.500000000000002"/>
        <interval upper="9.400000000000002"/>
      </discretization>
    </equation>
    <cpt id="LV_667">
      <state id="0"/>
      <state id="1"/>
      <probabilities>0.2514066401883124 0.7485933598116876 </probabilities>
    </cpt>
    <equation id="rh">
      <parents>LV_667</parents>
      <definition lower="15.0" upper="100.0">rh=Choose(LV_667,Normal(66.01286860315193,171.95641370501517),Normal(37.445441236412364,96.02634331164485))</definition>
      <discretization>
        <interval upper="23.5"/>
        <interval upper="32.0"/>
        <interval upper="40.5"/>
        <interval upper="49.0"/>
        <interval upper="57.5"/>
        <interval upper="66.0"/>
        <interval upper="74.5"/>
        <interval upper="83.0"/>
        <interval upper="91.5"/>
        <interval upper="100.0"/>
      </discretization>
    </equation>
    <equation id="temp">
      <parents>rh</parents>
      <definition lower="2.2" upper="33.3">temp=Choose(rh)</definition>
      <discretization>
        <interval upper="5.3100000000000005"/>
        <interval upper="8.42"/>
        <interval upper="11.53"/>
        <interval upper="14.639999999999999"/>
        <interval upper="17.75"/>
        <interval upper="20.86"/>
        <interval upper="23.97"/>
        <interval upper="27.08"/>
        <interval upper="30.189999999999998"/>
        <interval upper="33.3"/>
      </discretization>
    </equation>
    <cpt id="LV_589">
      <state id="0"/>
      <state id="1"/>
      <parents>LV_667</parents>
      <probabilities>0.9321997492048815 0.0678002507951185 0.994280670266749 0.0057193297332508875 </probabilities>
    </cpt>
    <cpt id="month">
      <state id="0"/>
      <state id="1"/>
      <state id="2"/>
      <state id="3"/>
      <state id="4"/>
      <state id="5"/>
      <state id="6"/>
      <state id="7"/>
      <state id="8"/>
      <state id="9"/>
      <state id="10"/>
      <state id="11"/>
      <parents>LV_589</parents>
      <probabilities>0.022727004622720662 0.37195006164544975 0.022728777016538425 0.04545730964158973 0.008237063318837988 0.07015809213740117 0.03926466580526726 0.1156754287704441 0.008251937096985481 0.006199836608615639 0.03513425717382576 0.2542155661623241 0.06642240117738962 0.26647241991530213 0.06639397834317091 0.06650234216969425 0.06677567517906542 0.06812766497907156 0.0663758181573881 0.06737785601465036 0.06653715317213114 0.06630071144443174 0.06632321140199991 0.06639076804570475 </probabilities>
    </cpt>
    <equation id="rain">
      <parents>LV_589</parents>
      <definition lower="0.0" upper="6.4">rain=Choose(LV_589,Normal(8.338049200104202E-4,0.004495953238134442),Normal(1.7529024662272326,3.4761981303822167))</definition>
      <discretization>
        <interval upper="0.64"/>
        <interval upper="1.28"/>
        <interval upper="1.92"/>
        <interval upper="2.56"/>
        <interval upper="3.2"/>
        <interval upper="3.8400000000000003"/>
        <interval upper="4.48"/>
        <interval upper="5.12"/>
        <interval upper="5.76"/>
        <interval upper="6.3999999999999995"/>
      </discretization>
    </equation>
    <cpt id="LV_676">
      <state id="0"/>
      <state id="1"/>
      <probabilities>0.7645553844956715 0.2354446155043284 </probabilities>
    </cpt>
    <cpt id="LV_630">
      <state id="0"/>
      <state id="1"/>
      <parents>LV_676</parents>
      <probabilities>0.5761838779541973 0.42381612204580255 0.555916913182412 0.444083086817588 </probabilities>
    </cpt>
    <equation id="x">
      <parents>LV_630</parents>
      <definition lower="1.0" upper="9.0">x=Choose(LV_630,Normal(2.976789872774269,1.8664137942806431),Normal(6.962367824706657,1.1932010928634653))</definition>
      <discretization>
        <interval upper="1.8"/>
        <interval upper="2.6"/>
        <interval upper="3.4000000000000004"/>
        <interval upper="4.2"/>
        <interval upper="5.0"/>
        <interval upper="5.8"/>
        <interval upper="6.6"/>
        <interval upper="7.3999999999999995"/>
        <interval upper="8.2"/>
        <interval upper="9.0"/>
      </discretization>
    </equation>
    <equation id="y">
      <parents>LV_630</parents>
      <definition lower="2.0" upper="9.0">y=Choose(LV_630,Normal(3.8485809565455655,1.1504852833600285),Normal(4.96099216951601,1.4796439673031356))</definition>
      <discretization>
        <interval upper="2.7"/>
        <interval upper="3.4000000000000004"/>
        <interval upper="4.1000000000000005"/>
        <interval upper="4.800000000000001"/>
        <interval upper="5.500000000000001"/>
        <interval upper="6.200000000000001"/>
        <interval upper="6.900000000000001"/>
        <interval upper="7.600000000000001"/>
        <interval upper="8.3"/>
        <interval upper="9.0"/>
      </discretization>
    </equation>
    <cpt id="LV_593">
      <state id="0"/>
      <state id="1"/>
      <parents>LV_630</parents>
      <probabilities>0.8407878819843783 0.15921211801562177 0.814481149962375 0.1855188500376251 </probabilities>
    </cpt>
    <equation id="ffmc">
      <parents>LV_593</parents>
      <definition lower="18.7" upper="96.2">ffmc=Choose(LV_593,Normal(92.14500533605427,3.1718730767384185),Normal(82.78737003519777,90.60069194845127))</definition>
      <discretization>
        <interval upper="26.45"/>
        <interval upper="34.2"/>
        <interval upper="41.95"/>
        <interval upper="49.7"/>
        <interval upper="57.45"/>
        <interval upper="65.2"/>
        <interval upper="72.95"/>
        <interval upper="80.7"/>
        <interval upper="88.45"/>
        <interval upper="96.2"/>
      </discretization>
    </equation>
    <equation id="dmc">
      <parents>LV_593</parents>
      <definition lower="1.1" upper="291.3">dmc=Choose(LV_593,Normal(127.60605808856509,3674.838385618057),Normal(28.852107420541287,477.29454928729257))</definition>
      <discretization>
        <interval upper="30.12"/>
        <interval upper="59.14"/>
        <interval upper="88.16"/>
        <interval upper="117.17999999999999"/>
        <interval upper="146.2"/>
        <interval upper="175.22"/>
        <interval upper="204.24"/>
        <interval upper="233.26000000000002"/>
        <interval upper="262.28000000000003"/>
        <interval upper="291.3"/>
      </discretization>
    </equation>
    <equation id="isi">
      <parents>LV_593</parents>
      <definition lower="0.0" upper="56.1">isi=Choose(LV_593,Normal(10.265961013786155,18.698054031473372),Normal(3.4552759374160495,2.804572813064908))</definition>
      <discretization>
        <interval upper="5.61"/>
        <interval upper="11.22"/>
        <interval upper="16.830000000000002"/>
        <interval upper="22.44"/>
        <interval upper="28.05"/>
        <interval upper="33.660000000000004"/>
        <interval upper="39.27"/>
        <interval upper="44.88"/>
        <interval upper="50.49"/>
        <interval upper="56.1"/>
      </discretization>
    </equation>
    <cpt id="LV_657">
      <state id="0"/>
      <state id="1"/>
      <state id="2"/>
      <parents>LV_676</parents>
      <probabilities>0.15247384996542315 0.18047003270952086 0.667056117325056 0.16782301689764814 0.2207372269272062 0.6114397561751456 </probabilities>
    </cpt>
    <equation id="dc">
      <parents>LV_657</parents>
      <definition lower="7.9" upper="860.6">dc=Choose(LV_657,Normal(401.4577628543295,10396.920028964088),Normal(65.3751750158819,856.4063009541754),Normal(681.8436748873264,4016.589978559425))</definition>
      <discretization>
        <interval upper="93.17000000000002"/>
        <interval upper="178.44000000000003"/>
        <interval upper="263.71000000000004"/>
        <interval upper="348.98"/>
        <interval upper="434.25"/>
        <interval upper="519.52"/>
        <interval upper="604.79"/>
        <interval upper="690.06"/>
        <interval upper="775.3299999999999"/>
        <interval upper="860.5999999999999"/>
      </discretization>
    </equation>
    <cpt id="LV_643">
      <state id="0"/>
      <state id="1"/>
      <state id="2"/>
      <parents>LV_657</parents>
      <probabilities>0.4525455648703139 0.1392469629355395 0.4082074721941466 0.2884634452052983 0.12220050303371914 0.5893360517609826 0.38401815964177216 0.13851426247615228 0.47746757788207556 </probabilities>
    </cpt>
    <cpt id="day">
      <state id="0"/>
      <state id="1"/>
      <state id="2"/>
      <state id="3"/>
      <state id="4"/>
      <state id="5"/>
      <state id="6"/>
      <parents>LV_643</parents>
      <probabilities>0.14582000434208378 0.13065730419644225 0.14546011664461553 0.1717558329442575 0.1212240365801004 0.1519654960707528 0.1331172092217478 0.15239112655010717 0.12744544690706341 0.19839036281769556 0.19937346168950928 0.07015971576075221 0.14047176249864016 0.11176812377623208 0.17219404409159583 0.13009387480502438 0.1627081160399314 0.19106924060699934 0.12194316598703994 0.12594849483993317 0.09604306362947604 </probabilities>
    </cpt>
    <equation id="area">
      <parents>LV_643</parents>
      <definition lower="0.0" upper="1090.84">area=Choose(LV_643,Normal(5.368082535827735,19.39806123194605),Normal(91.12791743604564,27062.462089812627),Normal(0.0032767504206138004,0.009306855612872478))</definition>
      <discretization>
        <interval upper="109.08399999999999"/>
        <interval upper="218.16799999999998"/>
        <interval upper="327.25199999999995"/>
        <interval upper="436.33599999999996"/>
        <interval upper="545.42"/>
        <interval upper="654.5039999999999"/>
        <interval upper="763.5879999999999"/>
        <interval upper="872.6719999999998"/>
        <interval upper="981.7559999999997"/>
        <interval upper="1090.8399999999997"/>
      </discretization>
    </equation>
  </nodes>
  <extensions>
    <genie app="GeNIe 2.3.3705.0 ACADEMIC" faultnameformat="nodestate" name="DAG" version="1.0">
      <node id="x">
        <name>x</name>
        <interior color="e5f6f7"/>
        <outline color="000080"/>
        <font bold="true" color="000080" name="Arial" size="10"/>
        <position>100 100 100 100</position>
        <barchart active="true" height="110" width="160"/>
      </node>
      <node id="y">
        <name>y</name>
        <interior color="e5f6f7"/>
        <outline color="000080"/>
        <font bold="true" color="000080" name="Arial" size="10"/>
        <position>100 100 100 100</position>
        <barchart active="true" height="110" width="160"/>
      </node>
      <node id="month">
        <name>month</name>
        <interior color="e5f6f7"/>
        <outline color="000080"/>
        <font bold="true" color="000080" name="Arial" size="10"/>
        <position>100 100 100 100</position>
        <barchart active="true" height="110" width="160"/>
      </node>
      <node id="day">
        <name>day</name>
        <interior color="e5f6f7"/>
        <outline color="000080"/>
        <font bold="true" color="000080" name="Arial" size="10"/>
        <position>100 100 100 100</position>
        <barchart active="true" height="110" width="160"/>
      </node>
      <node id="ffmc">
        <name>ffmc</name>
        <interior color="e5f6f7"/>
        <outline color="000080"/>
        <font bold="true" color="000080" name="Arial" size="10"/>
        <position>100 100 100 100</position>
        <barchart active="true" height="110" width="160"/>
      </node>
      <node id="dmc">
        <name>dmc</name>
        <interior color="e5f6f7"/>
        <outline color="000080"/>
        <font bold="true" color="000080" name="Arial" size="10"/>
        <position>100 100 100 100</position>
        <barchart active="true" height="110" width="160"/>
      </node>
      <node id="dc">
        <name>dc</name>
        <interior color="e5f6f7"/>
        <outline color="000080"/>
        <font bold="true" color="000080" name="Arial" size="10"/>
        <position>100 100 100 100</position>
        <barchart active="true" height="110" width="160"/>
      </node>
      <node id="isi">
        <name>isi</name>
        <interior color="e5f6f7"/>
        <outline color="000080"/>
        <font bold="true" color="000080" name="Arial" size="10"/>
        <position>100 100 100 100</position>
        <barchart active="true" height="110" width="160"/>
      </node>
      <node id="temp">
        <name>temp</name>
        <interior color="e5f6f7"/>
        <outline color="000080"/>
        <font bold="true" color="000080" name="Arial" size="10"/>
        <position>100 100 100 100</position>
        <barchart active="true" height="110" width="160"/>
      </node>
      <node id="rh">
        <name>rh</name>
        <interior color="e5f6f7"/>
        <outline color="000080"/>
        <font bold="true" color="000080" name="Arial" size="10"/>
        <position>100 100 100 100</position>
        <barchart active="true" height="110" width="160"/>
      </node>
      <node id="wind">
        <name>wind</name>
        <interior color="e5f6f7"/>
        <outline color="000080"/>
        <font bold="true" color="000080" name="Arial" size="10"/>
        <position>100 100 100 100</position>
        <barchart active="true" height="110" width="160"/>
      </node>
      <node id="rain">
        <name>rain</name>
        <interior color="e5f6f7"/>
        <outline color="000080"/>
        <font bold="true" color="000080" name="Arial" size="10"/>
        <position>100 100 100 100</position>
        <barchart active="true" height="110" width="160"/>
      </node>
      <node id="area">
        <name>area</name>
        <interior color="e5f6f7"/>
        <outline color="000080"/>
        <font bold="true" color="000080" name="Arial" size="10"/>
        <position>100 100 100 100</position>
        <barchart active="true" height="110" width="160"/>
      </node>
      <node id="LV_589">
        <name>LV_589</name>
        <interior color="e5f6f7"/>
        <outline color="000080"/>
        <font bold="true" color="000080" name="Arial" size="10"/>
        <position>100 100 100 100</position>
        <barchart active="true" height="110" width="160"/>
      </node>
      <node id="LV_593">
        <name>LV_593</name>
        <interior color="e5f6f7"/>
        <outline color="000080"/>
        <font bold="true" color="000080" name="Arial" size="10"/>
        <position>100 100 100 100</position>
        <barchart active="true" height="110" width="160"/>
      </node>
      <node id="LV_630">
        <name>LV_630</name>
        <interior color="e5f6f7"/>
        <outline color="000080"/>
        <font bold="true" color="000080" name="Arial" size="10"/>
        <position>100 100 100 100</position>
        <barchart active="true" height="110" width="160"/>
      </node>
      <node id="LV_643">
        <name>LV_643</name>
        <interior color="e5f6f7"/>
        <outline color="000080"/>
        <font bold="true" color="000080" name="Arial" size="10"/>
        <position>100 100 100 100</position>
        <barchart active="true" height="110" width="160"/>
      </node>
      <node id="LV_657">
        <name>LV_657</name>
        <interior color="e5f6f7"/>
        <outline color="000080"/>
        <font bold="true" color="000080" name="Arial" size="10"/>
        <position>100 100 100 100</position>
        <barchart active="true" height="110" width="160"/>
      </node>
      <node id="LV_667">
        <name>LV_667</name>
        <interior color="e5f6f7"/>
        <outline color="000080"/>
        <font bold="true" color="000080" name="Arial" size="10"/>
        <position>100 100 100 100</position>
        <barchart active="true" height="110" width="160"/>
      </node>
      <node id="LV_676">
        <name>LV_676</name>
        <interior color="e5f6f7"/>
        <outline color="000080"/>
        <font bold="true" color="000080" name="Arial" size="10"/>
        <position>100 100 100 100</position>
        <barchart active="true" height="110" width="160"/>
      </node>
    </genie>
  </extensions>
</smile>
