<?xml version="1.0" encoding="ISO-8859-1" standalone="no"?>
<smile discsamples="10000" id="DAG" numsamples="10000" version="1.0">
  <nodes>
    <cpt id="LV_717">
      <state id="0"/>
      <state id="1"/>
      <probabilities>0.24263288191011775 0.7573671180898822 </probabilities>
    </cpt>
    <equation id="rh">
      <parents>LV_717</parents>
      <definition lower="15.0" upper="100.0">rh=Choose(LV_717,Normal(65.7632266051034,168.76845120484168),Normal(36.84303793524446,92.55234666940468))</definition>
      <discretization>
        <interval upper="23.5"/>
        <interval upper="32.0"/>
        <interval upper="40.5"/>
        <interval upper="49.0"/>
        <interval upper="57.5"/>
        <interval upper="66.0"/>
        <interval upper="74.5"/>
        <interval upper="83.0"/>
        <interval upper="91.5"/>
        <interval upper="100.0"/>
      </discretization>
    </equation>
    <cpt id="LV_690">
      <state id="0"/>
      <state id="1"/>
      <parents>LV_717</parents>
      <probabilities>0.9296639559966015 0.07033604400339857 0.9943548438711015 0.005645156128898501 </probabilities>
    </cpt>
    <cpt id="month">
      <state id="0"/>
      <state id="1"/>
      <state id="2"/>
      <state id="3"/>
      <state id="4"/>
      <state id="5"/>
      <state id="6"/>
      <state id="7"/>
      <state id="8"/>
      <state id="9"/>
      <state id="10"/>
      <state id="11"/>
      <parents>LV_690</parents>
      <probabilities>0.022726932962284018 0.3388810686970847 0.022728347146016282 0.037192583659333436 0.006174830596474778 0.06601321121486853 0.03513106943913608 0.10947039025527765 0.008251516320284258 0.006199998597068275 0.03513494702309132 0.31209510408908064 0.06640661944783977 0.2664921438723788 0.0663839503525165 0.06644847046271019 0.0666782660667572 0.06830625300190642 0.06636222555549336 0.06746637954451616 0.06652131466663809 0.06627482782069721 0.0663000686247494 0.06635948058379688 </probabilities>
    </cpt>
    <equation id="rain">
      <parents>LV_690</parents>
      <definition lower="0.0" upper="6.4">rain=Choose(LV_690,Normal(8.298147910059949E-4,0.004495274602231465),Normal(1.7498850106925607,3.4748693246001383))</definition>
      <discretization>
        <interval upper="0.64"/>
        <interval upper="1.28"/>
        <interval upper="1.92"/>
        <interval upper="2.56"/>
        <interval upper="3.2"/>
        <interval upper="3.8400000000000003"/>
        <interval upper="4.48"/>
        <interval upper="5.12"/>
        <interval upper="5.76"/>
        <interval upper="6.3999999999999995"/>
      </discretization>
    </equation>
    <cpt id="LV_740">
      <state id="0"/>
      <state id="1"/>
      <probabilities>0.41620968141014164 0.5837903185898584 </probabilities>
    </cpt>
    <equation id="x">
      <parents>LV_740</parents>
      <definition lower="1.0" upper="9.0">x=Choose(LV_740,Normal(6.920535716126034,1.0870264463785204),Normal(2.9666334046629284,1.8551577213658352))</definition>
      <discretization>
        <interval upper="1.8"/>
        <interval upper="2.6"/>
        <interval upper="3.4000000000000004"/>
        <interval upper="4.2"/>
        <interval upper="5.0"/>
        <interval upper="5.8"/>
        <interval upper="6.6"/>
        <interval upper="7.3999999999999995"/>
        <interval upper="8.2"/>
        <interval upper="9.0"/>
      </discretization>
    </equation>
    <equation id="y">
      <parents>LV_740</parents>
      <definition lower="2.0" upper="9.0">y=Choose(LV_740,Normal(4.882631880488879,1.4722886271095241),Normal(3.846193985834043,1.0777444688128115))</definition>
      <discretization>
        <interval upper="2.7"/>
        <interval upper="3.4000000000000004"/>
        <interval upper="4.1000000000000005"/>
        <interval upper="4.800000000000001"/>
        <interval upper="5.500000000000001"/>
        <interval upper="6.200000000000001"/>
        <interval upper="6.900000000000001"/>
        <interval upper="7.600000000000001"/>
        <interval upper="8.3"/>
        <interval upper="9.0"/>
      </discretization>
    </equation>
    <cpt id="LV_703">
      <state id="0"/>
      <state id="1"/>
      <parents>LV_740</parents>
      <probabilities>0.17891618430420536 0.8210838156957947 0.1362862395697246 0.8637137604302754 </probabilities>
    </cpt>
    <cpt id="day">
      <state id="0"/>
      <state id="1"/>
      <state id="2"/>
      <state id="3"/>
      <state id="4"/>
      <state id="5"/>
      <state id="6"/>
      <parents>LV_703</parents>
      <probabilities>0.15530844287508838 0.23986997620897413 0.11982905923499493 0.1427319245974831 0.09124825241647404 0.18045961009445394 0.07055273457253153 0.15841721241837492 0.13403463877052157 0.1728843531058385 0.1877234467108476 0.12269380612145867 0.11197128633084752 0.11227525654211143 </probabilities>
    </cpt>
    <equation id="isi">
      <parents>LV_703</parents>
      <definition lower="0.0" upper="56.1">isi=Choose(LV_703,Normal(3.3087707011359337,2.454947322799817),Normal(10.065889106209067,18.26591506726253))</definition>
      <discretization>
        <interval upper="5.61"/>
        <interval upper="11.22"/>
        <interval upper="16.830000000000002"/>
        <interval upper="22.44"/>
        <interval upper="28.05"/>
        <interval upper="33.660000000000004"/>
        <interval upper="39.27"/>
        <interval upper="44.88"/>
        <interval upper="50.49"/>
        <interval upper="56.1"/>
      </discretization>
    </equation>
    <cpt id="LV_695">
      <state id="0"/>
      <state id="1"/>
      <parents>LV_703</parents>
      <probabilities>0.029519173023501266 0.9704808269764986 0.9906795807954187 0.009320419204581293 </probabilities>
    </cpt>
    <equation id="ffmc">
      <parents>LV_695</parents>
      <definition lower="18.7" upper="96.2">ffmc=Choose(LV_695,Normal(92.13798190349436,2.7882114825892947),Normal(82.81297456163807,53.31657532605418))</definition>
      <discretization>
        <interval upper="26.45"/>
        <interval upper="34.2"/>
        <interval upper="41.95"/>
        <interval upper="49.7"/>
        <interval upper="57.45"/>
        <interval upper="65.2"/>
        <interval upper="72.95"/>
        <interval upper="80.7"/>
        <interval upper="88.45"/>
        <interval upper="96.2"/>
      </discretization>
    </equation>
    <equation id="temp">
      <parents>LV_695</parents>
      <definition lower="2.2" upper="33.3">temp=Choose(LV_695,Normal(20.162041115814713,23.543197222173184),Normal(12.220608670972904,36.11861362224622))</definition>
      <discretization>
        <interval upper="5.3100000000000005"/>
        <interval upper="8.42"/>
        <interval upper="11.53"/>
        <interval upper="14.639999999999999"/>
        <interval upper="17.75"/>
        <interval upper="20.86"/>
        <interval upper="23.97"/>
        <interval upper="27.08"/>
        <interval upper="30.189999999999998"/>
        <interval upper="33.3"/>
      </discretization>
    </equation>
    <cpt id="LV_732">
      <state id="0"/>
      <state id="1"/>
      <parents>LV_740</parents>
      <probabilities>0.2013932878823725 0.7986067121176275 0.15992049096244204 0.8400795090375578 </probabilities>
    </cpt>
    <equation id="dmc">
      <parents>LV_732</parents>
      <definition lower="1.1" upper="291.3">dmc=Choose(LV_732,Normal(27.429528368086245,248.48378303849364),Normal(124.11231783118073,2676.2992548927123))</definition>
      <discretization>
        <interval upper="30.12"/>
        <interval upper="59.14"/>
        <interval upper="88.16"/>
        <interval upper="117.17999999999999"/>
        <interval upper="146.2"/>
        <interval upper="175.22"/>
        <interval upper="204.24"/>
        <interval upper="233.26000000000002"/>
        <interval upper="262.28000000000003"/>
        <interval upper="291.3"/>
      </discretization>
    </equation>
    <equation id="dc">
      <parents>LV_732</parents>
      <definition lower="7.9" upper="860.6">dc=Choose(LV_732,Normal(67.22800773974589,858.1196254456878),Normal(639.4359482648853,16095.30090046702))</definition>
      <discretization>
        <interval upper="93.17000000000002"/>
        <interval upper="178.44000000000003"/>
        <interval upper="263.71000000000004"/>
        <interval upper="348.98"/>
        <interval upper="434.25"/>
        <interval upper="519.52"/>
        <interval upper="604.79"/>
        <interval upper="690.06"/>
        <interval upper="775.3299999999999"/>
        <interval upper="860.5999999999999"/>
      </discretization>
    </equation>
    <cpt id="LV_755">
      <state id="0"/>
      <state id="1"/>
      <state id="2"/>
      <probabilities>0.48965120686343205 0.11928123299041313 0.39106756014615485 </probabilities>
    </cpt>
    <equation id="wind">
      <parents>LV_755</parents>
      <definition lower="0.4" upper="9.4">wind=Choose(LV_755,Normal(3.9328803449842913,2.717499608907672),Normal(4.534167305915947,3.418015781889659),Normal(4.050236982028048,3.700433421479287))</definition>
      <discretization>
        <interval upper="1.3"/>
        <interval upper="2.2"/>
        <interval upper="3.1"/>
        <interval upper="4.0"/>
        <interval upper="4.9"/>
        <interval upper="5.800000000000001"/>
        <interval upper="6.700000000000001"/>
        <interval upper="7.600000000000001"/>
        <interval upper="8.500000000000002"/>
        <interval upper="9.400000000000002"/>
      </discretization>
    </equation>
    <equation id="area">
      <parents>LV_755</parents>
      <definition lower="0.0" upper="1090.84">area=Choose(LV_755,Normal(0.0034766986123963327,0.009402064502551816),Normal(93.59938235077122,29249.540873403577),Normal(4.991555022873287,16.633602727098282))</definition>
      <discretization>
        <interval upper="109.08399999999999"/>
        <interval upper="218.16799999999998"/>
        <interval upper="327.25199999999995"/>
        <interval upper="436.33599999999996"/>
        <interval upper="545.42"/>
        <interval upper="654.5039999999999"/>
        <interval upper="763.5879999999999"/>
        <interval upper="872.6719999999998"/>
        <interval upper="981.7559999999997"/>
        <interval upper="1090.8399999999997"/>
      </discretization>
    </equation>
  </nodes>
  <extensions>
    <genie app="GeNIe 2.3.3705.0 ACADEMIC" faultnameformat="nodestate" name="DAG" version="1.0">
      <node id="x">
        <name>x</name>
        <interior color="e5f6f7"/>
        <outline color="000080"/>
        <font bold="true" color="000080" name="Arial" size="10"/>
        <position>100 100 100 100</position>
        <barchart active="true" height="110" width="160"/>
      </node>
      <node id="y">
        <name>y</name>
        <interior color="e5f6f7"/>
        <outline color="000080"/>
        <font bold="true" color="000080" name="Arial" size="10"/>
        <position>100 100 100 100</position>
        <barchart active="true" height="110" width="160"/>
      </node>
      <node id="month">
        <name>month</name>
        <interior color="e5f6f7"/>
        <outline color="000080"/>
        <font bold="true" color="000080" name="Arial" size="10"/>
        <position>100 100 100 100</position>
        <barchart active="true" height="110" width="160"/>
      </node>
      <node id="day">
        <name>day</name>
        <interior color="e5f6f7"/>
        <outline color="000080"/>
        <font bold="true" color="000080" name="Arial" size="10"/>
        <position>100 100 100 100</position>
        <barchart active="true" height="110" width="160"/>
      </node>
      <node id="ffmc">
        <name>ffmc</name>
        <interior color="e5f6f7"/>
        <outline color="000080"/>
        <font bold="true" color="000080" name="Arial" size="10"/>
        <position>100 100 100 100</position>
        <barchart active="true" height="110" width="160"/>
      </node>
      <node id="dmc">
        <name>dmc</name>
        <interior color="e5f6f7"/>
        <outline color="000080"/>
        <font bold="true" color="000080" name="Arial" size="10"/>
        <position>100 100 100 100</position>
        <barchart active="true" height="110" width="160"/>
      </node>
      <node id="dc">
        <name>dc</name>
        <interior color="e5f6f7"/>
        <outline color="000080"/>
        <font bold="true" color="000080" name="Arial" size="10"/>
        <position>100 100 100 100</position>
        <barchart active="true" height="110" width="160"/>
      </node>
      <node id="isi">
        <name>isi</name>
        <interior color="e5f6f7"/>
        <outline color="000080"/>
        <font bold="true" color="000080" name="Arial" size="10"/>
        <position>100 100 100 100</position>
        <barchart active="true" height="110" width="160"/>
      </node>
      <node id="temp">
        <name>temp</name>
        <interior color="e5f6f7"/>
        <outline color="000080"/>
        <font bold="true" color="000080" name="Arial" size="10"/>
        <position>100 100 100 100</position>
        <barchart active="true" height="110" width="160"/>
      </node>
      <node id="rh">
        <name>rh</name>
        <interior color="e5f6f7"/>
        <outline color="000080"/>
        <font bold="true" color="000080" name="Arial" size="10"/>
        <position>100 100 100 100</position>
        <barchart active="true" height="110" width="160"/>
      </node>
      <node id="wind">
        <name>wind</name>
        <interior color="e5f6f7"/>
        <outline color="000080"/>
        <font bold="true" color="000080" name="Arial" size="10"/>
        <position>100 100 100 100</position>
        <barchart active="true" height="110" width="160"/>
      </node>
      <node id="rain">
        <name>rain</name>
        <interior color="e5f6f7"/>
        <outline color="000080"/>
        <font bold="true" color="000080" name="Arial" size="10"/>
        <position>100 100 100 100</position>
        <barchart active="true" height="110" width="160"/>
      </node>
      <node id="area">
        <name>area</name>
        <interior color="e5f6f7"/>
        <outline color="000080"/>
        <font bold="true" color="000080" name="Arial" size="10"/>
        <position>100 100 100 100</position>
        <barchart active="true" height="110" width="160"/>
      </node>
      <node id="LV_690">
        <name>LV_690</name>
        <interior color="e5f6f7"/>
        <outline color="000080"/>
        <font bold="true" color="000080" name="Arial" size="10"/>
        <position>100 100 100 100</position>
        <barchart active="true" height="110" width="160"/>
      </node>
      <node id="LV_695">
        <name>LV_695</name>
        <interior color="e5f6f7"/>
        <outline color="000080"/>
        <font bold="true" color="000080" name="Arial" size="10"/>
        <position>100 100 100 100</position>
        <barchart active="true" height="110" width="160"/>
      </node>
      <node id="LV_703">
        <name>LV_703</name>
        <interior color="e5f6f7"/>
        <outline color="000080"/>
        <font bold="true" color="000080" name="Arial" size="10"/>
        <position>100 100 100 100</position>
        <barchart active="true" height="110" width="160"/>
      </node>
      <node id="LV_717">
        <name>LV_717</name>
        <interior color="e5f6f7"/>
        <outline color="000080"/>
        <font bold="true" color="000080" name="Arial" size="10"/>
        <position>100 100 100 100</position>
        <barchart active="true" height="110" width="160"/>
      </node>
      <node id="LV_732">
        <name>LV_732</name>
        <interior color="e5f6f7"/>
        <outline color="000080"/>
        <font bold="true" color="000080" name="Arial" size="10"/>
        <position>100 100 100 100</position>
        <barchart active="true" height="110" width="160"/>
      </node>
      <node id="LV_740">
        <name>LV_740</name>
        <interior color="e5f6f7"/>
        <outline color="000080"/>
        <font bold="true" color="000080" name="Arial" size="10"/>
        <position>100 100 100 100</position>
        <barchart active="true" height="110" width="160"/>
      </node>
      <node id="LV_755">
        <name>LV_755</name>
        <interior color="e5f6f7"/>
        <outline color="000080"/>
        <font bold="true" color="000080" name="Arial" size="10"/>
        <position>100 100 100 100</position>
        <barchart active="true" height="110" width="160"/>
      </node>
    </genie>
  </extensions>
</smile>
