<?xml version="1.0" encoding="ISO-8859-1" standalone="no"?>
<smile discsamples="10000" id="DAG" numsamples="10000" version="1.0">
  <nodes>
    <cpt id="fuel-type">
      <state id="0"/>
      <state id="1"/>
      <probabilities>0.09254347185381669 0.9074565281461833 </probabilities>
    </cpt>
    <cpt id="aspiration">
      <state id="0"/>
      <state id="1"/>
      <parents>fuel-type</parents>
      <probabilities>0.3684210526315789 0.631578947368421 0.875 0.125 </probabilities>
    </cpt>
    <equation id="compression-ratio">
      <parents>fuel-type</parents>
      <definition lower="7.0" upper="23.0">compression-ratio=Choose(fuel-type,Normal(21.69333333318871,0.49113725767026206),Normal(8.841794871789203,0.4620234015425312))</definition>
      <discretization>
        <interval upper="8.6"/>
        <interval upper="10.2"/>
        <interval upper="11.799999999999999"/>
        <interval upper="13.399999999999999"/>
        <interval upper="14.999999999999998"/>
        <interval upper="16.599999999999998"/>
        <interval upper="18.2"/>
        <interval upper="19.8"/>
        <interval upper="21.400000000000002"/>
        <interval upper="23.000000000000004"/>
      </discretization>
    </equation>
    <cpt id="symboling">
      <state id="0"/>
      <state id="1"/>
      <state id="2"/>
      <state id="3"/>
      <state id="4"/>
      <state id="5"/>
      <parents>fuel-type</parents>
      <probabilities>0.07407407407407407 0.2222222222222222 0.4074074074074074 0.1111111111111111 0.1111111111111111 0.07407407407407407 0.011904761904761904 0.07142857142857142 0.31547619047619047 0.30952380952380953 0.15476190476190477 0.13690476190476192 </probabilities>
    </cpt>
    <cpt id="num-of-doors">
      <state id="0"/>
      <state id="1"/>
      <parents>symboling</parents>
      <probabilities>0.5 0.5 0.8888888888888888 0.1111111111111111 0.875 0.125 0.4 0.6 0.2413793103448276 0.7586206896551724 0.08 0.92 </probabilities>
    </cpt>
    <cpt id="body-style">
      <state id="0"/>
      <state id="1"/>
      <state id="2"/>
      <state id="3"/>
      <state id="4"/>
      <parents>num-of-doors</parents>
      <probabilities>0.019417475728155338 0.019417475728155338 0.11650485436893204 0.6310679611650486 0.21359223300970873 0.07954545454545454 0.11363636363636363 0.6136363636363636 0.17045454545454544 0.022727272727272728 </probabilities>
    </cpt>
    <cpt id="LV_45329">
      <state id="0"/>
      <state id="1"/>
      <parents>symboling</parents>
      <probabilities>0.5 0.5 0.29983619117688737 0.7001638088231128 0.4863165534320477 0.5136834465679524 0.7717654073507964 0.22823459264920368 0.48736805320154664 0.5126319467984534 0.12367790101118954 0.8763220989888104 </probabilities>
    </cpt>
    <cpt id="drive-wheels">
      <state id="0"/>
      <state id="1"/>
      <state id="2"/>
      <parents>LV_45329</parents>
      <probabilities>0.07968008173874737 0.8680176789262629 0.05230223933498977 0.05125183038879389 0.29705043015599314 0.6516977394552129 </probabilities>
    </cpt>
    <cpt id="LV_44436">
      <state id="0"/>
      <state id="1"/>
      <parents>LV_45329</parents>
      <probabilities>0.10390347909489905 0.896096520905101 0.963220081514274 0.03677991848572597 </probabilities>
    </cpt>
    <cpt id="fuel-system">
      <state id="0"/>
      <state id="1"/>
      <state id="2"/>
      <state id="3"/>
      <state id="4"/>
      <state id="5"/>
      <state id="6"/>
      <parents>LV_44436</parents>
      <probabilities>0.019144808750475792 0.019237462258108167 0.11350132390744488 0.02859562108074138 0.6862636256863416 0.10480124520167411 0.028455913115214036 0.13807691568143987 0.7012710625617561 0.07538029113817203 0.021256507835052514 0.021291386020256098 0.02131155139914498 0.02141228536417831 </probabilities>
    </cpt>
    <equation id="horsepower">
      <parents>LV_44436</parents>
      <definition lower="48.0" upper="262.0">horsepower=Choose(LV_44436,Normal(129.97466707083905,1186.6402112135422),Normal(72.75485326966326,103.53617991070465))</definition>
      <discretization>
        <interval upper="69.4"/>
        <interval upper="90.80000000000001"/>
        <interval upper="112.20000000000002"/>
        <interval upper="133.60000000000002"/>
        <interval upper="155.00000000000003"/>
        <interval upper="176.40000000000003"/>
        <interval upper="197.80000000000004"/>
        <interval upper="219.20000000000005"/>
        <interval upper="240.60000000000005"/>
        <interval upper="262.00000000000006"/>
      </discretization>
    </equation>
    <equation id="engine-size">
      <parents>horsepower</parents>
      <definition lower="61.0" upper="326.0">engine-size=Choose(horsepower)</definition>
      <discretization>
        <interval upper="87.5"/>
        <interval upper="114.0"/>
        <interval upper="140.5"/>
        <interval upper="167.0"/>
        <interval upper="193.5"/>
        <interval upper="220.0"/>
        <interval upper="246.5"/>
        <interval upper="273.0"/>
        <interval upper="299.5"/>
        <interval upper="326.0"/>
      </discretization>
    </equation>
    <equation id="curb-weight">
      <parents>engine-size</parents>
      <definition lower="1488.0" upper="4066.0">curb-weight=Choose(engine-size)</definition>
      <discretization>
        <interval upper="1745.8"/>
        <interval upper="2003.6"/>
        <interval upper="2261.4"/>
        <interval upper="2519.2000000000003"/>
        <interval upper="2777.0000000000005"/>
        <interval upper="3034.8000000000006"/>
        <interval upper="3292.600000000001"/>
        <interval upper="3550.400000000001"/>
        <interval upper="3808.200000000001"/>
        <interval upper="4066.0000000000014"/>
      </discretization>
    </equation>
    <equation id="price">
      <parents>engine-size</parents>
      <definition lower="5118.0" upper="45400.0">price=Choose(engine-size)</definition>
      <discretization>
        <interval upper="9146.2"/>
        <interval upper="13174.400000000001"/>
        <interval upper="17202.600000000002"/>
        <interval upper="21230.800000000003"/>
        <interval upper="25259.000000000004"/>
        <interval upper="29287.200000000004"/>
        <interval upper="33315.4"/>
        <interval upper="37343.6"/>
        <interval upper="41371.799999999996"/>
        <interval upper="45399.99999999999"/>
      </discretization>
    </equation>
    <equation id="city-mpg">
      <parents>horsepower</parents>
      <definition lower="13.0" upper="49.0">city-mpg=Choose(horsepower)</definition>
      <discretization>
        <interval upper="16.6"/>
        <interval upper="20.200000000000003"/>
        <interval upper="23.800000000000004"/>
        <interval upper="27.400000000000006"/>
        <interval upper="31.000000000000007"/>
        <interval upper="34.60000000000001"/>
        <interval upper="38.20000000000001"/>
        <interval upper="41.80000000000001"/>
        <interval upper="45.40000000000001"/>
        <interval upper="49.000000000000014"/>
      </discretization>
    </equation>
    <equation id="highway-mpg">
      <parents>city-mpg</parents>
      <definition lower="16.0" upper="54.0">highway-mpg=Choose(city-mpg)</definition>
      <discretization>
        <interval upper="19.8"/>
        <interval upper="23.6"/>
        <interval upper="27.400000000000002"/>
        <interval upper="31.200000000000003"/>
        <interval upper="35.0"/>
        <interval upper="38.8"/>
        <interval upper="42.599999999999994"/>
        <interval upper="46.39999999999999"/>
        <interval upper="50.19999999999999"/>
        <interval upper="53.999999999999986"/>
      </discretization>
    </equation>
    <equation id="height">
      <definition lower="47.8" upper="59.8">height=Normal(53.63761597782868,5.783108776012235)</definition>
      <discretization>
        <interval upper="49.0"/>
        <interval upper="50.2"/>
        <interval upper="51.400000000000006"/>
        <interval upper="52.60000000000001"/>
        <interval upper="53.80000000000001"/>
        <interval upper="55.000000000000014"/>
        <interval upper="56.20000000000002"/>
        <interval upper="57.40000000000002"/>
        <interval upper="58.60000000000002"/>
        <interval upper="59.800000000000026"/>
      </discretization>
    </equation>
    <equation id="bore">
      <definition lower="2.54" upper="3.94">bore=Normal(3.321515242800335,0.07030248172332602)</definition>
      <discretization>
        <interval upper="2.68"/>
        <interval upper="2.8200000000000003"/>
        <interval upper="2.9600000000000004"/>
        <interval upper="3.1000000000000005"/>
        <interval upper="3.2400000000000007"/>
        <interval upper="3.380000000000001"/>
        <interval upper="3.520000000000001"/>
        <interval upper="3.660000000000001"/>
        <interval upper="3.800000000000001"/>
        <interval upper="3.9400000000000013"/>
      </discretization>
    </equation>
    <equation id="stroke">
      <definition lower="2.07" upper="4.17">stroke=Normal(3.2456910471141054,0.10868478272624314)</definition>
      <discretization>
        <interval upper="2.28"/>
        <interval upper="2.4899999999999998"/>
        <interval upper="2.6999999999999997"/>
        <interval upper="2.9099999999999997"/>
        <interval upper="3.1199999999999997"/>
        <interval upper="3.3299999999999996"/>
        <interval upper="3.5399999999999996"/>
        <interval upper="3.7499999999999996"/>
        <interval upper="3.9599999999999995"/>
        <interval upper="4.17"/>
      </discretization>
    </equation>
    <equation id="peak-rpm">
      <definition lower="4150.0" upper="6600.0">peak-rpm=Normal(5081.97523798048,231585.20254384642)</definition>
      <discretization>
        <interval upper="4395.0"/>
        <interval upper="4640.0"/>
        <interval upper="4885.0"/>
        <interval upper="5130.0"/>
        <interval upper="5375.0"/>
        <interval upper="5620.0"/>
        <interval upper="5865.0"/>
        <interval upper="6110.0"/>
        <interval upper="6355.0"/>
        <interval upper="6600.0"/>
      </discretization>
    </equation>
    <cpt id="LV_45228">
      <state id="0"/>
      <state id="1"/>
      <probabilities>0.9069385301887936 0.09306146981120654 </probabilities>
    </cpt>
    <equation id="width">
      <parents>LV_45228</parents>
      <definition lower="60.3" upper="72.0">width=Choose(LV_45228,Normal(65.3056902084946,2.4350103941942223),Normal(70.95656142993357,0.5757908850345662))</definition>
      <discretization>
        <interval upper="61.47"/>
        <interval upper="62.64"/>
        <interval upper="63.81"/>
        <interval upper="64.98"/>
        <interval upper="66.15"/>
        <interval upper="67.32000000000001"/>
        <interval upper="68.49000000000001"/>
        <interval upper="69.66000000000001"/>
        <interval upper="70.83000000000001"/>
        <interval upper="72.00000000000001"/>
      </discretization>
    </equation>
    <equation id="wheel-base">
      <parents>width</parents>
      <definition lower="86.6" upper="120.9">wheel-base=Choose(width)</definition>
      <discretization>
        <interval upper="90.03"/>
        <interval upper="93.46000000000001"/>
        <interval upper="96.89000000000001"/>
        <interval upper="100.32000000000002"/>
        <interval upper="103.75000000000003"/>
        <interval upper="107.18000000000004"/>
        <interval upper="110.61000000000004"/>
        <interval upper="114.04000000000005"/>
        <interval upper="117.47000000000006"/>
        <interval upper="120.90000000000006"/>
      </discretization>
    </equation>
    <equation id="length">
      <parents>wheel-base</parents>
      <definition lower="141.1" upper="208.1">length=Choose(wheel-base)</definition>
      <discretization>
        <interval upper="147.79999999999998"/>
        <interval upper="154.49999999999997"/>
        <interval upper="161.19999999999996"/>
        <interval upper="167.89999999999995"/>
        <interval upper="174.59999999999994"/>
        <interval upper="181.29999999999993"/>
        <interval upper="187.99999999999991"/>
        <interval upper="194.6999999999999"/>
        <interval upper="201.3999999999999"/>
        <interval upper="208.09999999999988"/>
      </discretization>
    </equation>
    <cpt id="num-of-cylinders">
      <state id="0"/>
      <state id="1"/>
      <state id="2"/>
      <state id="3"/>
      <state id="4"/>
      <state id="5"/>
      <parents>LV_45228</parents>
      <probabilities>0.01185717920168959 0.023746200487761073 0.8060865593911126 0.128668985224257 0.017781545591606666 0.01185953010357314 0.22824242573361722 0.34215022574772574 0.07615213433728779 0.16327129375821078 0.07608683225261934 0.11409708817053928 </probabilities>
    </cpt>
    <cpt id="engine-type">
      <state id="0"/>
      <state id="1"/>
      <state id="2"/>
      <state id="3"/>
      <state id="4"/>
      <parents>num-of-cylinders</parents>
      <probabilities>0.14285714285714285 0.14285714285714285 0.14285714285714285 0.14285714285714285 0.42857142857142855 0.10526315789473684 0.10526315789473684 0.5789473684210527 0.10526315789473684 0.10526315789473684 0.05555555555555555 0.09027777777777778 0.7430555555555556 0.09722222222222222 0.013888888888888888 0.25 0.0625 0.25 0.15625 0.28125 0.18181818181818182 0.2727272727272727 0.18181818181818182 0.18181818181818182 0.18181818181818182 0.18181818181818182 0.18181818181818182 0.18181818181818182 0.18181818181818182 0.2727272727272727 </probabilities>
    </cpt>
    <cpt id="make">
      <state id="0"/>
      <state id="1"/>
      <state id="2"/>
      <state id="3"/>
      <state id="4"/>
      <state id="5"/>
      <state id="6"/>
      <state id="7"/>
      <state id="8"/>
      <state id="9"/>
      <state id="10"/>
      <state id="11"/>
      <state id="12"/>
      <state id="13"/>
      <state id="14"/>
      <state id="15"/>
      <state id="16"/>
      <state id="17"/>
      <state id="18"/>
      <state id="19"/>
      <state id="20"/>
      <parents>engine-type</parents>
      <probabilities>0.07407407407407407 0.037037037037037035 0.037037037037037035 0.037037037037037035 0.037037037037037035 0.037037037037037035 0.037037037037037035 0.07407407407407407 0.037037037037037035 0.037037037037037035 0.037037037037037035 0.037037037037037035 0.037037037037037035 0.037037037037037035 0.037037037037037035 0.037037037037037035 0.07407407407407407 0.037037037037037035 0.14814814814814814 0.037037037037037035 0.037037037037037035 0.037037037037037035 0.037037037037037035 0.037037037037037035 0.05555555555555555 0.037037037037037035 0.037037037037037035 0.037037037037037035 0.037037037037037035 0.037037037037037035 0.037037037037037035 0.037037037037037035 0.037037037037037035 0.037037037037037035 0.24074074074074073 0.037037037037037035 0.037037037037037035 0.037037037037037035 0.037037037037037035 0.037037037037037035 0.037037037037037035 0.037037037037037035 0.012345679012345678 0.04938271604938271 0.06172839506172839 0.024691358024691357 0.06172839506172839 0.09259259259259259 0.024691358024691357 0.012345679012345678 0.08641975308641975 0.037037037037037035 0.018518518518518517 0.09259259259259259 0.08641975308641975 0.012345679012345678 0.05555555555555555 0.018518518518518517 0.037037037037037035 0.012345679012345678 0.1728395061728395 0.018518518518518517 0.012345679012345678 0.03508771929824561 0.03508771929824561 0.03508771929824561 0.03508771929824561 0.03508771929824561 0.03508771929824561 0.03508771929824561 0.03508771929824561 0.03508771929824561 0.03508771929824561 0.03508771929824561 0.03508771929824561 0.03508771929824561 0.03508771929824561 0.03508771929824561 0.08771929824561403 0.03508771929824561 0.24561403508771928 0.03508771929824561 0.03508771929824561 0.03508771929824561 0.05555555555555555 0.037037037037037035 0.037037037037037035 0.037037037037037035 0.037037037037037035 0.037037037037037035 0.037037037037037035 0.05555555555555555 0.037037037037037035 0.1111111111111111 0.037037037037037035 0.037037037037037035 0.14814814814814814 0.037037037037037035 0.037037037037037035 0.037037037037037035 0.037037037037037035 0.037037037037037035 0.037037037037037035 0.037037037037037035 0.037037037037037035 </probabilities>
    </cpt>
  </nodes>
  <extensions>
    <genie app="GeNIe 2.3.3705.0 ACADEMIC" faultnameformat="nodestate" name="DAG" version="1.0">
      <node id="make">
        <name>make</name>
        <interior color="e5f6f7"/>
        <outline color="000080"/>
        <font bold="true" color="000080" name="Arial" size="10"/>
        <position>100 100 100 100</position>
        <barchart active="true" height="110" width="160"/>
      </node>
      <node id="fuel-type">
        <name>fuel-type</name>
        <interior color="e5f6f7"/>
        <outline color="000080"/>
        <font bold="true" color="000080" name="Arial" size="10"/>
        <position>100 100 100 100</position>
        <barchart active="true" height="110" width="160"/>
      </node>
      <node id="aspiration">
        <name>aspiration</name>
        <interior color="e5f6f7"/>
        <outline color="000080"/>
        <font bold="true" color="000080" name="Arial" size="10"/>
        <position>100 100 100 100</position>
        <barchart active="true" height="110" width="160"/>
      </node>
      <node id="num-of-doors">
        <name>num-of-doors</name>
        <interior color="e5f6f7"/>
        <outline color="000080"/>
        <font bold="true" color="000080" name="Arial" size="10"/>
        <position>100 100 100 100</position>
        <barchart active="true" height="110" width="160"/>
      </node>
      <node id="body-style">
        <name>body-style</name>
        <interior color="e5f6f7"/>
        <outline color="000080"/>
        <font bold="true" color="000080" name="Arial" size="10"/>
        <position>100 100 100 100</position>
        <barchart active="true" height="110" width="160"/>
      </node>
      <node id="drive-wheels">
        <name>drive-wheels</name>
        <interior color="e5f6f7"/>
        <outline color="000080"/>
        <font bold="true" color="000080" name="Arial" size="10"/>
        <position>100 100 100 100</position>
        <barchart active="true" height="110" width="160"/>
      </node>
      <node id="wheel-base">
        <name>wheel-base</name>
        <interior color="e5f6f7"/>
        <outline color="000080"/>
        <font bold="true" color="000080" name="Arial" size="10"/>
        <position>100 100 100 100</position>
        <barchart active="true" height="110" width="160"/>
      </node>
      <node id="length">
        <name>length</name>
        <interior color="e5f6f7"/>
        <outline color="000080"/>
        <font bold="true" color="000080" name="Arial" size="10"/>
        <position>100 100 100 100</position>
        <barchart active="true" height="110" width="160"/>
      </node>
      <node id="width">
        <name>width</name>
        <interior color="e5f6f7"/>
        <outline color="000080"/>
        <font bold="true" color="000080" name="Arial" size="10"/>
        <position>100 100 100 100</position>
        <barchart active="true" height="110" width="160"/>
      </node>
      <node id="height">
        <name>height</name>
        <interior color="e5f6f7"/>
        <outline color="000080"/>
        <font bold="true" color="000080" name="Arial" size="10"/>
        <position>100 100 100 100</position>
        <barchart active="true" height="110" width="160"/>
      </node>
      <node id="curb-weight">
        <name>curb-weight</name>
        <interior color="e5f6f7"/>
        <outline color="000080"/>
        <font bold="true" color="000080" name="Arial" size="10"/>
        <position>100 100 100 100</position>
        <barchart active="true" height="110" width="160"/>
      </node>
      <node id="engine-type">
        <name>engine-type</name>
        <interior color="e5f6f7"/>
        <outline color="000080"/>
        <font bold="true" color="000080" name="Arial" size="10"/>
        <position>100 100 100 100</position>
        <barchart active="true" height="110" width="160"/>
      </node>
      <node id="num-of-cylinders">
        <name>num-of-cylinders</name>
        <interior color="e5f6f7"/>
        <outline color="000080"/>
        <font bold="true" color="000080" name="Arial" size="10"/>
        <position>100 100 100 100</position>
        <barchart active="true" height="110" width="160"/>
      </node>
      <node id="engine-size">
        <name>engine-size</name>
        <interior color="e5f6f7"/>
        <outline color="000080"/>
        <font bold="true" color="000080" name="Arial" size="10"/>
        <position>100 100 100 100</position>
        <barchart active="true" height="110" width="160"/>
      </node>
      <node id="fuel-system">
        <name>fuel-system</name>
        <interior color="e5f6f7"/>
        <outline color="000080"/>
        <font bold="true" color="000080" name="Arial" size="10"/>
        <position>100 100 100 100</position>
        <barchart active="true" height="110" width="160"/>
      </node>
      <node id="bore">
        <name>bore</name>
        <interior color="e5f6f7"/>
        <outline color="000080"/>
        <font bold="true" color="000080" name="Arial" size="10"/>
        <position>100 100 100 100</position>
        <barchart active="true" height="110" width="160"/>
      </node>
      <node id="stroke">
        <name>stroke</name>
        <interior color="e5f6f7"/>
        <outline color="000080"/>
        <font bold="true" color="000080" name="Arial" size="10"/>
        <position>100 100 100 100</position>
        <barchart active="true" height="110" width="160"/>
      </node>
      <node id="compression-ratio">
        <name>compression-ratio</name>
        <interior color="e5f6f7"/>
        <outline color="000080"/>
        <font bold="true" color="000080" name="Arial" size="10"/>
        <position>100 100 100 100</position>
        <barchart active="true" height="110" width="160"/>
      </node>
      <node id="horsepower">
        <name>horsepower</name>
        <interior color="e5f6f7"/>
        <outline color="000080"/>
        <font bold="true" color="000080" name="Arial" size="10"/>
        <position>100 100 100 100</position>
        <barchart active="true" height="110" width="160"/>
      </node>
      <node id="peak-rpm">
        <name>peak-rpm</name>
        <interior color="e5f6f7"/>
        <outline color="000080"/>
        <font bold="true" color="000080" name="Arial" size="10"/>
        <position>100 100 100 100</position>
        <barchart active="true" height="110" width="160"/>
      </node>
      <node id="city-mpg">
        <name>city-mpg</name>
        <interior color="e5f6f7"/>
        <outline color="000080"/>
        <font bold="true" color="000080" name="Arial" size="10"/>
        <position>100 100 100 100</position>
        <barchart active="true" height="110" width="160"/>
      </node>
      <node id="highway-mpg">
        <name>highway-mpg</name>
        <interior color="e5f6f7"/>
        <outline color="000080"/>
        <font bold="true" color="000080" name="Arial" size="10"/>
        <position>100 100 100 100</position>
        <barchart active="true" height="110" width="160"/>
      </node>
      <node id="price">
        <name>price</name>
        <interior color="e5f6f7"/>
        <outline color="000080"/>
        <font bold="true" color="000080" name="Arial" size="10"/>
        <position>100 100 100 100</position>
        <barchart active="true" height="110" width="160"/>
      </node>
      <node id="symboling">
        <name>symboling</name>
        <interior color="e5f6f7"/>
        <outline color="000080"/>
        <font bold="true" color="000080" name="Arial" size="10"/>
        <position>100 100 100 100</position>
        <barchart active="true" height="110" width="160"/>
      </node>
      <node id="LV_44436">
        <name>LV_44436</name>
        <interior color="e5f6f7"/>
        <outline color="000080"/>
        <font bold="true" color="000080" name="Arial" size="10"/>
        <position>100 100 100 100</position>
        <barchart active="true" height="110" width="160"/>
      </node>
      <node id="LV_45228">
        <name>LV_45228</name>
        <interior color="e5f6f7"/>
        <outline color="000080"/>
        <font bold="true" color="000080" name="Arial" size="10"/>
        <position>100 100 100 100</position>
        <barchart active="true" height="110" width="160"/>
      </node>
      <node id="LV_45329">
        <name>LV_45329</name>
        <interior color="e5f6f7"/>
        <outline color="000080"/>
        <font bold="true" color="000080" name="Arial" size="10"/>
        <position>100 100 100 100</position>
        <barchart active="true" height="110" width="160"/>
      </node>
    </genie>
  </extensions>
</smile>
