<?xml version="1.0" encoding="ISO-8859-1" standalone="no"?>
<smile discsamples="10000" id="DAG" numsamples="10000" version="1.0">
  <nodes>
    <equation id="short-line-density-5">
      <definition lower="0.0" upper="0.333333">short-line-density-5=Normal(0.014216278750000033,0.0016150067125022926)</definition>
      <discretization>
        <interval upper="0.033333299999999996"/>
        <interval upper="0.06666659999999999"/>
        <interval upper="0.09999989999999999"/>
        <interval upper="0.13333319999999999"/>
        <interval upper="0.1666665"/>
        <interval upper="0.1999998"/>
        <interval upper="0.23333310000000002"/>
        <interval upper="0.2666664"/>
        <interval upper="0.29999970000000004"/>
        <interval upper="0.33333300000000005"/>
      </discretization>
    </equation>
    <equation id="short-line-density-2">
      <definition lower="0.0" upper="0.222222">short-line-density-2=Normal(0.004542860000000001,5.553901803254001E-4)</definition>
      <discretization>
        <interval upper="0.0222222"/>
        <interval upper="0.0444444"/>
        <interval upper="0.0666666"/>
        <interval upper="0.0888888"/>
        <interval upper="0.111111"/>
        <interval upper="0.1333332"/>
        <interval upper="0.1555554"/>
        <interval upper="0.1777776"/>
        <interval upper="0.1999998"/>
        <interval upper="0.222222"/>
      </discretization>
    </equation>
    <cpt id="LV_20468">
      <state id="0"/>
      <state id="1"/>
      <state id="2"/>
      <probabilities>9.592326139088739E-4 0.8373380305736998 0.16170273681239133 </probabilities>
    </cpt>
    <equation id="region-centroid-col">
      <parents>LV_20468</parents>
      <definition lower="1.0" upper="254.0">region-centroid-col=Choose(LV_20468,Normal(0.0,1.0),Normal(143.7612127452088,4097.763830516245),Normal(27.250583872937508,254.34742744289264))</definition>
      <discretization>
        <interval upper="26.3"/>
        <interval upper="51.6"/>
        <interval upper="76.9"/>
        <interval upper="102.2"/>
        <interval upper="127.5"/>
        <interval upper="152.8"/>
        <interval upper="178.10000000000002"/>
        <interval upper="203.40000000000003"/>
        <interval upper="228.70000000000005"/>
        <interval upper="254.00000000000006"/>
      </discretization>
    </equation>
    <cpt id="class">
      <state id="0"/>
      <state id="1"/>
      <state id="2"/>
      <state id="3"/>
      <state id="4"/>
      <state id="5"/>
      <state id="6"/>
      <parents>LV_20468</parents>
      <probabilities>0.14285714285714285 0.14285714285714285 0.14285714285714285 0.14285714285714285 0.14285714285714285 0.14285714285714285 0.14285714285714285 0.11433139596990566 0.150156343156316 0.10935595010300567 0.15067162890832186 0.1507375253107384 0.16472987100073774 0.16001728555097466 0.2836102554199835 0.1003800156071267 0.3029317003743109 0.1035139248173099 0.10318215936129195 0.06710472976346266 0.039277214656514334 </probabilities>
    </cpt>
    <equation id="region-centroid-row">
      <parents>class</parents>
      <definition lower="11.0" upper="251.0">region-centroid-row=Choose(class,Normal(103.13175675672191,777.1404747904385),Normal(98.23389830505147,1389.302562349879),Normal(111.24149659860163,440.0738302119379),Normal(204.50505050498168,777.6061619679728),Normal(186.42087542081265,124.97120593934876),Normal(46.809061488657996,551.6904650419636),Normal(112.39862542951464,1207.0776773086534))</definition>
      <discretization>
        <interval upper="35.0"/>
        <interval upper="59.0"/>
        <interval upper="83.0"/>
        <interval upper="107.0"/>
        <interval upper="131.0"/>
        <interval upper="155.0"/>
        <interval upper="179.0"/>
        <interval upper="203.0"/>
        <interval upper="227.0"/>
        <interval upper="251.0"/>
      </discretization>
    </equation>
    <equation id="rawblue-mean">
      <parents>class</parents>
      <definition lower="0.0" upper="150.889">rawblue-mean=Choose(class,Normal(18.546921385128876,115.94824554595186),Normal(55.71223864404893,345.35669806988767),Normal(13.062358697274485,258.1822935373936),Normal(14.019828720533999,28.238544443162557),Normal(60.33034276092245,149.08647182351524),Normal(134.9410226536781,84.3160035390844),Normal(12.972890776627853,147.83718421026717))</definition>
      <discretization>
        <interval upper="15.0889"/>
        <interval upper="30.1778"/>
        <interval upper="45.2667"/>
        <interval upper="60.3556"/>
        <interval upper="75.4445"/>
        <interval upper="90.5334"/>
        <interval upper="105.6223"/>
        <interval upper="120.71119999999999"/>
        <interval upper="135.8001"/>
        <interval upper="150.88899999999998"/>
      </discretization>
    </equation>
    <equation id="rawgreen-mean">
      <parents>rawblue-mean</parents>
      <definition lower="0.0" upper="142.556">rawgreen-mean=Choose(rawblue-mean)</definition>
      <discretization>
        <interval upper="14.255600000000001"/>
        <interval upper="28.511200000000002"/>
        <interval upper="42.7668"/>
        <interval upper="57.022400000000005"/>
        <interval upper="71.278"/>
        <interval upper="85.5336"/>
        <interval upper="99.78920000000001"/>
        <interval upper="114.04480000000001"/>
        <interval upper="128.30040000000002"/>
        <interval upper="142.55600000000004"/>
      </discretization>
    </equation>
    <equation id="rawred-mean">
      <parents>rawgreen-mean</parents>
      <definition lower="0.0" upper="137.111">rawred-mean=Choose(rawgreen-mean)</definition>
      <discretization>
        <interval upper="13.711099999999998"/>
        <interval upper="27.422199999999997"/>
        <interval upper="41.13329999999999"/>
        <interval upper="54.84439999999999"/>
        <interval upper="68.5555"/>
        <interval upper="82.2666"/>
        <interval upper="95.9777"/>
        <interval upper="109.6888"/>
        <interval upper="123.3999"/>
        <interval upper="137.111"/>
      </discretization>
    </equation>
    <equation id="intensity-mean">
      <parents>rawred-mean</parents>
      <definition lower="0.0" upper="143.444">intensity-mean=Choose(rawred-mean)</definition>
      <discretization>
        <interval upper="14.344399999999998"/>
        <interval upper="28.688799999999997"/>
        <interval upper="43.033199999999994"/>
        <interval upper="57.377599999999994"/>
        <interval upper="71.722"/>
        <interval upper="86.06639999999999"/>
        <interval upper="100.41079999999998"/>
        <interval upper="114.75519999999997"/>
        <interval upper="129.09959999999998"/>
        <interval upper="143.444"/>
      </discretization>
    </equation>
    <equation id="value-mean">
      <parents>rawblue-mean</parents>
      <definition lower="0.0" upper="150.889">value-mean=Choose(rawblue-mean)</definition>
      <discretization>
        <interval upper="15.0889"/>
        <interval upper="30.1778"/>
        <interval upper="45.2667"/>
        <interval upper="60.3556"/>
        <interval upper="75.4445"/>
        <interval upper="90.5334"/>
        <interval upper="105.6223"/>
        <interval upper="120.71119999999999"/>
        <interval upper="135.8001"/>
        <interval upper="150.88899999999998"/>
      </discretization>
    </equation>
    <equation id="exred-mean">
      <parents>class</parents>
      <definition lower="-49.6667" upper="9.88889">exred-mean=Choose(class,Normal(0.6325075439187053,16.400077611257124),Normal(-15.122410349147412,42.969419474933446),Normal(-9.114135333330234,56.38639550661592),Normal(-9.279086067336948,13.459514356762844),Normal(-16.16423249157705,15.556718109194447),Normal(-33.58108543688233,66.9985097359394),Normal(-6.455137127145545,31.57139514540802))</definition>
      <discretization>
        <interval upper="-43.711141"/>
        <interval upper="-37.755582"/>
        <interval upper="-31.800022999999996"/>
        <interval upper="-25.844463999999995"/>
        <interval upper="-19.888904999999994"/>
        <interval upper="-13.933345999999995"/>
        <interval upper="-7.977786999999996"/>
        <interval upper="-2.0222279999999966"/>
        <interval upper="3.9333310000000026"/>
        <interval upper="9.888890000000002"/>
      </discretization>
    </equation>
    <equation id="exblue-mean">
      <parents>class</parents>
      <definition lower="-12.4444" upper="82.0">exblue-mean=Choose(class,Normal(11.814940290536544,68.06345301008061),Normal(31.8866278982943,123.23618962033103),Normal(13.5117167244852,117.88519420723357),Normal(-4.843620632994998,12.429226784106593),Normal(34.65282525251357,64.78483540501973),Normal(50.46098414237849,157.972755804266),Normal(12.485299532641752,96.92623430088486))</definition>
      <discretization>
        <interval upper="-2.9999599999999997"/>
        <interval upper="6.44448"/>
        <interval upper="15.88892"/>
        <interval upper="25.33336"/>
        <interval upper="34.7778"/>
        <interval upper="44.22224"/>
        <interval upper="53.66668"/>
        <interval upper="63.11112"/>
        <interval upper="72.55556"/>
        <interval upper="82.0"/>
      </discretization>
    </equation>
    <equation id="exgreen-mean">
      <parents>class</parents>
      <definition lower="-33.8889" upper="24.6667">exgreen-mean=Choose(class,Normal(-12.447448716212008,21.652174099534975),Normal(-16.764216033892627,24.953622258409993),Normal(-4.397582040814826,14.055389998688128),Normal(14.122707912453158,14.012719248249837),Normal(-18.48858848484225,23.304653210079444),Normal(-16.879899935269616,36.53633701821789),Normal(-6.030164975942943,19.085145808854286))</definition>
      <discretization>
        <interval upper="-28.03334"/>
        <interval upper="-22.17778"/>
        <interval upper="-16.322219999999998"/>
        <interval upper="-10.466659999999997"/>
        <interval upper="-4.611099999999998"/>
        <interval upper="1.244460000000002"/>
        <interval upper="7.1000200000000016"/>
        <interval upper="12.955580000000001"/>
        <interval upper="18.81114"/>
        <interval upper="24.666700000000002"/>
      </discretization>
    </equation>
    <equation id="saturation-mean">
      <parents>class</parents>
      <definition lower="0.0" upper="1.0">saturation-mean=Choose(class,Normal(0.48260693918902653,0.013367513692570861),Normal(0.3104935355931153,0.012976776795141332),Normal(0.7678965918364732,0.06404808793812203),Normal(0.41421787878773925,0.012645930821153171),Normal(0.29519426936016996,0.006993974928866733),Normal(0.21180239482193775,0.010565583857075058),Normal(0.510953752577144,0.08876820066464963))</definition>
      <discretization>
        <interval upper="0.1"/>
        <interval upper="0.2"/>
        <interval upper="0.30000000000000004"/>
        <interval upper="0.4"/>
        <interval upper="0.5"/>
        <interval upper="0.6"/>
        <interval upper="0.7"/>
        <interval upper="0.7999999999999999"/>
        <interval upper="0.8999999999999999"/>
        <interval upper="0.9999999999999999"/>
      </discretization>
    </equation>
    <equation id="hue-mean">
      <parents>class</parents>
      <definition lower="-3.04418" upper="2.91248">hue-mean=Choose(class,Normal(-1.3437353175671123,0.14085914239271977),Normal(-2.0369546779654115,0.01847815366450846),Normal(-2.22656904761829,0.1161150365960443),Normal(2.258849259258499,0.120199469272056),Normal(-2.069691245790549,0.02071854677815038),Normal(-2.301083786407021,0.012462585063670793),Normal(-1.803450883160893,0.5029121489133981))</definition>
      <discretization>
        <interval upper="-2.448514"/>
        <interval upper="-1.8528479999999998"/>
        <interval upper="-1.2571819999999998"/>
        <interval upper="-0.6615159999999999"/>
        <interval upper="-0.06584999999999996"/>
        <interval upper="0.529816"/>
        <interval upper="1.1254819999999999"/>
        <interval upper="1.721148"/>
        <interval upper="2.316814"/>
        <interval upper="2.91248"/>
      </discretization>
    </equation>
    <cpt id="LV_18302">
      <state id="0"/>
      <state id="1"/>
      <state id="2"/>
      <state id="3"/>
      <state id="4"/>
      <state id="5"/>
      <parents>class</parents>
      <probabilities>0.5137844819466005 0.006493999127339712 0.006493506493506494 0.33281737579590676 0.013494680095068483 0.1269159565415782 0.18340017331520853 0.027499280878722228 0.006514657980456026 0.2638953768971863 0.13998932551626533 0.3787011854121615 0.4757305875040414 0.09059983779040844 0.006535947712418301 0.1585819637648742 0.13381388535505914 0.13473777787319863 0.1896799714072418 0.0064740053439622264 0.006472491909385115 0.25829352767400876 0.029100732368262758 0.5099792712971395 0.00817360791930317 0.013277578058947456 0.006472491909385117 0.5330726493204275 0.1933877760848475 0.2456158967070892 0.8422827456979463 0.0062339317868990544 0.006230529595015575 0.033887345081940634 0.00934127668729632 0.10202417115090211 0.643114088189369 0.020055082871226777 0.006600660066006602 0.143846449904367 0.05230182416185495 0.13408189480717575 </probabilities>
    </cpt>
    <equation id="vegde-sd">
      <parents>LV_18302</parents>
      <definition lower="0.0" upper="991.718">vegde-sd=Choose(LV_18302,Normal(0.3631823605834192,0.07394231383350247),Normal(242.34627060083935,58799.06875743307),Normal(0.0,1.0),Normal(2.210874726829115,1.5477638132030742),Normal(7.136275246936327,30.841560549560043),Normal(1.1171568803453893,0.22345699148686562))</definition>
      <discretization>
        <interval upper="99.17179999999999"/>
        <interval upper="198.34359999999998"/>
        <interval upper="297.5154"/>
        <interval upper="396.68719999999996"/>
        <interval upper="495.8589999999999"/>
        <interval upper="595.0307999999999"/>
        <interval upper="694.2025999999998"/>
        <interval upper="793.3743999999998"/>
        <interval upper="892.5461999999998"/>
        <interval upper="991.7179999999997"/>
      </discretization>
    </equation>
    <equation id="hedge-sd">
      <parents>LV_18302</parents>
      <definition lower="0.0" upper="1386.33">hedge-sd=Choose(LV_18302,Normal(0.441002282378778,0.10461839639340408),Normal(269.1615871290387,121092.60250224933),Normal(0.0,1.0),Normal(2.8406826533486544,2.9091271507627767),Normal(31.134989068919367,1335.4563200271975),Normal(1.3011227487041426,0.33634436389432565))</definition>
      <discretization>
        <interval upper="138.63299999999998"/>
        <interval upper="277.26599999999996"/>
        <interval upper="415.89899999999994"/>
        <interval upper="554.5319999999999"/>
        <interval upper="693.165"/>
        <interval upper="831.798"/>
        <interval upper="970.431"/>
        <interval upper="1109.064"/>
        <interval upper="1247.6970000000001"/>
        <interval upper="1386.3300000000002"/>
      </discretization>
    </equation>
    <cpt id="LV_19810">
      <state id="0"/>
      <state id="1"/>
      <state id="2"/>
      <parents>LV_18302</parents>
      <probabilities>0.9852985918122882 0.012362561220232228 0.002338846967479517 0.045098966879393784 0.04637932371466726 0.908521709405939 0.3333333333333333 0.3333333333333333 0.3333333333333333 0.006688800385346475 0.855897947994394 0.13741325162025958 0.011952519896794703 0.1742063051198749 0.8138411749833305 0.13338227832043012 0.8568265079205188 0.009791213759051015 </probabilities>
    </cpt>
    <equation id="vedge-mean">
      <parents>LV_19810</parents>
      <definition lower="0.0" upper="29.2222">vedge-mean=Choose(LV_19810,Normal(0.6951639418058225,0.141797110332044),Normal(1.9815749111909664,0.7280250068230053),Normal(6.176066162405914,37.23581676861481))</definition>
      <discretization>
        <interval upper="2.9222200000000003"/>
        <interval upper="5.8444400000000005"/>
        <interval upper="8.766660000000002"/>
        <interval upper="11.688880000000001"/>
        <interval upper="14.6111"/>
        <interval upper="17.53332"/>
        <interval upper="20.45554"/>
        <interval upper="23.37776"/>
        <interval upper="26.299979999999998"/>
        <interval upper="29.222199999999997"/>
      </discretization>
    </equation>
    <equation id="hedge-mean">
      <parents>LV_19810</parents>
      <definition lower="0.0" upper="44.7222">hedge-mean=Choose(LV_19810,Normal(0.8167087374119524,0.21041183081487216),Normal(2.3839941774484106,1.3288755501262917),Normal(8.80343968813701,60.97144739332745))</definition>
      <discretization>
        <interval upper="4.47222"/>
        <interval upper="8.94444"/>
        <interval upper="13.41666"/>
        <interval upper="17.88888"/>
        <interval upper="22.3611"/>
        <interval upper="26.83332"/>
        <interval upper="31.30554"/>
        <interval upper="35.77776"/>
        <interval upper="40.24998"/>
        <interval upper="44.7222"/>
      </discretization>
    </equation>
  </nodes>
  <extensions>
    <genie app="GeNIe 2.3.3705.0 ACADEMIC" faultnameformat="nodestate" name="DAG" version="1.0">
      <node id="region-centroid-col">
        <name>region-centroid-col</name>
        <interior color="e5f6f7"/>
        <outline color="000080"/>
        <font bold="true" color="000080" name="Arial" size="10"/>
        <position>100 100 100 100</position>
        <barchart active="true" height="110" width="160"/>
      </node>
      <node id="region-centroid-row">
        <name>region-centroid-row</name>
        <interior color="e5f6f7"/>
        <outline color="000080"/>
        <font bold="true" color="000080" name="Arial" size="10"/>
        <position>100 100 100 100</position>
        <barchart active="true" height="110" width="160"/>
      </node>
      <node id="short-line-density-5">
        <name>short-line-density-5</name>
        <interior color="e5f6f7"/>
        <outline color="000080"/>
        <font bold="true" color="000080" name="Arial" size="10"/>
        <position>100 100 100 100</position>
        <barchart active="true" height="110" width="160"/>
      </node>
      <node id="short-line-density-2">
        <name>short-line-density-2</name>
        <interior color="e5f6f7"/>
        <outline color="000080"/>
        <font bold="true" color="000080" name="Arial" size="10"/>
        <position>100 100 100 100</position>
        <barchart active="true" height="110" width="160"/>
      </node>
      <node id="vedge-mean">
        <name>vedge-mean</name>
        <interior color="e5f6f7"/>
        <outline color="000080"/>
        <font bold="true" color="000080" name="Arial" size="10"/>
        <position>100 100 100 100</position>
        <barchart active="true" height="110" width="160"/>
      </node>
      <node id="vegde-sd">
        <name>vegde-sd</name>
        <interior color="e5f6f7"/>
        <outline color="000080"/>
        <font bold="true" color="000080" name="Arial" size="10"/>
        <position>100 100 100 100</position>
        <barchart active="true" height="110" width="160"/>
      </node>
      <node id="hedge-mean">
        <name>hedge-mean</name>
        <interior color="e5f6f7"/>
        <outline color="000080"/>
        <font bold="true" color="000080" name="Arial" size="10"/>
        <position>100 100 100 100</position>
        <barchart active="true" height="110" width="160"/>
      </node>
      <node id="hedge-sd">
        <name>hedge-sd</name>
        <interior color="e5f6f7"/>
        <outline color="000080"/>
        <font bold="true" color="000080" name="Arial" size="10"/>
        <position>100 100 100 100</position>
        <barchart active="true" height="110" width="160"/>
      </node>
      <node id="intensity-mean">
        <name>intensity-mean</name>
        <interior color="e5f6f7"/>
        <outline color="000080"/>
        <font bold="true" color="000080" name="Arial" size="10"/>
        <position>100 100 100 100</position>
        <barchart active="true" height="110" width="160"/>
      </node>
      <node id="rawred-mean">
        <name>rawred-mean</name>
        <interior color="e5f6f7"/>
        <outline color="000080"/>
        <font bold="true" color="000080" name="Arial" size="10"/>
        <position>100 100 100 100</position>
        <barchart active="true" height="110" width="160"/>
      </node>
      <node id="rawblue-mean">
        <name>rawblue-mean</name>
        <interior color="e5f6f7"/>
        <outline color="000080"/>
        <font bold="true" color="000080" name="Arial" size="10"/>
        <position>100 100 100 100</position>
        <barchart active="true" height="110" width="160"/>
      </node>
      <node id="rawgreen-mean">
        <name>rawgreen-mean</name>
        <interior color="e5f6f7"/>
        <outline color="000080"/>
        <font bold="true" color="000080" name="Arial" size="10"/>
        <position>100 100 100 100</position>
        <barchart active="true" height="110" width="160"/>
      </node>
      <node id="exred-mean">
        <name>exred-mean</name>
        <interior color="e5f6f7"/>
        <outline color="000080"/>
        <font bold="true" color="000080" name="Arial" size="10"/>
        <position>100 100 100 100</position>
        <barchart active="true" height="110" width="160"/>
      </node>
      <node id="exblue-mean">
        <name>exblue-mean</name>
        <interior color="e5f6f7"/>
        <outline color="000080"/>
        <font bold="true" color="000080" name="Arial" size="10"/>
        <position>100 100 100 100</position>
        <barchart active="true" height="110" width="160"/>
      </node>
      <node id="exgreen-mean">
        <name>exgreen-mean</name>
        <interior color="e5f6f7"/>
        <outline color="000080"/>
        <font bold="true" color="000080" name="Arial" size="10"/>
        <position>100 100 100 100</position>
        <barchart active="true" height="110" width="160"/>
      </node>
      <node id="value-mean">
        <name>value-mean</name>
        <interior color="e5f6f7"/>
        <outline color="000080"/>
        <font bold="true" color="000080" name="Arial" size="10"/>
        <position>100 100 100 100</position>
        <barchart active="true" height="110" width="160"/>
      </node>
      <node id="saturation-mean">
        <name>saturation-mean</name>
        <interior color="e5f6f7"/>
        <outline color="000080"/>
        <font bold="true" color="000080" name="Arial" size="10"/>
        <position>100 100 100 100</position>
        <barchart active="true" height="110" width="160"/>
      </node>
      <node id="hue-mean">
        <name>hue-mean</name>
        <interior color="e5f6f7"/>
        <outline color="000080"/>
        <font bold="true" color="000080" name="Arial" size="10"/>
        <position>100 100 100 100</position>
        <barchart active="true" height="110" width="160"/>
      </node>
      <node id="class">
        <name>class</name>
        <interior color="e5f6f7"/>
        <outline color="000080"/>
        <font bold="true" color="000080" name="Arial" size="10"/>
        <position>100 100 100 100</position>
        <barchart active="true" height="110" width="160"/>
      </node>
      <node id="LV_18302">
        <name>LV_18302</name>
        <interior color="e5f6f7"/>
        <outline color="000080"/>
        <font bold="true" color="000080" name="Arial" size="10"/>
        <position>100 100 100 100</position>
        <barchart active="true" height="110" width="160"/>
      </node>
      <node id="LV_19810">
        <name>LV_19810</name>
        <interior color="e5f6f7"/>
        <outline color="000080"/>
        <font bold="true" color="000080" name="Arial" size="10"/>
        <position>100 100 100 100</position>
        <barchart active="true" height="110" width="160"/>
      </node>
      <node id="LV_20468">
        <name>LV_20468</name>
        <interior color="e5f6f7"/>
        <outline color="000080"/>
        <font bold="true" color="000080" name="Arial" size="10"/>
        <position>100 100 100 100</position>
        <barchart active="true" height="110" width="160"/>
      </node>
    </genie>
  </extensions>
</smile>
