<?xml version="1.0" encoding="ISO-8859-1" standalone="no"?>
<smile discsamples="10000" id="DAG" numsamples="10000" version="1.0">
  <nodes>
    <equation id="short-line-density-5">
      <definition lower="0.0" upper="0.333333">short-line-density-5=Normal(0.014323116250000037,0.00161195763488898)</definition>
      <discretization>
        <interval upper="0.033333299999999996"/>
        <interval upper="0.06666659999999999"/>
        <interval upper="0.09999989999999999"/>
        <interval upper="0.13333319999999999"/>
        <interval upper="0.1666665"/>
        <interval upper="0.1999998"/>
        <interval upper="0.23333310000000002"/>
        <interval upper="0.2666664"/>
        <interval upper="0.29999970000000004"/>
        <interval upper="0.33333300000000005"/>
      </discretization>
    </equation>
    <equation id="short-line-density-2">
      <definition lower="0.0" upper="0.222222">short-line-density-2=Normal(0.004489441250000001,5.618080852990484E-4)</definition>
      <discretization>
        <interval upper="0.0222222"/>
        <interval upper="0.0444444"/>
        <interval upper="0.0666666"/>
        <interval upper="0.0888888"/>
        <interval upper="0.111111"/>
        <interval upper="0.1333332"/>
        <interval upper="0.1555554"/>
        <interval upper="0.1777776"/>
        <interval upper="0.1999998"/>
        <interval upper="0.222222"/>
      </discretization>
    </equation>
    <cpt id="LV_1272">
      <state id="0"/>
      <state id="1"/>
      <state id="2"/>
      <probabilities>9.592326139088729E-4 0.45544970631982046 0.5435910610662708 </probabilities>
    </cpt>
    <equation id="region-centroid-col">
      <parents>LV_1272</parents>
      <definition lower="1.0" upper="254.0">region-centroid-col=Choose(LV_1272,Normal(0.0,1.0),Normal(192.8657778211994,1386.8227764825626),Normal(68.82872670712267,1688.5503830000046))</definition>
      <discretization>
        <interval upper="26.3"/>
        <interval upper="51.6"/>
        <interval upper="76.9"/>
        <interval upper="102.2"/>
        <interval upper="127.5"/>
        <interval upper="152.8"/>
        <interval upper="178.10000000000002"/>
        <interval upper="203.40000000000003"/>
        <interval upper="228.70000000000005"/>
        <interval upper="254.00000000000006"/>
      </discretization>
    </equation>
    <cpt id="class">
      <state id="0"/>
      <state id="1"/>
      <state id="2"/>
      <state id="3"/>
      <state id="4"/>
      <state id="5"/>
      <state id="6"/>
      <parents>LV_1272</parents>
      <probabilities>0.14285714285714285 0.14285714285714285 0.14285714285714285 0.14285714285714285 0.14285714285714285 0.14285714285714285 0.14285714285714285 0.060638926079452954 0.1609119181444998 0.06053972832514519 0.1555336500028351 0.1761491039707454 0.15928227556991573 0.2269443979074058 0.2040260352382962 0.1329376165375116 0.2067285181851074 0.1348337528886535 0.12276440279651683 0.12994045137024385 0.06876922298367061 </probabilities>
    </cpt>
    <equation id="region-centroid-row">
      <parents>class</parents>
      <definition lower="11.0" upper="251.0">region-centroid-row=Choose(class,Normal(102.73958333329767,811.2602370726057),Normal(97.27722772274018,1431.4646323679779),Normal(111.15807560133638,442.6987321623617),Normal(204.9999999999317,764.2847682258349),Normal(186.62745098033116,128.32314745210982),Normal(46.37248322146095,562.7388478754368),Normal(113.77133105798167,1083.2328107870562))</definition>
      <discretization>
        <interval upper="35.0"/>
        <interval upper="59.0"/>
        <interval upper="83.0"/>
        <interval upper="107.0"/>
        <interval upper="131.0"/>
        <interval upper="155.0"/>
        <interval upper="179.0"/>
        <interval upper="203.0"/>
        <interval upper="227.0"/>
        <interval upper="251.0"/>
      </discretization>
    </equation>
    <equation id="rawblue-mean">
      <parents>class</parents>
      <definition lower="0.0" upper="150.889">rawblue-mean=Choose(class,Normal(18.711418854160183,116.14996986918287),Normal(56.13311108909038,335.6105862950173),Normal(13.58190212027027,264.11296483396274),Normal(13.872592733328705,25.72828543679669),Normal(60.76361830063374,143.1820390045026),Normal(134.9962617449212,84.10045155799948),Normal(12.691694928323317,144.70545466107953))</definition>
      <discretization>
        <interval upper="15.0889"/>
        <interval upper="30.1778"/>
        <interval upper="45.2667"/>
        <interval upper="60.3556"/>
        <interval upper="75.4445"/>
        <interval upper="90.5334"/>
        <interval upper="105.6223"/>
        <interval upper="120.71119999999999"/>
        <interval upper="135.8001"/>
        <interval upper="150.88899999999998"/>
      </discretization>
    </equation>
    <equation id="rawgreen-mean">
      <parents>rawblue-mean</parents>
      <definition lower="0.0" upper="142.556">rawgreen-mean=Choose(rawblue-mean)</definition>
      <discretization>
        <interval upper="14.255600000000001"/>
        <interval upper="28.511200000000002"/>
        <interval upper="42.7668"/>
        <interval upper="57.022400000000005"/>
        <interval upper="71.278"/>
        <interval upper="85.5336"/>
        <interval upper="99.78920000000001"/>
        <interval upper="114.04480000000001"/>
        <interval upper="128.30040000000002"/>
        <interval upper="142.55600000000004"/>
      </discretization>
    </equation>
    <equation id="rawred-mean">
      <parents>rawgreen-mean</parents>
      <definition lower="0.0" upper="137.111">rawred-mean=Choose(rawgreen-mean)</definition>
      <discretization>
        <interval upper="13.711099999999998"/>
        <interval upper="27.422199999999997"/>
        <interval upper="41.13329999999999"/>
        <interval upper="54.84439999999999"/>
        <interval upper="68.5555"/>
        <interval upper="82.2666"/>
        <interval upper="95.9777"/>
        <interval upper="109.6888"/>
        <interval upper="123.3999"/>
        <interval upper="137.111"/>
      </discretization>
    </equation>
    <equation id="intensity-mean">
      <parents>rawred-mean</parents>
      <definition lower="0.0" upper="143.444">intensity-mean=Choose(rawred-mean)</definition>
      <discretization>
        <interval upper="14.344399999999998"/>
        <interval upper="28.688799999999997"/>
        <interval upper="43.033199999999994"/>
        <interval upper="57.377599999999994"/>
        <interval upper="71.722"/>
        <interval upper="86.06639999999999"/>
        <interval upper="100.41079999999998"/>
        <interval upper="114.75519999999997"/>
        <interval upper="129.09959999999998"/>
        <interval upper="143.444"/>
      </discretization>
    </equation>
    <equation id="value-mean">
      <parents>rawblue-mean</parents>
      <definition lower="0.0" upper="150.889">value-mean=Choose(rawblue-mean)</definition>
      <discretization>
        <interval upper="15.0889"/>
        <interval upper="30.1778"/>
        <interval upper="45.2667"/>
        <interval upper="60.3556"/>
        <interval upper="75.4445"/>
        <interval upper="90.5334"/>
        <interval upper="105.6223"/>
        <interval upper="120.71119999999999"/>
        <interval upper="135.8001"/>
        <interval upper="150.88899999999998"/>
      </discretization>
    </equation>
    <equation id="exred-mean">
      <parents>class</parents>
      <definition lower="-49.6667" upper="9.88889">exred-mean=Choose(class,Normal(0.5783180034720217,16.640568189190706),Normal(-15.135312990094006,45.4330645762081),Normal(-9.382970948450383,59.92592759944824),Normal(-9.196665306663606,12.48021203335897),Normal(-16.215320392151565,15.145898745885377),Normal(-33.366143288579416,71.28849940074181),Normal(-6.419796126277668,30.777694014010923))</definition>
      <discretization>
        <interval upper="-43.711141"/>
        <interval upper="-37.755582"/>
        <interval upper="-31.800022999999996"/>
        <interval upper="-25.844463999999995"/>
        <interval upper="-19.888904999999994"/>
        <interval upper="-13.933345999999995"/>
        <interval upper="-7.977786999999996"/>
        <interval upper="-2.0222279999999966"/>
        <interval upper="3.9333310000000026"/>
        <interval upper="9.888890000000002"/>
      </discretization>
    </equation>
    <equation id="exblue-mean">
      <parents>class</parents>
      <definition lower="-12.4444" upper="82.0">exblue-mean=Choose(class,Normal(11.960261836801399,68.21761294064139),Normal(31.980196666656138,126.61896416401152),Normal(13.959526965630939,126.45558432288146),Normal(-4.884444043331699,11.527077921208521),Normal(34.86964411763566,62.74167195187093),Normal(50.06673959729864,162.27375189254292),Normal(12.412968450507703,97.41861697268476))</definition>
      <discretization>
        <interval upper="-2.9999599999999997"/>
        <interval upper="6.44448"/>
        <interval upper="15.88892"/>
        <interval upper="25.33336"/>
        <interval upper="34.7778"/>
        <interval upper="44.22224"/>
        <interval upper="53.66668"/>
        <interval upper="63.11112"/>
        <interval upper="72.55556"/>
        <interval upper="82.0"/>
      </discretization>
    </equation>
    <equation id="exgreen-mean">
      <parents>class</parents>
      <definition lower="-33.8889" upper="24.6667">exgreen-mean=Choose(class,Normal(-12.538581736106758,21.82297193147463),Normal(-16.844882079202367,24.497160375011575),Normal(-4.576556494843782,15.458679224916795),Normal(14.08111150332864,13.816752186274387),Normal(-18.65431924835991,22.863904420389225),Normal(-16.700596711403794,36.52292302293771),Normal(-5.99317444027099,19.549153521687803))</definition>
      <discretization>
        <interval upper="-28.03334"/>
        <interval upper="-22.17778"/>
        <interval upper="-16.322219999999998"/>
        <interval upper="-10.466659999999997"/>
        <interval upper="-4.611099999999998"/>
        <interval upper="1.244460000000002"/>
        <interval upper="7.1000200000000016"/>
        <interval upper="12.955580000000001"/>
        <interval upper="18.81114"/>
        <interval upper="24.666700000000002"/>
      </discretization>
    </equation>
    <equation id="saturation-mean">
      <parents>class</parents>
      <definition lower="0.0" upper="1.0">saturation-mean=Choose(class,Normal(0.4827007499998324,0.013666656341721579),Normal(0.30715013531343016,0.012638865734120836),Normal(0.7559313264602212,0.0674031914480037),Normal(0.4138507366665286,0.012231865881315678),Normal(0.29533479084957676,0.006770895907030323),Normal(0.21029936577174152,0.010874925053025161),Normal(0.5114892047779825,0.08928481373953857))</definition>
      <discretization>
        <interval upper="0.1"/>
        <interval upper="0.2"/>
        <interval upper="0.30000000000000004"/>
        <interval upper="0.4"/>
        <interval upper="0.5"/>
        <interval upper="0.6"/>
        <interval upper="0.7"/>
        <interval upper="0.7999999999999999"/>
        <interval upper="0.8999999999999999"/>
        <interval upper="0.9999999999999999"/>
      </discretization>
    </equation>
    <equation id="hue-mean">
      <parents>class</parents>
      <definition lower="-3.04418" upper="2.91248">hue-mean=Choose(class,Normal(-1.3507030763884178,0.13874831462792764),Normal(-2.032600264025733,0.019933151887838993),Normal(-2.2151611340198567,0.1362710378253132),Normal(2.241703499999253,0.19439984823750425),Normal(-2.066436176469913,0.02075920305861553),Normal(-2.301255771811308,0.013215712175341801),Normal(-1.7950903412963157,0.5113589562036834))</definition>
      <discretization>
        <interval upper="-2.448514"/>
        <interval upper="-1.8528479999999998"/>
        <interval upper="-1.2571819999999998"/>
        <interval upper="-0.6615159999999999"/>
        <interval upper="-0.06584999999999996"/>
        <interval upper="0.529816"/>
        <interval upper="1.1254819999999999"/>
        <interval upper="1.721148"/>
        <interval upper="2.316814"/>
        <interval upper="2.91248"/>
      </discretization>
    </equation>
    <cpt id="LV_1219">
      <state id="0"/>
      <state id="1"/>
      <state id="2"/>
      <state id="3"/>
      <parents>class</parents>
      <probabilities>0.0068515938076792425 0.02831759868610578 0.3600094060484428 0.6048214014577722 0.11851835816873967 0.19526497773955223 0.41355938592976366 0.2726572781619444 0.17280290212674376 0.13700512341876198 0.15794839622970147 0.5322435782247928 0.0065815629500793026 0.07418358448958963 0.5857644786266242 0.3334703739337068 0.0074178339646411426 0.39156402721470857 0.5946445392472267 0.006373599573423489 0.006543980642118131 0.008004722226397011 0.04611269253197093 0.9393386045995139 0.033849655291637706 0.09523587296647068 0.1229937944479505 0.7479206772939412 </probabilities>
    </cpt>
    <equation id="vedge-mean">
      <parents>LV_1219</parents>
      <definition lower="0.0" upper="29.2222">vedge-mean=Choose(LV_1219,Normal(11.345625005811716,46.87869163884248),Normal(3.3155938445661945,0.9049595794954042),Normal(1.8306377752063758,0.2675612293616687),Normal(0.7059992788671868,0.13591423244036976))</definition>
      <discretization>
        <interval upper="2.9222200000000003"/>
        <interval upper="5.8444400000000005"/>
        <interval upper="8.766660000000002"/>
        <interval upper="11.688880000000001"/>
        <interval upper="14.6111"/>
        <interval upper="17.53332"/>
        <interval upper="20.45554"/>
        <interval upper="23.37776"/>
        <interval upper="26.299979999999998"/>
        <interval upper="29.222199999999997"/>
      </discretization>
    </equation>
    <cpt id="LV_1200">
      <state id="0"/>
      <state id="1"/>
      <state id="2"/>
      <state id="3"/>
      <parents>LV_1219</parents>
      <probabilities>0.024059007247989622 0.0443387809628319 0.38786711586163564 0.5437350959275429 0.010311431017698892 0.5853128421375106 0.009554402922222668 0.39482132392256797 0.006507385200957912 0.9535491387567426 0.002888030620952354 0.037055445421347095 0.9918852294310515 0.0042086966021797284 0.0019345113400364474 0.0019715626267322265 </probabilities>
    </cpt>
    <equation id="vegde-sd">
      <parents>LV_1200</parents>
      <definition lower="0.0" upper="991.718">vegde-sd=Choose(LV_1200,Normal(0.40104777248834167,0.08659490656003896),Normal(1.6548567711804907,0.6273362715965731),Normal(231.0301028284365,61119.408705981514),Normal(7.144094888943756,18.382980279675216))</definition>
      <discretization>
        <interval upper="99.17179999999999"/>
        <interval upper="198.34359999999998"/>
        <interval upper="297.5154"/>
        <interval upper="396.68719999999996"/>
        <interval upper="495.8589999999999"/>
        <interval upper="595.0307999999999"/>
        <interval upper="694.2025999999998"/>
        <interval upper="793.3743999999998"/>
        <interval upper="892.5461999999998"/>
        <interval upper="991.7179999999997"/>
      </discretization>
    </equation>
    <cpt id="LV_1189">
      <state id="0"/>
      <state id="1"/>
      <state id="2"/>
      <parents>LV_1200</parents>
      <probabilities>0.013257796919230604 0.884817904474478 0.10192429860629142 0.06846054688570954 0.18620385508851753 0.745335598025773 0.7396957949510475 0.2137185655797153 0.046585639469237106 0.393523175593405 0.21423240166681395 0.392244422739781 </probabilities>
    </cpt>
    <equation id="hedge-mean">
      <parents>LV_1189</parents>
      <definition lower="0.0" upper="44.7222">hedge-mean=Choose(LV_1189,Normal(11.392473995973756,61.472750436437046),Normal(0.8598958467267127,0.21928691817272508),Normal(2.7276552241482293,1.4438462728281283))</definition>
      <discretization>
        <interval upper="4.47222"/>
        <interval upper="8.94444"/>
        <interval upper="13.41666"/>
        <interval upper="17.88888"/>
        <interval upper="22.3611"/>
        <interval upper="26.83332"/>
        <interval upper="31.30554"/>
        <interval upper="35.77776"/>
        <interval upper="40.24998"/>
        <interval upper="44.7222"/>
      </discretization>
    </equation>
    <equation id="hedge-sd">
      <parents>LV_1189</parents>
      <definition lower="0.0" upper="1386.33">hedge-sd=Choose(LV_1189,Normal(89.2741264340988,38664.396730157256),Normal(0.5167079826929256,0.1297715010536777),Normal(2.433946437710044,2.105903579293074))</definition>
      <discretization>
        <interval upper="138.63299999999998"/>
        <interval upper="277.26599999999996"/>
        <interval upper="415.89899999999994"/>
        <interval upper="554.5319999999999"/>
        <interval upper="693.165"/>
        <interval upper="831.798"/>
        <interval upper="970.431"/>
        <interval upper="1109.064"/>
        <interval upper="1247.6970000000001"/>
        <interval upper="1386.3300000000002"/>
      </discretization>
    </equation>
  </nodes>
  <extensions>
    <genie app="GeNIe 2.3.3705.0 ACADEMIC" faultnameformat="nodestate" name="DAG" version="1.0">
      <node id="region-centroid-col">
        <name>region-centroid-col</name>
        <interior color="e5f6f7"/>
        <outline color="000080"/>
        <font bold="true" color="000080" name="Arial" size="10"/>
        <position>100 100 100 100</position>
        <barchart active="true" height="110" width="160"/>
      </node>
      <node id="region-centroid-row">
        <name>region-centroid-row</name>
        <interior color="e5f6f7"/>
        <outline color="000080"/>
        <font bold="true" color="000080" name="Arial" size="10"/>
        <position>100 100 100 100</position>
        <barchart active="true" height="110" width="160"/>
      </node>
      <node id="short-line-density-5">
        <name>short-line-density-5</name>
        <interior color="e5f6f7"/>
        <outline color="000080"/>
        <font bold="true" color="000080" name="Arial" size="10"/>
        <position>100 100 100 100</position>
        <barchart active="true" height="110" width="160"/>
      </node>
      <node id="short-line-density-2">
        <name>short-line-density-2</name>
        <interior color="e5f6f7"/>
        <outline color="000080"/>
        <font bold="true" color="000080" name="Arial" size="10"/>
        <position>100 100 100 100</position>
        <barchart active="true" height="110" width="160"/>
      </node>
      <node id="vedge-mean">
        <name>vedge-mean</name>
        <interior color="e5f6f7"/>
        <outline color="000080"/>
        <font bold="true" color="000080" name="Arial" size="10"/>
        <position>100 100 100 100</position>
        <barchart active="true" height="110" width="160"/>
      </node>
      <node id="vegde-sd">
        <name>vegde-sd</name>
        <interior color="e5f6f7"/>
        <outline color="000080"/>
        <font bold="true" color="000080" name="Arial" size="10"/>
        <position>100 100 100 100</position>
        <barchart active="true" height="110" width="160"/>
      </node>
      <node id="hedge-mean">
        <name>hedge-mean</name>
        <interior color="e5f6f7"/>
        <outline color="000080"/>
        <font bold="true" color="000080" name="Arial" size="10"/>
        <position>100 100 100 100</position>
        <barchart active="true" height="110" width="160"/>
      </node>
      <node id="hedge-sd">
        <name>hedge-sd</name>
        <interior color="e5f6f7"/>
        <outline color="000080"/>
        <font bold="true" color="000080" name="Arial" size="10"/>
        <position>100 100 100 100</position>
        <barchart active="true" height="110" width="160"/>
      </node>
      <node id="intensity-mean">
        <name>intensity-mean</name>
        <interior color="e5f6f7"/>
        <outline color="000080"/>
        <font bold="true" color="000080" name="Arial" size="10"/>
        <position>100 100 100 100</position>
        <barchart active="true" height="110" width="160"/>
      </node>
      <node id="rawred-mean">
        <name>rawred-mean</name>
        <interior color="e5f6f7"/>
        <outline color="000080"/>
        <font bold="true" color="000080" name="Arial" size="10"/>
        <position>100 100 100 100</position>
        <barchart active="true" height="110" width="160"/>
      </node>
      <node id="rawblue-mean">
        <name>rawblue-mean</name>
        <interior color="e5f6f7"/>
        <outline color="000080"/>
        <font bold="true" color="000080" name="Arial" size="10"/>
        <position>100 100 100 100</position>
        <barchart active="true" height="110" width="160"/>
      </node>
      <node id="rawgreen-mean">
        <name>rawgreen-mean</name>
        <interior color="e5f6f7"/>
        <outline color="000080"/>
        <font bold="true" color="000080" name="Arial" size="10"/>
        <position>100 100 100 100</position>
        <barchart active="true" height="110" width="160"/>
      </node>
      <node id="exred-mean">
        <name>exred-mean</name>
        <interior color="e5f6f7"/>
        <outline color="000080"/>
        <font bold="true" color="000080" name="Arial" size="10"/>
        <position>100 100 100 100</position>
        <barchart active="true" height="110" width="160"/>
      </node>
      <node id="exblue-mean">
        <name>exblue-mean</name>
        <interior color="e5f6f7"/>
        <outline color="000080"/>
        <font bold="true" color="000080" name="Arial" size="10"/>
        <position>100 100 100 100</position>
        <barchart active="true" height="110" width="160"/>
      </node>
      <node id="exgreen-mean">
        <name>exgreen-mean</name>
        <interior color="e5f6f7"/>
        <outline color="000080"/>
        <font bold="true" color="000080" name="Arial" size="10"/>
        <position>100 100 100 100</position>
        <barchart active="true" height="110" width="160"/>
      </node>
      <node id="value-mean">
        <name>value-mean</name>
        <interior color="e5f6f7"/>
        <outline color="000080"/>
        <font bold="true" color="000080" name="Arial" size="10"/>
        <position>100 100 100 100</position>
        <barchart active="true" height="110" width="160"/>
      </node>
      <node id="saturation-mean">
        <name>saturation-mean</name>
        <interior color="e5f6f7"/>
        <outline color="000080"/>
        <font bold="true" color="000080" name="Arial" size="10"/>
        <position>100 100 100 100</position>
        <barchart active="true" height="110" width="160"/>
      </node>
      <node id="hue-mean">
        <name>hue-mean</name>
        <interior color="e5f6f7"/>
        <outline color="000080"/>
        <font bold="true" color="000080" name="Arial" size="10"/>
        <position>100 100 100 100</position>
        <barchart active="true" height="110" width="160"/>
      </node>
      <node id="class">
        <name>class</name>
        <interior color="e5f6f7"/>
        <outline color="000080"/>
        <font bold="true" color="000080" name="Arial" size="10"/>
        <position>100 100 100 100</position>
        <barchart active="true" height="110" width="160"/>
      </node>
      <node id="LV_1189">
        <name>LV_1189</name>
        <interior color="e5f6f7"/>
        <outline color="000080"/>
        <font bold="true" color="000080" name="Arial" size="10"/>
        <position>100 100 100 100</position>
        <barchart active="true" height="110" width="160"/>
      </node>
      <node id="LV_1200">
        <name>LV_1200</name>
        <interior color="e5f6f7"/>
        <outline color="000080"/>
        <font bold="true" color="000080" name="Arial" size="10"/>
        <position>100 100 100 100</position>
        <barchart active="true" height="110" width="160"/>
      </node>
      <node id="LV_1219">
        <name>LV_1219</name>
        <interior color="e5f6f7"/>
        <outline color="000080"/>
        <font bold="true" color="000080" name="Arial" size="10"/>
        <position>100 100 100 100</position>
        <barchart active="true" height="110" width="160"/>
      </node>
      <node id="LV_1272">
        <name>LV_1272</name>
        <interior color="e5f6f7"/>
        <outline color="000080"/>
        <font bold="true" color="000080" name="Arial" size="10"/>
        <position>100 100 100 100</position>
        <barchart active="true" height="110" width="160"/>
      </node>
    </genie>
  </extensions>
</smile>
