<?xml version="1.0" encoding="ISO-8859-1" standalone="no"?>
<smile discsamples="10000" id="DAG" numsamples="10000" version="1.0">
  <nodes>
    <cpt id="LV_19">
      <state id="0"/>
      <state id="1"/>
      <probabilities>0.25010062536865163 0.7498993746313483 </probabilities>
    </cpt>
    <equation id="R">
      <parents>LV_19</parents>
      <definition lower="0.0" upper="74.0">R=Choose(LV_19,Normal(1.9999999999988065,0.011794662662743888),Normal(11.564960631534968,69.94317109881662))</definition>
      <discretization>
        <interval upper="7.4"/>
        <interval upper="14.8"/>
        <interval upper="22.200000000000003"/>
        <interval upper="29.6"/>
        <interval upper="37.0"/>
        <interval upper="44.4"/>
        <interval upper="51.8"/>
        <interval upper="59.199999999999996"/>
        <interval upper="66.6"/>
        <interval upper="74.0"/>
      </discretization>
    </equation>
    <cpt id="LV_16">
      <state id="0"/>
      <state id="1"/>
      <parents>LV_19</parents>
      <probabilities>0.19957638709881312 0.8004236129011869 0.22482857879025753 0.7751714212097425 </probabilities>
    </cpt>
    <equation id="F">
      <parents>LV_16</parents>
      <definition lower="1.0" upper="50.0">F=Choose(LV_16,Normal(0.9999999999993106,0.013605385066924984),Normal(6.8468877274986895,36.679093958270684))</definition>
      <discretization>
        <interval upper="5.9"/>
        <interval upper="10.8"/>
        <interval upper="15.700000000000001"/>
        <interval upper="20.6"/>
        <interval upper="25.5"/>
        <interval upper="30.4"/>
        <interval upper="35.3"/>
        <interval upper="40.199999999999996"/>
        <interval upper="45.099999999999994"/>
        <interval upper="49.99999999999999"/>
      </discretization>
    </equation>
    <equation id="M">
      <parents>LV_16</parents>
      <definition lower="250.0" upper="12500.0">M=Choose(LV_16,Normal(249.99999999982754,0.013605427577457342),Normal(1711.7219318746743,2292207.970988405))</definition>
      <discretization>
        <interval upper="1475.0"/>
        <interval upper="2700.0"/>
        <interval upper="3925.0"/>
        <interval upper="5150.0"/>
        <interval upper="6375.0"/>
        <interval upper="7600.0"/>
        <interval upper="8825.0"/>
        <interval upper="10050.0"/>
        <interval upper="11275.0"/>
        <interval upper="12500.0"/>
      </discretization>
    </equation>
    <equation id="T">
      <parents>LV_16</parents>
      <definition lower="2.0" upper="98.0">T=Choose(LV_16,Normal(11.379662185675985,82.43158726035749),Normal(40.5008827078404,566.6058210418463))</definition>
      <discretization>
        <interval upper="11.6"/>
        <interval upper="21.2"/>
        <interval upper="30.799999999999997"/>
        <interval upper="40.4"/>
        <interval upper="50.0"/>
        <interval upper="59.6"/>
        <interval upper="69.2"/>
        <interval upper="78.8"/>
        <interval upper="88.39999999999999"/>
        <interval upper="97.99999999999999"/>
      </discretization>
    </equation>
    <cpt id="class">
      <state id="0"/>
      <state id="1"/>
      <parents>LV_16</parents>
      <probabilities>0.8590611205044854 0.1409388794955146 0.7185737455093546 0.2814262544906454 </probabilities>
    </cpt>
  </nodes>
  <extensions>
    <genie app="GeNIe 2.3.3705.0 ACADEMIC" faultnameformat="nodestate" name="DAG" version="1.0">
      <node id="R">
        <name>R</name>
        <interior color="e5f6f7"/>
        <outline color="000080"/>
        <font bold="true" color="000080" name="Arial" size="10"/>
        <position>100 100 100 100</position>
        <barchart active="true" height="110" width="160"/>
      </node>
      <node id="F">
        <name>F</name>
        <interior color="e5f6f7"/>
        <outline color="000080"/>
        <font bold="true" color="000080" name="Arial" size="10"/>
        <position>100 100 100 100</position>
        <barchart active="true" height="110" width="160"/>
      </node>
      <node id="M">
        <name>M</name>
        <interior color="e5f6f7"/>
        <outline color="000080"/>
        <font bold="true" color="000080" name="Arial" size="10"/>
        <position>100 100 100 100</position>
        <barchart active="true" height="110" width="160"/>
      </node>
      <node id="T">
        <name>T</name>
        <interior color="e5f6f7"/>
        <outline color="000080"/>
        <font bold="true" color="000080" name="Arial" size="10"/>
        <position>100 100 100 100</position>
        <barchart active="true" height="110" width="160"/>
      </node>
      <node id="class">
        <name>class</name>
        <interior color="e5f6f7"/>
        <outline color="000080"/>
        <font bold="true" color="000080" name="Arial" size="10"/>
        <position>100 100 100 100</position>
        <barchart active="true" height="110" width="160"/>
      </node>
      <node id="LV_16">
        <name>LV_16</name>
        <interior color="e5f6f7"/>
        <outline color="000080"/>
        <font bold="true" color="000080" name="Arial" size="10"/>
        <position>100 100 100 100</position>
        <barchart active="true" height="110" width="160"/>
      </node>
      <node id="LV_19">
        <name>LV_19</name>
        <interior color="e5f6f7"/>
        <outline color="000080"/>
        <font bold="true" color="000080" name="Arial" size="10"/>
        <position>100 100 100 100</position>
        <barchart active="true" height="110" width="160"/>
      </node>
    </genie>
  </extensions>
</smile>
