<?xml version="1.0" encoding="ISO-8859-1" standalone="no"?>
<smile discsamples="10000" id="DAG" numsamples="10000" version="1.0">
  <nodes>
    <cpt id="LV_35">
      <state id="0"/>
      <state id="1"/>
      <state id="2"/>
      <probabilities>0.19671043129391613 0.24361796056521662 0.5596716081408672 </probabilities>
    </cpt>
    <equation id="R">
      <parents>LV_35</parents>
      <definition lower="0.0" upper="74.0">R=Choose(LV_35,Normal(3.9999999999969513,0.014951807352552903),Normal(1.999999999998778,0.012072904905502824),Normal(14.960316620692724,59.786881067691986))</definition>
      <discretization>
        <interval upper="7.4"/>
        <interval upper="14.8"/>
        <interval upper="22.200000000000003"/>
        <interval upper="29.6"/>
        <interval upper="37.0"/>
        <interval upper="44.4"/>
        <interval upper="51.8"/>
        <interval upper="59.199999999999996"/>
        <interval upper="66.6"/>
        <interval upper="74.0"/>
      </discretization>
    </equation>
    <cpt id="LV_32">
      <state id="0"/>
      <state id="1"/>
      <state id="2"/>
      <state id="3"/>
      <state id="4"/>
      <state id="5"/>
      <parents>LV_35</parents>
      <probabilities>0.013911776342392745 0.013911776342392745 0.013911776342392745 0.16348540253815022 0.651131020868828 0.14364824756584355 0.011385617515453502 0.011385617515453502 0.011385617515453502 0.19754601677966194 0.6271677915797671 0.1411293390942106 0.00512063324079713 0.00512063324079713 0.00512063324079713 0.2222276083686766 0.6048061559974547 0.15760433591147743 </probabilities>
    </cpt>
    <equation id="F">
      <parents>LV_32</parents>
      <definition lower="1.0" upper="50.0">F=Choose(LV_32,Normal(0.0,1.0),Normal(0.0,1.0),Normal(0.0,1.0),Normal(0.9999999999992806,0.014184289817403394),Normal(7.914745918361913,40.820712410913615),Normal(1.9999999999980198,0.019417719563291715))</definition>
      <discretization>
        <interval upper="5.9"/>
        <interval upper="10.8"/>
        <interval upper="15.700000000000001"/>
        <interval upper="20.6"/>
        <interval upper="25.5"/>
        <interval upper="30.4"/>
        <interval upper="35.3"/>
        <interval upper="40.199999999999996"/>
        <interval upper="45.099999999999994"/>
        <interval upper="49.99999999999999"/>
      </discretization>
    </equation>
    <equation id="M">
      <parents>LV_32</parents>
      <definition lower="250.0" upper="12500.0">M=Choose(LV_32,Normal(0.0,1.0),Normal(0.0,1.0),Normal(0.0,1.0),Normal(249.99999999982018,0.014184334149955355),Normal(1978.6864795904767,2551007.8331703674),Normal(499.9999999995051,0.019417961887159784))</definition>
      <discretization>
        <interval upper="1475.0"/>
        <interval upper="2700.0"/>
        <interval upper="3925.0"/>
        <interval upper="5150.0"/>
        <interval upper="6375.0"/>
        <interval upper="7600.0"/>
        <interval upper="8825.0"/>
        <interval upper="10050.0"/>
        <interval upper="11275.0"/>
        <interval upper="12500.0"/>
      </discretization>
    </equation>
    <equation id="T">
      <parents>LV_32</parents>
      <definition lower="2.0" upper="98.0">T=Choose(LV_32,Normal(0.0,1.0),Normal(0.0,1.0),Normal(0.0,1.0),Normal(12.094034813637888,79.9722571837238),Normal(44.6382563192652,515.7637082251484),Normal(21.405253431067262,274.4697816894861))</definition>
      <discretization>
        <interval upper="11.6"/>
        <interval upper="21.2"/>
        <interval upper="30.799999999999997"/>
        <interval upper="40.4"/>
        <interval upper="50.0"/>
        <interval upper="59.6"/>
        <interval upper="69.2"/>
        <interval upper="78.8"/>
        <interval upper="88.39999999999999"/>
        <interval upper="97.99999999999999"/>
      </discretization>
    </equation>
    <cpt id="class">
      <state id="0"/>
      <state id="1"/>
      <parents>LV_32</parents>
      <probabilities>0.5 0.5 0.5 0.5 0.5 0.5 0.8671339337104778 0.1328660662895223 0.6894977087354297 0.31050229126457024 0.8095220641732366 0.19047793582676342 </probabilities>
    </cpt>
  </nodes>
  <extensions>
    <genie app="GeNIe 2.3.3705.0 ACADEMIC" faultnameformat="nodestate" name="DAG" version="1.0">
      <node id="R">
        <name>R</name>
        <interior color="e5f6f7"/>
        <outline color="000080"/>
        <font bold="true" color="000080" name="Arial" size="10"/>
        <position>100 100 100 100</position>
        <barchart active="true" height="110" width="160"/>
      </node>
      <node id="F">
        <name>F</name>
        <interior color="e5f6f7"/>
        <outline color="000080"/>
        <font bold="true" color="000080" name="Arial" size="10"/>
        <position>100 100 100 100</position>
        <barchart active="true" height="110" width="160"/>
      </node>
      <node id="M">
        <name>M</name>
        <interior color="e5f6f7"/>
        <outline color="000080"/>
        <font bold="true" color="000080" name="Arial" size="10"/>
        <position>100 100 100 100</position>
        <barchart active="true" height="110" width="160"/>
      </node>
      <node id="T">
        <name>T</name>
        <interior color="e5f6f7"/>
        <outline color="000080"/>
        <font bold="true" color="000080" name="Arial" size="10"/>
        <position>100 100 100 100</position>
        <barchart active="true" height="110" width="160"/>
      </node>
      <node id="class">
        <name>class</name>
        <interior color="e5f6f7"/>
        <outline color="000080"/>
        <font bold="true" color="000080" name="Arial" size="10"/>
        <position>100 100 100 100</position>
        <barchart active="true" height="110" width="160"/>
      </node>
      <node id="LV_32">
        <name>LV_32</name>
        <interior color="e5f6f7"/>
        <outline color="000080"/>
        <font bold="true" color="000080" name="Arial" size="10"/>
        <position>100 100 100 100</position>
        <barchart active="true" height="110" width="160"/>
      </node>
      <node id="LV_35">
        <name>LV_35</name>
        <interior color="e5f6f7"/>
        <outline color="000080"/>
        <font bold="true" color="000080" name="Arial" size="10"/>
        <position>100 100 100 100</position>
        <barchart active="true" height="110" width="160"/>
      </node>
    </genie>
  </extensions>
</smile>
